tree
version=v4
num_class=1
num_tree_per_iteration=1
label_index=0
max_feature_idx=11
objective=regression
feature_names=MedInc HouseAge AveRooms AveBedrms Population AveOccup Latitude Longitude bedroom_ratio population_density location_cluster income_rooms
feature_infos=[-1.7754384434994495:5.8392679465339663] [-2.1907655106085215:1.8561733525482766] [-1.9043862182419304:57.166551507859516] [-1.7621165794365337:56.647271684169532] [-1.2519133921041592:23.868973719239396] [-0.20270179905984148:107.11644677509909] [-1.4476965100470898:2.9518155100350509] [-2.3772071424285768:2.5490171477918335] [0.10000000000000001:1] [1:6082] [-5207.6999999999998:-3757.1999999999998] [0.8569714285714285:333.33555555555552]
tree_sizes=2725 2890 2889 2893 2890 2878 2891 2889 2922 2885 2885 2889 2907 2883 2897 2901 2886 2899 2901 2905 2885 2895 2907 2895 2927 2891 2904 2899 2908 2885 2907 2915 2919 2885 2907 2928 2888 2915 2900 2920 2889 2906 2920 2891 2887 2882 2915 2892 2885 2921 2899 2901 2884 2899 2913 2926 2909 2916 2912 2899 2910 2865 2900 2889 2917 2916 2915 2928 2909 2908 2912 2886 2898 2886 2923 2896 2896 2910 2878 2904 2884 2895 2913 2880 2895 2911 2888 2926 2889 2913 2880 2900 2885 2924 2899 2851 2893 2885 2884 2867

Tree=0
num_leaves=31
num_cat=0
split_feature=0 0 0 5 5 8 1 0 0 5 0 5 5 1 0 6 5 1 5 1 0 8 8 0 0 7 5 1 7 6
split_gain=5661.84 1347.88 1053.6 769.646 339.222 253.9 189.721 168.006 147.785 145.805 133.46 125.487 88.9009 84.6654 84.0803 80.8657 80.6128 80.2972 76.0757 68.4048 63.9945 65.5871 54.3033 48.2628 47.1033 46.4353 44.8195 43.7121 43.5961 43.5712
threshold=0.60782675352463678 -0.42936072358847205 1.548230021614204 -0.064962654911632986 -0.036877398760494375 0.25848551568959638 -0.32599956385980072 0.11615982081551628 -0.79381129907592662 -0.097953450590647737 2.0800442835683044 -0.091422315813886393 -0.014682608688709674 -0.56405479110431822 0.94888212276141981 1.0726622376276256 -0.080520512605594827 1.1816835420221439 -0.069284264927120878 -0.16729607903012242 -0.87799202998462844 0.35252077807739807 0.21130611565942206 0.97101698120060742 -0.83984025144116514 0.97093011555017361 -0.0063683575346587962 -0.56405479110431822 -1.4074190610036099 -0.55609327619001581
decision_type=2 2 2 2 2 2 2 2 2 2 2 2 2 2 2 2 2 2 2 2 2 2 2 2 2 2 2 2 2 2
left_child=1 5 4 6 13 8 -3 17 -1 -8 19 24 27 -2 -6 25 -15 22 -10 -4 21 -13 -5 -18 -7 -11 -16 -9 -19 -20
right_child=2 3 10 7 14 11 9 12 18 15 -12 20 -14 16 26 -17 23 28 29 -21 -22 -23 -24 -25 -26 -27 -28 -29 -30 -31
leaf_value=2.0149883111407334 2.1139983119420696 2.0816071246161498 2.1384504480242601 2.0436282324730377 2.0843757993439365 2.0590993208516433 2.156213311590649 2.0680553494000629 2.0593489668151275 2.122571498669628 2.1962755197838963 2.027614791885997 2.0616823761226222 2.1928258812578223 2.1249630791956293 2.0577487206144918 2.1265050311229472 2.1086407753742544 2.0422863880976116 2.1832229156406653 2.0562501620830087 2.0617493279062145 2.0599150970672144 2.1612604811823228 2.0977691830930318 2.0714756302726069 2.0982035791906388 2.0928458280984632 2.0654664370784959 2.0243994522747499
leaf_weight=1548 213 452 216 1467 631 158 226 263 296 347 493 672 850 96 283 70 226 79 564 141 585 178 786 179 157 51 350 549 225 859
leaf_count=1548 213 452 216 1467 631 158 226 263 296 347 493 672 850 96 283 70 226 79 564 141 585 178 786 179 157 51 350 549 225 859
internal_value=2.07014 2.05306 2.13286 2.07048 2.11285 2.03443 2.10682 2.06061 2.02619 2.12323 2.17942 2.0498 2.07298 2.1404 2.09729 2.10731 2.15163 2.05256 2.03629 2.15613 2.04352 2.03476 2.04931 2.14187 2.07837 2.11602 2.11017 2.08482 2.07669 2.03149
internal_weight=13210 10382 2828 5365 1978 5017 1146 4219 3267 694 850 1750 1662 714 1264 468 501 2557 1719 357 1435 850 2253 405 315 398 633 812 304 1423
internal_count=13210 10382 2828 5365 1978 5017 1146 4219 3267 694 850 1750 1662 714 1264 468 501 2557 1719 357 1435 850 2253 405 315 398 633 812 304 1423
is_linear=0
shrinkage=1


Tree=1
num_leaves=31
num_cat=0
split_feature=0 0 0 5 5 2 0 6 0 1 5 0 5 1 5 1 1 8 5 0 5 8 1 0 7 7 6 0 2 7
split_gain=5110.19 1257.18 908.046 696.172 269.522 239.834 170.189 168.28 160.519 159.654 129.86 114.276 108.257 92.0888 82.3686 76.6609 76.3637 64.3511 61.0813 58.3271 56.2799 50.3536 46.0813 43.3225 38.3778 37.8819 47.5383 37.805 47.3558 37.7486
threshold=0.63245605034071983 -0.42936072358847205 1.4235081027694336 -0.062932875181849993 -0.036877398760494375 -0.51497651704230563 2.0800442835683044 1.0773425695638836 0.11615982081551628 -0.32599956385980072 -0.051749318543123958 -0.79381129907592662 -0.097953450590647737 -0.16729607903012242 -0.014682608688709674 1.1816835420221439 -0.56405479110431822 0.22819699464312948 -0.080520512605594827 -0.83984025144116514 -0.0051290296361505422 0.21130611565942206 1.1023317996073045 -0.19141755967872326 -1.4074190610036099 0.64185035527228995 -0.69650323427774563 -0.9960446083269624 -1.0416883412734823 0.63187824132447734
decision_type=2 2 2 2 2 2 2 2 2 2 2 2 2 2 2 2 2 2 2 2 2 2 2 2 2 2 2 2 2 2
left_child=1 5 4 7 16 10 13 9 15 25 19 -7 -11 -4 22 21 -2 -13 -18 -1 -6 -5 -10 -14 -17 26 -3 28 -12 -21
right_child=2 3 6 8 20 11 -8 -9 14 12 27 17 23 -15 -16 24 18 -19 -20 29 -22 -23 -24 -25 -26 -27 -28 -29 -30 -31
leaf_value=-0.016666547155654028 0.039226423515938226 0.071678158196692293 0.061722826324433135 -0.025618781352352932 0.036681931594441781 -0.052302032349714457 0.119827313088334 -0.016178944182103954 0.0091803577925298231 0.083868696507626933 -0.0096473481048914532 -0.03931656505425158 0.017095173835718576 0.10552370449671378 -0.0077258697181484398 0.037301739827766044 0.11499155792732572 -0.017019366805761167 0.067810292389662116 0.02837311956443285 0.014065198460421211 -0.0097959494426946292 0.041892112016574279 0.051386087097332937 -0.0037121834162627981 -0.00091184280802506011 0.01730037958934735 -0.021508251565011093 -0.046437640716070948 -0.0076331245620198307
leaf_weight=290 190 52 312 1449 503 1510 493 148 707 226 110 1179 130 195 887 77 86 446 339 190 607 770 127 316 220 182 177 747 427 118
leaf_count=290 190 52 312 1449 503 1510 493 148 707 226 110 1179 130 195 887 77 86 446 339 190 607 770 127 316 220 182 177 747 427 118
internal_value=7.57616e-11 -0.0158539 0.0610011 0.000730197 0.0390253 -0.0339288 0.0989095 0.0338292 -0.00888623 0.0406631 -0.0198193 -0.042399 0.0556766 0.0785693 0.00288086 -0.0169352 0.0655772 -0.0331968 0.0773576 -0.00057377 0.024314 -0.0201282 0.0141616 0.041391 0.00692106 0.0161155 0.0296482 -0.0287825 -0.0389015 0.0145785
internal_weight=13210 10485 2725 5468 1725 5017 1000 1231 4237 1083 1882 3135 672 507 1721 2516 615 1625 425 598 1110 2219 834 446 297 411 229 1284 537 308
internal_count=13210 10485 2725 5468 1725 5017 1000 1231 4237 1083 1882 3135 672 507 1721 2516 615 1625 425 598 1110 2219 834 446 297 411 229 1284 537 308
is_linear=0
shrinkage=0.05


Tree=2
num_leaves=31
num_cat=0
split_feature=0 0 0 5 5 5 1 6 0 0 7 6 7 6 5 6 7 1 1 5 5 7 5 6 7 6 7 0 2 1
split_gain=4614.7 1097.19 862.862 628.282 247.211 218.323 160.334 158.517 153.966 145.591 126.073 117.769 100.849 123.296 100.671 84.7902 92.3874 78.4113 75.5929 73.7542 72.1344 70.7401 62.7118 58.9948 59.2524 57.9083 67.6019 55.0439 51.6738 44.1681
threshold=0.60782675352463678 -0.42936072358847205 1.4235081027694336 -0.068694704353083294 -0.030338649389826711 -0.079699379802866274 -0.32599956385980072 -0.55609327619001581 1.9965199838114167 -0.029095264458013921 0.89613926094156138 1.0164982543925356 -1.0384508449344689 1.0539409098825956 -0.022364426661914658 1.0820229015001421 0.6667806401418287 -0.56405479110431822 -0.16729607903012242 -0.080520512605594827 0.029846391794197343 -1.3575584912645364 -0.099214388067252648 -0.47184730133737923 -0.53485909056983261 1.0258589182650504 -1.3076979215254625 0.94888212276141981 -0.30352997320407216 1.261035284436983
decision_type=2 2 2 2 2 2 2 2 2 2 2 2 2 2 2 2 2 2 2 2 2 2 2 2 2 2 2 2 2 2
left_child=1 5 4 6 17 15 -3 10 18 28 20 22 13 21 25 16 23 -2 -4 -19 -7 -9 -8 -1 -25 26 -11 -6 -5 -30
right_child=2 3 8 9 27 7 11 12 -10 14 -12 -13 -14 -15 -16 -17 -18 19 -20 -21 -22 -23 -24 24 -26 -27 -28 -29 29 -31
leaf_value=0.047757356929216996 0.033235623161228182 0.011112524574925812 0.056780622163624096 -0.0057523708530714326 0.0099145037259449013 -0.0047218249575629581 0.083577753829670517 0.031257960919099742 0.1119626848819506 0.061494023246100038 -0.044134441106566669 0.004851712977350482 -0.054575412602681256 -0.049753403923839916 -0.0087070772409954325 -0.037078250930212518 -0.020610697091604673 0.10930051317024564 0.098754765830093419 0.059762947505933577 -0.028063354001208199 -0.022284591745356321 0.047589814262598118 0.016073093291024788 -0.049986169096969429 -0.010639791466694859 0.013562767290920541 0.032889757455484107 -0.026250042156424791 0.003172077216916311
leaf_weight=114 232 413 285 604 572 590 197 78 543 82 688 112 1350 461 1315 194 274 90 172 455 754 295 314 177 42 217 715 479 1254 142
leaf_count=114 232 413 285 604 572 590 197 78 543 82 688 112 1350 461 1315 194 274 90 172 455 754 295 314 177 42 217 715 479 1254 142
internal_value=1.66902e-10 -0.0154237 0.0566228 0.00029461 0.0361954 -0.0322324 0.0352711 -0.0367787 0.093964 -0.00807584 -0.0267274 0.0512864 -0.0461305 -0.0324606 0.000421317 -0.00830294 0.000893783 0.0575802 0.0725783 0.0679435 -0.0178167 -0.011088 0.0614638 0.0185882 0.00340419 0.0122594 0.0184942 0.0203856 -0.0179708 -0.0232572
internal_weight=13210 10382 2828 5365 1828 5017 1036 4216 1000 4329 2032 623 2184 834 2329 801 607 777 457 545 1344 373 511 333 219 1014 797 1051 2000 1396
internal_count=13210 10382 2828 5365 1828 5017 1036 4216 1000 4329 2032 623 2184 834 2329 801 607 777 457 545 1344 373 511 333 219 1014 797 1051 2000 1396
is_linear=0
shrinkage=0.05


Tree=3
num_leaves=31
num_cat=0
split_feature=0 0 0 5 5 5 6 7 7 6 6 1 0 1 5 5 1 0 7 6 7 1 5 5 1 5 6 7 6 8
split_gain=4165.99 1026.15 740.259 547.91 269.777 253.808 153.912 156.444 153.599 166.541 125.399 125.621 105.565 102.443 99.5594 90.2719 78.2552 77.6413 75.5746 73.4541 98.2611 63.7054 61.3041 51.3138 38.9628 38.8882 35.4679 35.1198 37.4556 33.6832
threshold=0.63245605034071983 -0.29253421430424098 1.548230021614204 -0.060522086758188688 -0.091422315813886393 -0.036877398760494375 -0.55609327619001581 0.89613926094156138 -1.0633811298040039 1.0633015737551104 1.0773425695638836 -0.72275827593399655 2.5769626654919415 1.1023317996073045 0.0031770498676491252 -0.097953450590647737 -0.087944336615283253 0.12894709965286436 -1.3675306052123488 1.0726622376276256 0.6667806401418287 -0.56405479110431822 -0.0057551614663983973 -0.090359773078124331 0.62622134511826943 -0.011692971201042119 0.91353095179486887 -0.1808490454224139 -0.0038141077116199706 0.25382588830353531
decision_type=2 2 2 2 2 2 2 2 2 2 2 2 2 2 2 2 2 2 2 2 2 2 2 2 2 2 2 2 2 2
left_child=1 4 5 10 19 21 7 14 9 18 11 -3 16 17 -6 -13 -4 -5 -8 20 29 -2 24 -23 -7 -19 -20 28 -10 -1
right_child=2 3 12 13 6 22 8 -9 27 -11 -12 15 -14 -15 -16 -17 -18 25 26 -21 -22 23 -24 -25 -26 -27 -28 -29 -30 -31
leaf_value=0.0016293349704938011 0.039018079467208651 0.011512057421799499 0.066075460768787717 -0.016669524695185005 0.0018379093056125565 0.031081774011930914 0.033550867818009394 -0.04008803546868947 -0.01279418705910277 -0.043781205285243027 -0.011290076685448487 0.081002445921205507 0.11801497381858427 0.017506982379910913 -0.023349079061947137 0.041052305436010628 0.10459380802027014 0.0077566738759990332 0.0037699593802445505 -0.030647591942212948 -0.014736032689392756 0.11482595234147963 0.013679568267082335 0.065956524174076159 0.070591412029332598 -0.0085898337440251712 -0.026427906736078446 -0.058752760930065907 -0.046744089779871732 0.038046919722355119
leaf_weight=88 205 248 341 1590 625 468 104 871 89 573 126 203 294 413 1054 466 215 704 163 142 236 62 666 402 72 753 241 636 932 228
leaf_count=88 205 248 341 1590 625 468 104 871 89 573 126 203 294 413 1054 466 215 704 163 142 236 62 666 402 72 753 241 636 932 228
internal_value=-1.78801e-11 -0.0143145 0.055078 0.00371412 -0.0278857 0.0375317 -0.0317324 -0.0228933 -0.0399645 -0.0253025 0.0354806 0.0419072 0.0937833 -0.00586174 -0.0139733 0.0531747 0.0809701 -0.00902921 -0.00445931 0.00142423 0.00967459 0.0622308 0.0238304 0.0724865 0.0363497 -0.000691453 -0.0142441 -0.0495298 -0.0437847 0.0279053
internal_weight=13210 10485 2725 4503 5982 1875 5288 2550 2738 1081 1043 917 850 3460 1679 669 556 3047 508 694 552 669 1206 464 540 1457 404 1657 1021 316
internal_count=13210 10485 2725 4503 5982 1875 5288 2550 2738 1081 1043 917 850 3460 1679 669 556 3047 508 694 552 669 1206 464 540 1457 404 1657 1021 316
is_linear=0
shrinkage=0.05


Tree=4
num_leaves=31
num_cat=0
split_feature=0 0 0 5 5 5 6 10 1 7 6 6 5 0 6 7 5 7 0 0 0 1 7 1 7 6 7 1 1 8
split_gain=3773.3 1047.03 553.134 548.693 246.289 197.618 135.817 175.496 127.384 125.11 141.521 119.949 104.603 81.8214 77.7788 73.8193 73.7949 67.8652 62.9493 54.243 53.4425 46.9171 46.4494 44.7433 43.9943 53.195 70.3225 43.8317 40.5737 36.9439
threshold=0.73562077015989913 -0.29253421430424098 1.7450543381742876 -0.062932875181849993 -0.08170258395120529 -0.037989074419684861 -0.55609327619001581 -4025.6499999999992 -0.80211001834883577 -1.0185066170388402 1.0539409098825956 1.0164982543925356 -0.025117838270760817 -0.82983624068751094 1.0773425695638836 -1.3575584912645364 -0.099214388067252648 -1.3076979215254625 2.5769626654919415 1.0290454950210164 0.3393726696785459 1.0000000180025095e-35 0.90611137488937754 -0.56405479110431822 0.94599983068063509 -0.49992929295492589 -0.9337436484824152 -0.56405479110431822 -0.087944336615283253 0.25382588830353531
decision_type=2 2 2 2 2 2 2 2 2 2 2 2 2 2 2 2 2 2 2 2 2 2 2 2 2 2 2 2 2 2
left_child=1 4 5 8 13 23 7 -6 -3 10 15 16 14 -1 17 -8 -10 -5 21 -7 -14 -4 -9 -2 25 -19 -27 -15 -21 -29
right_child=2 3 18 12 6 19 9 22 11 -11 -12 -13 20 27 -16 -17 -18 24 -20 28 -22 -23 -24 -25 -26 26 -28 29 -30 -31
leaf_value=-0.020874706460471723 0.04363482520580874 0.007448124707127717 0.068655424769693871 0.050769730193895246 0.0015884228861878374 0.016756675493395289 0.032085923009633442 -0.022952459462908553 0.081513537149323093 -0.04770492912708179 -0.042240732384767332 0.0046670525734899227 -0.015797709089360523 -0.011319147555857412 -0.015205588065762006 -0.01564942992090845 0.044861886477763256 0.022953319733678323 0.11211422214119815 0.03179836384818778 0.00037461112374415138 0.10382280165193887 -0.038823467910140297 0.07498795504913415 -0.012756894882328866 0.016376425171099409 -0.031796004350430201 0.0023328507424298021 0.061251925078310801 0.033863821181487112
leaf_weight=362 160 269 255 105 584 482 103 1070 202 1560 571 135 1584 169 326 379 429 545 294 476 754 151 810 394 196 190 126 172 155 202
leaf_count=362 160 269 255 105 584 482 103 1070 202 1560 571 135 1584 169 326 379 429 545 294 476 754 151 810 394 196 190 126 172 155 202
internal_value=-2.89423e-11 -0.0124854 0.0571946 0.0047505 -0.0264914 0.0415319 -0.0307749 -0.0223533 0.0370484 -0.0387162 -0.0253996 0.0474433 -0.00398664 -0.0024617 0.0063765 -0.00544872 0.0565951 0.0124314 0.0944942 0.0293862 -0.0105822 0.0817349 -0.0297905 0.0659329 0.00862293 0.0134899 -0.00283157 0.00981364 0.0390334 0.0193629
internal_weight=13210 10843 2367 4861 5982 1667 5077 2464 1035 2613 1053 766 3826 905 1488 482 631 1162 700 1113 2338 406 1880 554 1057 861 316 543 631 374
internal_count=13210 10843 2367 4861 5982 1667 5077 2464 1035 2613 1053 766 3826 905 1488 482 631 1162 700 1113 2338 406 1880 554 1057 861 316 543 631 374
is_linear=0
shrinkage=0.05


Tree=5
num_leaves=31
num_cat=0
split_feature=0 0 5 0 5 5 0 1 6 10 5 6 0 7 1 6 10 7 6 7 2 1 0 1 5 1 7 7 7 5
split_gain=3405.4 949.708 525.882 500.844 176.625 165.292 155.702 132.861 121.423 128.084 105.035 83.7427 74.7239 74.0882 69.548 63.699 59.7052 59.3037 71.8175 54.4197 49.3752 47.0163 46.2318 40.8171 38.0721 35.8457 35.4854 33.8165 31.9307 31.834
threshold=0.73562077015989913 -0.42936072358847205 -0.074893224592745153 1.9026765863480042 -0.037989074419684861 -0.069284264927120878 0.11615982081551628 -0.32599956385980072 -0.55609327619001581 -4025.6499999999992 -0.035794694855141897 1.0773425695638836 1.294348709338397 1.215246907271629 1.4990905116815005 1.0164982543925356 -4622.8499999999995 -1.0384508449344689 1.4143264689744302 -1.3824887761340714 -0.13426131087350249 -0.16729607903012242 -0.10240549549266616 -0.56405479110431822 -0.0051290296361505422 -0.80211001834883577 -1.397446947055794 -1.2977258075776501 -1.3575584912645364 -0.088831901890470452
decision_type=2 2 2 2 2 2 2 2 2 2 2 2 2 2 2 2 2 2 2 2 2 2 2 2 2 2 2 2 2 2
left_child=1 5 7 4 23 11 14 -3 9 -7 21 13 24 19 20 16 -9 18 26 -1 -4 -8 -18 -2 -6 -5 -10 -12 -16 -25
right_child=3 2 6 25 12 8 10 15 17 -11 27 -13 -14 -15 28 -17 22 -19 -20 -21 -22 -23 -24 29 -26 -27 -28 -29 -30 -31
leaf_value=0.064088280700348527 0.042786779108402485 0.01391427134329274 -0.0069698517037156882 0.0764857193599119 0.033102852667935431 -0.00030359958307735527 0.0046703902387853161 0.106048633353632 0.010848142265670256 -0.030633916798071988 0.021722056840403674 -0.033974145122909506 0.048751221101552451 -0.035901643116570389 0.040539291879562928 0.011892304211900927 0.034593051755244075 -0.047601458941587044 -0.049698459625560069 0.0016291537638458298 -0.02096270677900763 0.032067170630096592 0.068922766207362582 0.10766944976316557 0.011516423319208656 0.10268735625456674 -0.024431865295395257 -0.0043536904341494494 0.00024512572164990401 0.066530246611196511
leaf_weight=37 170 374 1137 194 382 454 249 61 88 1492 137 273 365 132 78 81 184 1276 283 607 1415 422 210 54 439 399 375 1345 133 364
leaf_count=37 170 374 1137 194 382 454 249 61 88 1492 137 273 365 132 78 81 184 1276 283 607 1415 422 210 54 439 399 375 1345 133 364
internal_value=-4.00819e-11 -0.0118612 0.00187063 0.0543349 0.0410373 -0.0278072 -0.00459251 0.0367858 -0.0324736 -0.0235579 0.00548792 -0.0101561 0.0299285 -0.00177687 -0.0124474 0.0527447 0.0600173 -0.0410541 -0.0298552 0.00521764 -0.0147284 0.0219006 0.0528906 0.0634437 0.0215603 0.0941155 -0.0177264 -0.00194318 0.0151406 0.0718449
internal_weight=13210 10843 5826 2367 1774 5017 4916 910 3968 1946 2153 1049 1186 776 2763 536 455 2022 746 644 2552 671 394 588 821 593 463 1482 211 418
internal_count=13210 10843 5826 2367 1774 5017 4916 910 3968 1946 2153 1049 1186 776 2763 536 455 2022 746 644 2552 671 394 588 821 593 463 1482 211 418
is_linear=0
shrinkage=0.05


Tree=6
num_leaves=31
num_cat=0
split_feature=0 0 5 0 5 0 5 1 8 0 6 6 7 2 5 1 5 1 7 6 7 7 6 0 6 7 6 6 7 9
split_gain=3083.8 1010.18 451.087 326.709 237.864 142.566 136.212 114.395 109.621 104.091 102.369 89.3199 101.219 80.6337 65.1582 58.8138 57.9125 48.3799 48.1115 47.4149 69.1316 43.2353 40.5174 38.9618 34.5811 35.7715 31.0421 30.2052 40.9545 29.2569
threshold=0.90461240588304437 -0.19845450162617548 -0.060522086758188688 1.9965199838114167 -0.079699379802866274 -0.71535464781104807 -0.037989074419684861 -0.80211001834883577 0.29701819422727527 0.3393726696785459 1.0164982543925356 1.0726622376276256 0.67176669711573489 -0.17846017833108299 -0.099214388067252648 1.1023317996073045 -0.010614276979517086 0.62622134511826943 -1.397446947055794 -0.47184730133737923 -1.3675306052123488 -0.21575144423976514 -0.15358472967186307 1.294348709338397 1.0633015737551104 0.83132052028076864 1.1803098721615501 1.3628428176755969 0.88616714699374877 38.500000000000007
decision_type=2 2 2 2 2 2 2 2 2 2 2 2 2 2 2 2 2 2 2 2 2 2 2 2 2 2 2 2 2 2
left_child=1 4 7 6 11 8 -2 -3 22 15 14 12 19 18 -9 27 24 23 26 -1 -21 -22 -6 -8 25 -11 -7 28 -4 -5
right_child=3 2 9 29 5 13 17 10 -10 16 -12 -13 -14 -15 -16 -17 -18 -19 -20 20 21 -23 -24 -25 -26 -27 -28 -29 -30 -31
leaf_value=0.039895985201583245 0.06828646333925685 0.008964518553703919 -0.0046966963860541004 0.032294258577749139 -0.032484119877972728 0.039826449801977207 0.022000018567844233 0.079741946404165293 -0.013919365367787317 0.029178086184344833 0.0080324039689252443 -0.029049100163854192 -0.014528350796673202 -0.028088680778293646 0.044409498295092949 0.014373875073220991 -0.00072719574949510707 0.075240757493028318 -0.013511766202131806 0.061055988993714838 0.006486437397122952 -0.050505738519132141 -0.046224491915100141 0.043677361275629545 -0.0056119059272591145 0.00088595933605536406 -0.021442613892000299 -0.031025749599814592 -0.022869220768995863 0.093913758888726717
leaf_weight=200 450 287 1344 20 973 72 478 182 492 524 146 222 334 1313 461 263 756 68 1384 51 198 40 1196 366 124 142 29 169 403 523
leaf_count=200 450 287 1344 20 973 72 478 182 492 524 146 222 334 1313 461 263 756 68 1384 51 198 40 1196 366 124 142 29 169 403 523
internal_value=-5.54414e-11 -0.00991685 0.00747952 0.0588504 -0.0227582 -0.0269417 0.0457762 0.0359957 -0.0352273 -0.000757635 0.0458283 -0.000903571 0.00668854 -0.0190618 0.0544103 -0.00779792 0.00916526 0.0346692 -0.0110805 0.0211802 0.00822817 -0.00309208 -0.0400606 0.0314004 0.018632 0.0231458 0.0222343 -0.0108413 -0.00888876 0.0916442
internal_weight=13210 11305 4801 1905 6504 5459 1362 1076 2661 3725 789 1045 823 2798 643 2179 1546 912 1485 489 289 238 2169 844 790 666 101 1916 1747 543
internal_count=13210 11305 4801 1905 6504 5459 1362 1076 2661 3725 789 1045 823 2798 643 2179 1546 912 1485 489 289 238 2169 844 790 666 101 1916 1747 543
is_linear=0
shrinkage=0.05


Tree=7
num_leaves=31
num_cat=0
split_feature=11 5 11 6 3 7 11 1 11 6 10 5 6 7 6 7 7 6 5 7 6 11 11 1 7 6 7 7 7 5
split_gain=2311.63 558.926 544.367 246.273 222.086 221.828 216.13 211.031 123.62 114.635 112.728 97.9773 91.4323 149.219 149.662 130.933 89.0455 82.8199 75.9298 69.2706 76.3462 69.1852 69.1527 59.0098 57.4658 56.7183 56.6738 46.7912 42.4726 41.4531
threshold=27.128346945061242 -0.068694704353083294 48.356253163707571 1.0773425695638836 2.0903041906800399 0.84129263422858125 15.262239168632076 1.0000000180025095e-35 16.966887475645162 -0.55609327619001581 -4025.6499999999992 -0.055153212966005095 1.0773425695638836 -0.9337436484824152 -0.53737194844498581 0.89613926094156138 -1.0185066170388402 1.0539409098825956 -0.024114080912268448 -1.3824887761340714 -0.47184730133737923 34.55385007918553 65.400592891164834 -0.087944336615283253 -0.33541681161354131 1.0913835653726556 0.94599983068063509 0.61193401342884857 1.215246907271629 -0.047296423270928527
decision_type=2 2 2 2 2 2 2 2 2 2 2 2 2 2 2 2 2 2 2 2 2 2 2 2 2 2 2 2 2 2
left_child=1 3 7 5 22 8 9 25 19 10 -3 -9 13 -8 15 18 17 -11 -15 -1 27 -13 23 -4 -22 26 29 -21 -7 -2
right_child=2 6 4 -5 -6 28 12 11 -10 16 -12 21 -14 14 -16 -17 -18 -19 -20 20 24 -23 -24 -25 -26 -27 -28 -29 -30 -31
leaf_value=0.060600966891966937 0.047201047980342997 0.0005773980933875411 0.052055417897040171 -0.025962469231030117 -0.017289065024343089 0.00027084365715468982 0.017063172903088702 0.066197491239743181 0.051097040227723226 -0.0071603112574244628 -0.025749277526029908 0.019414184282135278 -0.025980949074217993 0.019654230256536231 -0.035403714104820357 -0.024092300743630723 -0.045530855618708031 -0.040356440392529801 -0.0055645957421906261 0.046316044094560291 0.0054902709737526048 0.050987170492084233 0.094294943212061472 0.088443219027972433 -0.04831917716537492 -0.0085830616518396182 -0.00014904988242716341 0.012195180225041081 -0.031675839620087874 0.018361245865046005
leaf_weight=86 148 544 327 382 69 261 561 283 421 393 1610 451 723 487 517 606 1057 360 771 191 312 282 319 169 59 276 372 212 173 788
leaf_count=86 148 544 327 382 69 261 561 283 421 393 1610 451 723 487 517 606 1057 360 771 191 312 282 319 169 59 276 372 212 173 788
internal_value=-2.00499e-11 -0.0125184 0.0349467 0.0103436 0.0688418 0.0184304 -0.0188026 0.0234224 0.0288973 -0.0268947 -0.0191004 0.0412087 -0.0100502 -0.00613525 -0.0116012 -0.00499926 -0.0361704 -0.023031 0.00419818 0.0180297 0.0132996 0.031561 0.0761339 0.0644537 -0.00306703 0.0120139 0.0163601 0.0283666 -0.0124637 0.0229214
internal_weight=13210 9726 3484 2097 884 1715 7629 2600 1281 3964 2154 1016 3665 2942 2381 1864 1810 753 1258 860 774 733 815 496 371 1584 1308 403 434 936
internal_count=13210 9726 3484 2097 884 1715 7629 2600 1281 3964 2154 1016 3665 2942 2381 1864 1810 753 1258 860 774 733 815 496 371 1584 1308 403 434 936
is_linear=0
shrinkage=0.05


Tree=8
num_leaves=31
num_cat=0
split_feature=0 0 5 0 5 0 5 1 2 6 5 6 2 0 7 5 1 7 6 7 7 6 1 7 7 6 7 6 2 5
split_gain=2542.34 828.425 374.652 264.604 193.978 132.386 116.883 98.3431 92.84 86.5054 83.1613 83.1663 79.2558 64.3718 63.1877 56.3774 50.9645 45.1814 45.1174 68.1749 43.1596 39.6533 36.8784 36.7494 34.105 43.0787 35.6175 34.928 31.0011 29.9421
threshold=0.90461240588304437 -0.19845450162617548 -0.060522086758188688 1.9965199838114167 -0.091422315813886393 -0.71535464781104807 -0.0075563983991071282 -0.64340653351915733 -0.86627512417492736 1.0164982543925356 -0.010614276979517086 1.0773425695638836 -0.17846017833108299 -0.68823091261806968 -1.3076979215254625 -0.097953450590647737 -0.087944336615283253 0.87619503304593616 -0.47184730133737923 -0.24566778608320652 -1.397446947055794 -0.15358472967186307 -0.56405479110431822 1.0108185713414313 -0.94371576243023136 -0.51865062069995582 0.88616714699374877 1.0352195821375656 0.053387495302644035 0.014433658815485388
decision_type=2 2 2 2 2 2 2 2 2 2 2 2 2 2 2 2 2 2 2 2 2 2 2 2 2 2 2 2 2 2
left_child=1 4 7 6 13 8 16 -3 -6 15 11 14 20 -1 -4 -9 -2 18 28 -20 -7 23 -15 -10 27 26 -26 -12 -16 -22
right_child=3 2 10 -5 5 12 -8 9 21 -11 24 -13 -14 22 17 -17 -18 -19 19 -21 29 -23 -24 -25 25 -27 -28 -29 -30 -31
leaf_value=-0.011720091023080336 0.040531256344603694 0.010207544916105864 0.046126679909705627 0.082947361498511993 -0.0073897604544208148 0.021394419168037446 0.022795971396340067 0.074577841782739504 -0.021267113744641533 0.0071628537383335439 0.014195699488912389 -0.014057679774101252 -0.025246497581231736 -0.0055378257199151428 0.012145535826485488 0.04112601372320205 0.065023125893509337 -0.0085022466544602878 0.0099891374383783236 -0.041860567667533329 -0.0054491332463558785 -0.040934966603491219 0.027968382079171829 -0.039841225869209018 -0.0014108001061904759 -0.029705804950683146 -0.020428008945580986 -0.018637059384288834 0.033152642499387139 -0.020024676898585159
leaf_weight=366 416 334 122 543 348 110 512 179 716 138 274 397 1361 119 434 425 434 303 321 79 915 1307 265 424 732 282 371 115 295 573
leaf_count=366 416 334 122 543 348 110 512 179 716 138 274 397 1361 119 434 425 434 303 321 79 915 1307 265 424 732 282 371 115 295 573
internal_value=2.93694e-11 -0.00900425 0.00674957 0.0534346 -0.0206331 -0.0237506 0.0416686 0.0327377 -0.0315541 0.0428793 -0.000757336 0.00636653 -0.0163796 0.00328409 0.0115843 0.0510397 0.0530365 0.00864144 0.0132424 -0.000251179 -0.00882773 -0.0349906 0.0175849 -0.0281754 -0.00859198 -0.0122661 -0.00780734 0.00448936 0.0206464 -0.0110619
internal_weight=13210 11305 4801 1905 6504 5754 1362 1076 2795 742 3725 1951 2959 750 1554 604 850 1432 1129 400 1598 2447 384 1140 1774 1385 1103 389 729 1488
internal_count=13210 11305 4801 1905 6504 5754 1362 1076 2795 742 3725 1951 2959 750 1554 604 850 1432 1129 400 1598 2447 384 1140 1774 1385 1103 389 729 1488
is_linear=0
shrinkage=0.05


Tree=9
num_leaves=31
num_cat=0
split_feature=11 5 11 6 7 3 11 5 6 10 7 6 7 6 7 1 6 7 11 1 6 7 7 5 7 6 6 7 7 6
split_gain=1903.89 465.144 446.188 209.196 189.884 187.343 176.313 175.068 111.143 112.147 97.9636 92.4529 90.6828 150.883 85.4063 79.2652 77.7668 72.7314 67.1131 66.5947 59.242 74.5026 56.6752 51.6849 45.4567 45.7728 43.7797 42.2696 41.1994 40.6988
threshold=27.128346945061242 -0.068694704353083294 45.609545086489113 1.0820229015001421 0.74157149475043738 2.0903041906800399 17.305269970414205 -0.047296423270928527 -0.55609327619001581 -4023.6499999999992 -1.0185066170388402 1.0539409098825956 -1.3824887761340714 -0.69650323427774563 0.60694795645493882 -0.16729607903012242 1.0726622376276256 -1.397446947055794 68.999431048608201 -0.48470304868947911 0.98373593083873212 0.89613926094156138 1.220232964245539 -0.032712215534464011 1.215246907271629 -0.91179850334559365 1.3019985025042484 -1.3575584912645364 1.0108185713414313 -0.82287219655669874
decision_type=2 2 2 2 2 2 2 2 2 2 2 2 2 2 2 2 2 2 2 2 2 2 2 2 2 2 2 2 2 2
left_child=1 3 7 4 12 15 8 16 9 -3 11 27 -1 14 -14 18 22 26 -4 -9 21 23 -2 -19 25 -6 -8 -10 29 -11
right_child=2 6 5 -5 24 -7 17 19 10 28 -12 -13 13 -15 -16 -17 -18 20 -20 -21 -22 -23 -24 -25 -26 -27 -28 -29 -30 -31
leaf_value=0.063543586928832843 0.055179737822303704 0.00053838779471776879 0.044107018013802506 -0.024236771704342505 0.015438558670062134 -0.016434362665505003 0.031478940096192336 0.0024342391241740972 0.024260097073790846 -0.0033749079810070763 -0.040229910742352264 -0.03495393058407846 0.071809019439004293 0.0074936073626573757 0.025696549766144019 0.083033104798697091 -0.0019342401383996564 0.012234077779308225 0.083575539496845347 0.021444158705881594 -0.025293091650054257 -0.022748104500007728 -0.011617463892873596 -0.007010370936833015 -0.029484441299179862 -0.023130267563323349 -0.014169017390373188 -0.011499118463819227 -0.033284579598166934 -0.023244398176185465
leaf_weight=154 481 740 446 377 221 76 181 875 106 368 1271 461 182 648 224 376 81 517 142 973 496 508 34 1073 173 118 74 375 599 860
leaf_count=154 481 740 446 377 221 76 181 875 106 368 1271 461 182 648 224 376 81 517 142 973 496 508 34 1073 173 118 74 375 599 860
internal_value=9.37775e-12 -0.0113609 0.0317152 0.00949514 0.0168887 0.0591451 -0.0170936 0.0200429 -0.0229619 -0.0158828 -0.0311733 -0.0189537 0.0277043 0.0224679 0.0463677 0.0651036 0.043607 -0.00724793 0.0536385 0.0124432 -0.00975271 -0.00607872 0.0507698 -0.000752899 -0.00862941 0.00201342 0.0182321 -0.00361871 -0.022534 -0.01729
internal_weight=13210 9726 3484 2097 1720 1040 7629 2444 4780 2567 2213 942 1208 1054 406 964 596 2849 588 1848 2594 2098 515 1590 512 339 255 481 1827 1228
internal_count=13210 9726 3484 2097 1720 1040 7629 2444 4780 2567 2213 942 1208 1054 406 964 596 2849 588 1848 2594 2098 515 1590 512 339 255 481 1827 1228
is_linear=0
shrinkage=0.05


Tree=10
num_leaves=31
num_cat=0
split_feature=0 0 0 5 8 5 6 0 7 0 1 0 7 6 7 5 8 5 6 7 7 5 6 1 1 2 6 7 1 6
split_gain=2102.68 530.596 401.638 333.407 117.763 112.244 94.6005 91.8305 90.7817 89.2526 60.1798 54.9656 52.1602 92.2008 51.9048 50.7229 41.7527 39.2801 44.1668 39.0546 38.3493 36.6693 36.6931 29.3255 28.5231 27.682 25.5376 25.6716 25.338 25.1091
threshold=0.60782675352463678 -0.57852813852681717 1.294348709338397 -0.064962654911632986 0.27499424228466152 -0.010614276979517086 1.0820229015001421 -0.029095264458013921 0.79143206448951109 2.1680585724036034 -0.16729607903012242 -0.9960446083269624 -1.3824887761340714 -0.69650323427774563 -1.3426003203428138 -0.072365582841916493 0.20758795229561364 -0.0069013693485079674 0.93693261147615547 0.60694795645493882 1.1953026793760002 1.0000000180025095e-35 1.0726622376276256 -0.56405479110431822 -0.56405479110431822 -0.45843780639586545 -0.91179850334559365 1.215246907271629 0.22946263304407347 0.99309659471124712
decision_type=2 2 2 2 2 2 2 2 2 2 2 2 2 2 2 2 2 2 2 2 2 2 2 2 2 2 2 2 2 2
left_child=1 4 5 6 11 15 8 16 12 10 -4 -1 29 19 -9 24 -5 18 -16 -14 21 22 -6 -17 -2 -13 27 28 -10 -3
right_child=2 3 9 7 20 -7 -8 14 26 -11 -12 25 13 -15 17 23 -18 -19 -20 -21 -22 -23 -24 -25 -26 -27 -28 -29 -30 -31
leaf_value=-0.039446400264848254 0.03059897411166634 0.033356521755456926 0.038178529576877153 -0.019763435651291419 0.0072657786521942887 0.006799889904680511 -0.014336331008440431 0.02230825011427395 0.0095739650030872824 0.078579550908361273 0.068024184089154005 -0.014444673003774614 0.067539251290555519 0.013888777630933808 0.0091715188853274451 0.013676117090064855 -0.007189406023142191 -0.010220732711272273 -0.014267432910678127 0.032376083667068525 -0.036645664639699344 -0.016964244864574363 -0.031269240992454192 0.034158985479316152 0.071644343204018898 -0.028323701724772415 -0.022456466959279386 -0.018849022779613735 0.058582823170082912 0.077819799715030849
leaf_weight=980 66 50 428 1368 435 672 170 234 107 443 279 476 149 462 863 252 1276 919 262 168 130 536 72 570 118 1465 84 54 35 87
leaf_count=980 66 50 428 1368 435 672 170 234 107 443 279 476 149 462 863 252 1276 919 262 168 130 536 72 570 118 1465 84 54 35 87
internal_value=-4.28433e-11 -0.0104113 0.0382214 -0.00129057 -0.0244199 0.0226222 0.0205642 -0.00735592 0.025525 0.0609825 0.0499564 -0.0297937 0.0331412 0.0281375 1.85713e-06 0.0331914 -0.0136952 -0.00255181 0.00371285 0.0489039 -0.011038 -0.00784622 0.00179335 0.0278796 0.0569215 -0.0249201 0.000609366 0.0104947 0.0216536 0.0615923
internal_weight=13210 10382 2828 6288 4094 1678 1366 4922 1196 1150 707 2921 916 779 2278 1006 2644 2044 1125 317 1173 1043 507 822 184 1941 280 196 142 137
internal_count=13210 10382 2828 6288 4094 1678 1366 4922 1196 1150 707 2921 916 779 2278 1006 2644 2044 1125 317 1173 1043 507 822 184 1941 280 196 142 137
is_linear=0
shrinkage=0.05


Tree=11
num_leaves=31
num_cat=0
split_feature=0 0 5 0 0 8 8 1 5 5 5 0 6 1 7 0 1 7 1 10 6 7 7 0 0 1 8 7 1 6
split_gain=1908.04 621.801 294.54 193.462 146.136 122.944 100.714 95.8378 93.5903 93.238 66.7655 58.7442 58.0322 39.1289 38.2164 35.2223 35.0841 31.3813 29.6404 28.8536 27.9127 30.6677 26.6309 25.8964 24.4227 23.4166 23.0406 22.9782 22.2415 21.569
threshold=0.90461240588304437 -0.19845450162617548 -0.049122101900741642 1.9965199838114167 -0.71535464781104807 0.22884570828808862 0.29924716114396327 -0.64340653351915733 -0.090359773078124331 -0.037989074419684861 -0.053991652413861217 0.37736690474557383 1.1007442292451721 -0.56405479110431822 -1.4074190610036099 -1.0169978906928836 0.62622134511826943 -1.3675306052123488 -0.96081350317851411 -4023.6499999999992 1.1007442292451721 0.88616714699374877 -1.3824887761340714 0.31248524970022085 1.3793434148753485 1.657793996511179 0.23803004195385077 0.96095800160235745 -0.80211001834883577 0.91353095179486887
decision_type=2 2 2 2 2 2 2 2 2 2 2 2 2 2 2 2 2 2 2 2 2 2 2 2 2 2 2 2 2 2
left_child=1 4 7 9 6 25 15 -3 -9 -2 13 14 17 -7 -4 -1 24 -10 -13 -8 21 -16 -15 -19 -11 -6 -17 -20 -5 -24
right_child=3 2 11 28 5 10 19 8 12 16 -12 18 -14 22 20 26 -18 23 27 -21 -22 -23 29 -25 -26 -27 -28 -29 -30 -31
leaf_value=-0.036856212805304073 0.05485441940489949 0.0048260525904565577 0.016231967827527376 0.05660134348065228 -0.020222225850608611 -0.0071421431059442353 0.0011001659400368992 0.058055254783261616 0.057891610628221096 0.017826584636583209 -0.0087776310140147452 -0.006204903577585877 -0.012636474998726045 0.052695601423881182 -0.0035374633299818728 -0.030005866093549174 0.061590926382033263 0.016592933881167598 0.013100125593842585 -0.02152398908635535 -0.025565927634648062 -0.019603428587524695 0.022234935953010217 0.037742148531443989 0.035506558473258364 0.0019825319429551524 -0.017128217133441877 -0.015106748866766127 0.078387574480986724 -0.0078952020040486716
leaf_weight=1079 450 446 153 171 1824 170 380 267 82 537 812 363 96 58 1236 882 68 367 839 224 243 391 301 239 307 127 573 79 372 74
leaf_count=1079 450 446 153 171 1824 170 380 267 82 537 812 363 96 58 1236 882 68 367 839 224 243 391 301 239 307 127 573 79 372 74
internal_value=-3.76358e-11 -0.00780054 0.00584797 0.0462914 -0.0178753 -0.0106388 -0.0256376 0.0242466 0.0324879 0.0362306 0.000581777 -0.00248822 0.0237806 0.0131852 -0.00779351 -0.0300109 0.0270412 0.0288621 0.00589008 -0.00729025 -0.00975923 -0.00739843 0.0211659 0.024934 0.0242576 -0.0187768 -0.0249345 0.0106727 0.0715267 0.0162893
internal_weight=13210 11305 4801 1905 6504 3366 3138 1497 1051 1362 1415 3304 784 603 2023 2534 912 688 1281 604 1870 1627 433 606 844 1951 1455 918 543 375
internal_count=13210 11305 4801 1905 6504 3366 3138 1497 1051 1362 1415 3304 784 603 2023 2534 912 688 1281 604 1870 1627 433 606 844 1951 1455 918 543 375
is_linear=0
shrinkage=0.05


Tree=12
num_leaves=31
num_cat=0
split_feature=0 0 5 0 6 8 1 5 0 0 5 0 1 1 10 6 5 5 5 8 0 7 5 6 0 6 7 6 6 7
split_gain=1724.76 493.544 290.876 248.228 110.293 96.8722 90.0199 78.5585 71.6259 63.0251 61.3939 56.9427 54.4776 44.4485 35.7001 36.1293 40.4792 34.8805 34.3164 32.1825 31.8275 30.0235 28.882 27.3023 25.9752 24.8391 24.033 42.2286 21.3715 26.1347
threshold=0.73562077015989913 -0.5091302371569798 -0.05556238420892292 1.4235081027694336 1.0773425695638836 0.27214963591515695 -0.32599956385980072 -0.04461642665448156 -0.029095264458013921 2.5769626654919415 -0.090359773078124331 -0.82114509223748589 -0.087944336615283253 1.4990905116815005 -4023.6499999999992 1.0633015737551104 -0.091422315813886393 -0.069284264927120878 0.0031770498676491252 0.20758795229561364 1.0000000180025095e-35 -1.3824887761340714 -0.0051290296361505422 1.0445802460100804 0.046709404953533741 1.0726622376276256 0.65680852619401253 -0.68714257040522886 -0.53737194844498581 -0.48001246385685259
decision_type=2 2 2 2 2 2 2 2 2 2 2 2 2 2 2 2 2 2 2 2 2 2 2 2 2 2 2 2 2 2
left_child=1 5 4 7 6 11 26 25 19 12 24 -1 -5 18 15 16 -7 -13 23 -4 21 -12 -9 -10 -8 -2 27 -3 -18 -30
right_child=3 2 8 9 -6 14 10 22 13 -11 20 17 -14 -15 -16 -17 28 -19 -20 -21 -22 -23 -24 -25 -26 -27 -28 -29 29 -31
leaf_value=-0.032224247480444994 0.0479910155614693 0.048289739419161891 -0.018673334778064186 0.038667912804969118 -0.011448694457962276 0.027472778637668178 0.038015511311075889 0.025796916392879527 0.0064066787045066161 0.077051541273843283 0.056923454720526935 -0.0028325467105794083 0.067309252328190558 0.031645865588157344 -0.019304425650045545 -0.030934548717875456 0.0032073659237375064 -0.022426957565592511 -0.0096916337394112248 -0.0063805114722680625 0.033816506319285997 0.0057519352414052601 0.0087460239578612126 -0.010387717881026904 0.065988606910756448 -0.0018024269422447241 -0.0044904365402089752 0.0053423846038183689 -0.005131889869803636 -0.045404269047460317
leaf_weight=1667 346 77 1131 439 278 124 218 509 1157 294 32 278 267 104 547 97 337 1241 860 1006 309 275 485 306 134 27 256 223 127 59
leaf_count=1667 346 77 1131 439 278 124 218 509 1157 294 32 278 267 104 547 97 337 1241 860 1006 309 275 485 306 134 27 256 223 127 59
internal_value=3.72762e-11 -0.00844126 0.00050452 0.0386686 0.0175138 -0.0211616 0.022797 0.0248198 -0.00621124 0.0575999 0.0320067 -0.0258434 0.0494997 -0.000333642 -0.00960749 -0.00247815 0.00178811 -0.0188409 -0.00176535 -0.0128864 0.022488 0.0110858 0.0174773 0.00289398 0.0486644 0.0443867 0.00676279 0.0163655 -0.00430157 -0.0179065
internal_weight=13210 10843 6366 2367 1802 4477 1524 1367 4564 1000 968 3186 706 2427 1291 744 647 1519 2323 2137 616 307 994 1463 352 373 556 300 523 186
internal_count=13210 10843 6366 2367 1802 4477 1524 1367 4564 1000 968 3186 706 2427 1291 744 647 1519 2323 2137 616 307 994 1463 352 373 556 300 523 186
is_linear=0
shrinkage=0.05


Tree=13
num_leaves=31
num_cat=0
split_feature=0 0 0 5 5 8 1 0 1 1 1 6 7 6 7 5 0 5 5 7 6 6 7 5 7 7 6 5 0 6
split_gain=1561.9 427.196 294.607 216.832 147.867 88.5383 73.436 67.8976 64.8415 58.9219 46.6215 45.5401 53.2475 44.2044 138.534 57.6463 41.7157 40.6925 39.298 34.5229 33.9174 31.9904 31.8585 31.055 28.6544 27.0529 27.0094 24.1358 24.1284 23.6987
threshold=0.3393726696785459 1.294348709338397 -0.57852813852681717 -0.076784975154709847 -0.050144910320805827 0.27499424228466152 1.4990905116815005 2.5769626654919415 -0.32599956385980072 -0.087944336615283253 -0.56405479110431822 1.3254001621855351 0.89613926094156138 -0.53737194844498581 -0.9337436484824152 0.013365089414788244 -1.0169978906928836 -0.010614276979517086 -0.090359773078124331 -1.3575584912645364 1.1194655569902021 -0.93051983109062519 1.1953026793760002 -0.052941197296521976 -0.24566778608320652 -1.4074190610036099 1.0633015737551104 -0.065640642669254831 0.76481882779261146 -0.69650323427774563
decision_type=2 2 2 2 2 2 2 2 2 2 2 2 2 2 2 2 2 2 2 2 2 2 2 2 2 2 2 2 2 2
left_child=2 4 5 8 10 16 11 9 -4 -3 -2 12 13 15 -15 -5 -1 28 -12 -8 25 -14 23 26 -16 -10 -7 -18 -6 -27
right_child=1 7 3 6 17 22 19 -9 20 -11 18 -13 21 14 24 -17 27 -19 -20 -21 -22 -23 -24 -25 -26 29 -28 -29 -30 -31
leaf_value=-0.034636387508336662 0.016914510650668239 0.0351617068120521 0.0029109166155816342 0.0094895427234029679 0.009862947853479756 0.01258852157741785 0.037172444042316156 0.073198963795490818 0.061922080780069035 0.062241588340007842 0.074534163692144939 -0.024159562613324765 -0.0090213685607319922 0.0040888389859876631 -0.018187146355978148 -0.010535359619808551 -0.011292086134811766 0.0026385807563633493 0.038053669916337761 0.0030994305028824772 -0.017347987889147858 -0.02939097930624758 -0.032759831963250267 -0.012393088823481715 -0.039239895526855577 0.039843273178565425 -0.02550759895904256 -0.024564994065881227 0.026165198317936223 0.01560553208587941
leaf_weight=900 207 534 343 903 523 275 116 294 75 322 93 465 385 731 362 597 437 1078 358 207 34 386 130 712 292 231 56 1584 401 179
leaf_count=900 207 534 343 903 523 275 116 294 75 322 93 465 385 731 362 597 437 1078 358 207 34 386 130 712 292 231 56 1584 401 179
internal_value=2.48377e-11 0.0270052 -0.0109457 -0.00317041 0.0159967 -0.0210229 -0.007622 0.0524684 0.0197795 0.0453483 0.0365596 -0.00942144 -0.00754692 -0.00442752 -0.0108685 0.00151963 -0.0256824 0.00923824 0.0455763 0.0153362 0.0309278 -0.0192194 -0.00941964 -0.00651051 -0.0275868 0.034312 0.00614326 -0.021695 0.0169378 0.0292614
internal_weight=13210 3810 9400 5306 2660 4094 4444 1150 862 856 658 4121 3656 2885 1385 1500 2921 2002 451 323 519 771 1173 1043 654 485 331 2021 924 410
internal_count=13210 3810 9400 5306 2660 4094 4444 1150 862 856 658 4121 3656 2885 1385 1500 2921 2002 451 323 519 771 1173 1043 654 485 331 2021 924 410
is_linear=0
shrinkage=0.05


Tree=14
num_leaves=31
num_cat=0
split_feature=0 0 5 0 5 6 1 5 0 2 5 0 8 1 3 1 7 6 6 7 6 7 7 6 1 7 7 6 5 0
split_gain=1419.71 464.404 240.611 143.461 99.9574 85.3111 77.4171 73.1201 70.0507 54.8639 53.2681 52.4773 52.4172 34.0473 34.9616 31.5406 31.3433 30.59 28.263 27.3366 27.2809 38.8994 33.0623 30.7633 27.1775 24.5522 23.3745 31.7357 23.266 22.1923
threshold=0.90461240588304437 -0.29253421430424098 -0.049705785308026142 1.9965199838114167 -0.091422315813886393 1.0726622376276256 -0.72275827593399655 -0.0075563983991071282 -0.86882825110529693 -0.8872680275018151 -0.097953450590647737 0.3393726696785459 0.23065503280044045 -0.48470304868947911 -0.12275733573727977 1.0000000180025095e-35 -1.3824887761340714 1.0164982543925356 1.4470887925282334 1.220232964245539 -0.55609327619001581 -0.1808490454224139 0.88616714699374877 0.91353095179486887 -0.96081350317851411 0.96095800160235745 -1.3675306052123488 0.90417028792235221 0.0085434834736172853 0.2976499056692114
decision_type=2 2 2 2 2 2 2 2 2 2 2 2 2 2 2 2 2 2 2 2 2 2 2 2 2 2 2 2 2 2
left_child=1 4 5 7 15 6 -3 13 9 -6 -8 16 -10 -2 -15 -1 18 -17 -4 26 22 23 28 -22 -13 -26 -12 29 -18 -28
right_child=3 2 11 -5 8 -7 10 -9 12 -11 19 24 -14 14 -16 17 20 -19 -20 -21 21 -23 -24 -25 25 -27 27 -29 -30 -31
leaf_value=-0.0080244465159921684 0.026093933117401526 0.0049538544409343313 0.019766315740222733 0.061661569152947543 -0.0050044712183543406 -0.0074657039240159781 0.053028010763407435 0.016339986554794451 -0.019312267929951339 -0.029179091569116713 0.052335471614441346 -0.0066927900021442046 -0.0063998394421101203 0.038963865346218561 0.065757921918711007 0.022913614001844617 0.0081897907853842166 -0.012558606020504532 -0.03742357310652733 -0.021216756651798886 0.0040072073625649586 -0.03924042402015579 -0.016770308989120752 -0.019023369539114706 0.011304840215496784 -0.015923348463723782 0.021810914339994152 -0.00022812556004448033 -0.0081317861003365102 0.042155412449434299
leaf_weight=384 283 369 159 543 271 243 227 512 1947 1752 84 390 1318 390 177 227 462 83 25 30 217 155 407 437 918 91 377 110 414 208
leaf_count=384 283 369 159 543 271 243 227 512 1947 1752 84 390 1318 390 177 227 462 83 25 30 217 155 407 437 918 91 377 110 414 208
internal_value=-5.21914e-12 -0.0067287 0.00401435 0.0399307 -0.0162883 0.0198888 0.0246199 0.031267 -0.0186297 -0.0259407 0.0316245 -0.00310433 -0.0140998 0.0402584 0.0473281 0.00155279 -0.00778869 0.0134162 0.011996 0.0256188 -0.00952883 -0.0167193 -0.00499485 -0.0113817 0.00451653 0.00884918 0.0274225 0.0244114 0.000476169 0.0290445
internal_weight=13210 11305 5323 1905 5982 1648 1405 1362 5288 2023 1036 3675 3265 850 567 694 2276 310 184 809 2092 809 1283 654 1399 1009 779 695 876 585
internal_count=13210 11305 5323 1905 5982 1648 1405 1362 5288 2023 1036 3675 3265 850 567 694 2276 310 184 809 2092 809 1283 654 1399 1009 779 695 876 585
is_linear=0
shrinkage=0.05


Tree=15
num_leaves=31
num_cat=0
split_feature=0 0 5 0 2 5 0 1 5 6 7 6 10 0 5 7 6 7 7 2 7 6 6 1 7 9 0 7 6 0
split_gain=1281.63 408.415 232.642 141.605 82.4558 69.8497 69.0444 68.5724 64.4869 60.7918 60.3132 44.653 45.7078 43.3751 42.9989 39.372 48.6643 71.2665 35.6417 35.3195 33.0583 28.1482 28.0561 26.0417 25.0446 24.8657 25.8312 23.8051 25.1468 23.4279
threshold=0.86929640991542001 -0.36857519893044205 -0.068694704353083294 1.9026765863480042 -0.44604340903848472 -0.04461642665448156 -0.87799202998462844 -0.80211001834883577 -0.018145663419675866 1.0726622376276256 -1.3076979215254625 1.0164982543925356 -4624.5499999999993 -0.68114145617847233 0.0011522577401922617 0.94599983068063509 -0.46248663746486596 -0.2855562418744676 1.220232964245539 -0.81742565276120083 0.67675275408964131 -0.90243783947307865 -0.69650323427774563 0.62622134511826943 -1.3824887761340714 38.500000000000007 2.5769626654919415 0.67675275408964131 1.0071375905200188 0.18308954105453065
decision_type=2 2 2 2 2 2 2 2 2 2 2 2 2 2 2 2 2 2 2 2 2 2 2 2 2 2 2 2 2 2
left_child=1 4 7 5 6 -2 19 -3 9 10 -4 12 -9 -6 27 16 20 -18 22 -1 -12 -17 -14 -7 -10 -5 -27 28 -8 -26
right_child=3 2 8 25 13 23 14 11 24 -11 15 -13 18 -15 -16 21 17 -19 -20 -21 -22 -23 -24 -25 29 26 -28 -29 -30 -31
leaf_value=-0.0063282779214680106 0.046460228814554881 0.0034402049401175607 0.037323327817692896 0.0025007391907274725 -0.027028378108609794 0.018889734709176619 0.019069439081262476 0.080539272778800561 0.011652754600216178 -0.011307842513592915 0.026766369544044755 0.0041437032479734624 0.045845622032003715 -0.015126282258155488 -0.012262936907963387 0.0014303407331179778 0.0070912565243652307 -0.039203708519710716 -0.025169950522482394 -0.024243279456706159 0.0067226008737372688 -0.029822504061858282 0.023085362230429014 0.046234276749116066 -0.013597933325656812 0.048910991833939897 0.070152522690540606 -0.0053725837792338036 -0.013151051497293842 -0.0033917764209490998
leaf_weight=429 382 289 164 20 1719 936 381 56 157 500 406 120 309 1380 482 185 361 108 25 767 417 118 241 96 1247 295 278 246 72 1024
leaf_count=429 382 289 164 20 1719 936 381 56 157 500 406 120 309 1380 482 185 361 108 25 767 417 118 241 96 1247 295 278 246 72 1024
internal_value=-2.92603e-11 -0.00659183 0.00274333 0.0367953 -0.0163549 0.0281945 -0.00934928 0.0241368 -0.00200368 0.00407662 0.00844969 0.0321013 0.0374181 -0.0217283 -0.00077376 0.00548086 0.00928515 -0.00356942 0.0332185 -0.0178172 0.0166105 -0.0107407 0.0358725 0.0214334 -0.00766076 0.0573038 0.0592167 0.00714868 0.0139483 -0.00899595
internal_weight=13210 11203 5727 2007 5476 1414 2377 1040 4687 2259 1759 751 631 3099 1181 1595 1292 469 575 1196 823 303 550 1032 2428 593 573 699 453 2271
internal_count=13210 11203 5727 2007 5476 1414 2377 1040 4687 2259 1759 751 631 3099 1181 1595 1292 469 575 1196 823 303 550 1032 2428 593 573 699 453 2271
is_linear=0
shrinkage=0.05


Tree=16
num_leaves=31
num_cat=0
split_feature=0 0 0 5 5 8 1 1 1 6 7 1 1 6 7 5 5 7 0 7 6 6 7 5 6 0 6 5 7 0
split_gain=1162.93 320.785 219.645 164.24 115.559 69.7507 58.4441 51.7219 51.3514 37.2083 42.3051 35.559 35.4007 35.0305 113.88 43.5818 32.133 30.1832 28.5172 27.8018 27.4881 27.1384 27.0533 32.8956 32.0985 26.8386 24.4598 25.9992 22.7347 22.0704
threshold=0.3393726696785459 1.294348709338397 -0.57852813852681717 -0.076784975154709847 -0.050144910320805827 0.25848551568959638 1.4990905116815005 -0.80211001834883577 -0.32599956385980072 1.3254001621855351 0.89613926094156138 -0.96081350317851411 -0.56405479110431822 -0.53737194844498581 -0.9337436484824152 0.013365089414788244 -0.090359773078124331 0.96095800160235745 2.5769626654919415 -1.3575584912645364 1.3534821538030817 -0.93051983109062519 1.1953026793760002 -0.047985379298116589 1.0633015737551104 -1.0169978906928836 1.0820229015001421 0.0054769190549422359 -0.24566778608320652 1.9965199838114167
decision_type=2 2 2 2 2 2 2 2 2 2 2 2 2 2 2 2 2 2 2 2 2 2 2 2 2 2 2 2 2 2
left_child=2 4 5 8 12 25 9 18 -4 10 13 -6 -2 15 -15 -5 -14 26 -3 -8 -10 -12 23 24 -7 -1 27 -13 -16 -9
right_child=1 7 3 6 11 22 19 29 20 -11 21 17 16 14 28 -17 -18 -19 -20 -21 -22 -23 -24 -25 -26 -27 -28 -29 -30 -31
leaf_value=-0.03137639306324707 0.014822379322295135 0.024377945266592389 0.0022308620104957207 0.0084880485272296451 -0.002760964966081034 0.010284207238192693 0.033471331758231956 0.044578447117087111 0.029859166143734645 -0.021532660658165854 -0.0075277348090108352 0.021458762443391899 0.065983265164803948 0.0040915295472624203 -0.016254974499882526 -0.0089234967669189341 0.032995639358876096 -0.012567300013084291 0.056906464266426426 0.0028944372204537301 -0.021956515217553482 -0.026289147213586956 -0.027814867160111223 -0.012859433429809148 -0.022657441946437526 -0.020006608607246918 -0.006713250405558451 0.0056254114104186169 -0.03500740132167017 0.061848557326612208
leaf_weight=732 207 325 343 903 571 361 116 368 492 465 385 807 93 731 362 597 358 115 85 207 27 386 186 938 93 1784 127 382 292 372
leaf_count=732 207 325 343 903 571 361 116 368 492 465 385 807 93 731 362 597 358 115 85 207 27 386 186 938 93 1784 127 382 292 372
internal_value=7.51137e-12 0.0233022 -0.00944482 -0.0027312 0.0137627 -0.018146 -0.0066055 0.0453673 0.0172425 -0.00821079 -0.0065164 0.00778811 0.0319409 -0.00373594 -0.00946971 0.00155825 0.039798 0.0119974 0.0311217 0.0138756 0.0271636 -0.0169206 -0.00990511 -0.00751199 0.00353625 -0.0233145 0.014144 0.0163718 -0.0246276 0.0532602
internal_weight=13210 3810 9400 5306 2660 4094 4444 1150 862 4121 3656 2002 658 2885 1385 1500 451 1431 410 323 519 771 1578 1392 454 2516 1316 1189 654 740
internal_count=13210 3810 9400 5306 2660 4094 4444 1150 862 4121 3656 2002 658 2885 1385 1500 451 1431 410 323 519 771 1578 1392 454 2516 1316 1189 654 740
is_linear=0
shrinkage=0.05


Tree=17
num_leaves=31
num_cat=0
split_feature=0 0 5 0 5 6 10 7 6 5 7 5 6 7 6 6 7 7 7 6 10 3 7 6 7 6 7 7 6 9
split_gain=1055.88 349.671 168.332 103.766 95.7694 65.2753 79.942 61.7692 58.9785 58.3944 57.4906 52.2234 50.5339 46.4261 43.1714 42.8179 58.5427 41.6715 36.0763 44.5677 35.075 26.3371 26.1169 27.4059 26.0017 40.1667 53.2924 24.4759 27.2581 23.5997
threshold=0.90461240588304437 -0.17849899461101235 -0.066369316130767145 1.9965199838114167 -0.069284264927120878 -0.55609327619001581 -4023.6499999999992 -0.24566778608320652 1.0539409098825956 -0.0075563983991071282 -1.3575584912645364 -0.010614276979517086 1.3254001621855351 0.67176669711573489 1.0726622376276256 -0.47184730133737923 -1.1481440983604287 -1.3076979215254625 1.170372394506465 1.0164982543925356 -4624.5499999999993 -0.11529965654474154 -1.3824887761340714 0.91353095179486887 0.78145995054169493 -0.46248663746486596 -0.2855562418744676 1.0108185713414313 -0.82287219655669874 38.500000000000007
decision_type=2 2 2 2 2 2 2 2 2 2 2 2 2 2 2 2 2 2 2 2 2 2 2 2 2 2 2 2 2 2
left_child=1 4 18 9 12 6 -6 8 10 21 -7 14 13 15 17 -1 22 -4 19 20 -3 -2 -17 -24 25 -19 -27 28 -8 -5
right_child=3 2 11 29 5 7 27 -9 -10 -11 -12 -13 -14 -15 -16 16 -18 24 -20 -21 -22 -23 23 -25 -26 26 -28 -29 -30 -31
leaf_value=0.027105524442463991 0.028619634024044105 0.075375789306733929 0.034781626849515558 -0.00038627526257187131 0.0035829007208642025 0.025858385117317084 0.0007624932623047871 -0.034824834012189144 -0.025033103333289397 0.013728367494150007 -0.01253291183140188 -0.0062314217151936517 -0.023927103739778709 -0.010636994091970525 -0.0087893168438825577 0.03406500266955316 -0.023789768910723604 0.019614839002720999 -0.010501163566846458 0.0024516319043582659 0.030075086502207422 0.047050767568373016 0.026212504756910244 -0.0077726882312190299 -0.0026876013738780496 0.0081764073550020019 -0.037017982159338797 -0.023406696821268162 -0.016303266702784515 0.054956032251974797
leaf_weight=244 551 46 145 20 715 112 322 678 1094 512 754 1726 215 435 419 103 157 597 67 143 601 299 92 167 494 335 81 707 856 523
leaf_count=244 551 46 145 20 715 112 322 678 1094 512 754 1726 215 435 419 103 157 597 67 143 601 299 92 167 494 335 81 707 856 523
internal_value=2.49106e-11 -0.00580281 0.00470942 0.0344361 -0.0131587 -0.0162749 -0.0106526 -0.0218162 -0.0173163 0.0270679 -0.00756776 0.000191784 -0.00160684 0.00239889 0.00554497 0.00983088 0.00170947 0.00918061 0.0247251 0.0277127 0.0332958 0.0351031 0.0127685 0.00429927 0.00671733 0.0113038 -0.000623462 -0.0160523 -0.0116384 0.0529176
internal_weight=13210 11305 4654 1905 6651 5238 2600 2638 1960 1362 866 3797 1413 1198 2071 763 519 1652 857 790 647 850 362 259 1507 1013 416 1885 1178 543
internal_count=13210 11305 4654 1905 6651 5238 2600 2638 1960 1362 866 3797 1413 1198 2071 763 519 1652 857 790 647 850 362 259 1507 1013 416 1885 1178 543
is_linear=0
shrinkage=0.05


Tree=18
num_leaves=31
num_cat=0
split_feature=0 0 0 5 5 6 8 7 1 6 7 0 0 6 7 1 5 7 6 7 5 7 5 6 7 6 7 7 6 6
split_gain=957.886 262.807 181.721 136.86 97.5005 58.8157 58.6826 50.0907 46.4079 38.1266 60.0899 37.8556 36.3307 31.4172 58.1887 31.2347 38.8535 29.9054 31.4911 54.4503 29.0809 28.7237 23.681 23.4164 31.402 51.7242 23.2711 20.3194 20.3015 18.9164
threshold=0.3393726696785459 1.294348709338397 -0.57852813852681717 -0.05556238420892292 -0.035292178858043977 1.0773425695638836 0.29489859045531036 0.79143206448951109 0.070759148214395107 -0.69650323427774563 -1.3675306052123488 2.5769626654919415 -1.0169978906928836 1.0445802460100804 -1.3276421494210913 -0.56405479110431822 -0.080520512605594827 0.87619503304593616 -0.53737194844498581 -0.24566778608320652 0.013365089414788244 0.60694795645493882 -0.065640642669254831 1.0867032334363989 -0.9337436484824152 -0.15358472967186307 0.94599983068063509 0.65182246922010612 1.1054245611814288 -0.15358472967186307
decision_type=2 2 2 2 2 2 2 2 2 2 2 2 2 2 2 2 2 2 2 2 2 2 2 2 2 2 2 2 2 2
left_child=2 4 6 5 15 7 12 9 11 21 -11 -3 -1 14 -5 -2 -17 18 20 -20 -16 -4 -14 24 -6 26 -26 -8 -18 -24
right_child=1 8 3 13 23 -7 27 -9 -10 10 -12 -13 22 -15 17 16 28 -19 19 -21 -22 -23 29 -25 25 -27 -28 -29 -30 -31
leaf_value=-0.027099288107858499 0.011609492043030118 0.027445285620263195 0.050795757212405306 0.023609379052765164 0.020032320875594374 -0.011290094019609953 0.0035123161723194028 -0.0028846752059273999 0.054337409673028594 0.041510542757007191 0.0050198998661410612 0.054973797311540701 -0.0062372007274102354 -0.017478883894927626 0.0066266799324354413 0.054389827219515068 0.027618067225633883 -0.016265803364475015 -0.0033263071160933768 -0.031302817672418028 -0.0079377236419864872 0.020838400859171779 -0.013158517497243527 -0.010262892255340944 0.01092281031091432 -0.034239105892860715 -0.0062109043252119725 -0.012686158619061512 -0.0098452637067590002 -0.023502793442601384
leaf_weight=1045 298 569 141 162 372 273 411 323 421 144 521 160 501 674 779 141 497 690 547 255 612 185 848 213 745 85 270 366 39 923
leaf_count=1045 298 569 141 162 372 273 411 323 421 144 521 160 501 674 779 141 497 690 547 255 612 185 848 213 745 85 270 366 39 923
internal_value=4.88518e-11 0.0211484 -0.00857184 -0.00246525 0.0125139 0.0098275 -0.0164862 0.0142149 0.0411202 0.0197883 0.0129216 0.0334872 -0.0193835 -0.00771091 -0.0055488 0.0250983 0.0310357 -0.00718724 -0.00433079 -0.0122216 0.000218761 0.0337954 -0.0158347 0.0052322 0.00747435 0.00322748 0.00636507 -0.00411785 0.0248922 -0.0185497
internal_weight=13210 3810 9400 5306 2660 1587 4094 1314 1150 991 665 729 3317 3719 3045 975 677 2883 2193 802 1391 326 2272 1685 1472 1100 1015 777 536 1771
internal_count=13210 3810 9400 5306 2660 1587 4094 1314 1150 991 665 729 3317 3719 3045 975 677 2883 2193 802 1391 326 2272 1685 1472 1100 1015 777 536 1771
is_linear=0
shrinkage=0.05


Tree=19
num_leaves=31
num_cat=0
split_feature=0 0 5 0 6 5 1 8 0 0 8 0 5 1 6 8 5 10 1 9 5 6 10 0 4 1 6 5 5 6
split_gain=871.265 246.006 158.406 124.51 68.1552 59.6014 56.8108 51.7875 42.0247 40.4261 36.682 35.6319 31.5489 29.1227 28.5078 27.7436 25.8147 22.5023 21.7794 21.3315 20.512 19.5139 25.4456 16.4656 15.5267 15.1043 14.2526 15.2582 14.2091 14.9908
threshold=0.73562077015989913 -0.52751030940778798 -0.050681981544992483 1.6001668543457732 1.1007442292451721 -0.0051290296361505422 -0.64340653351915733 0.29924716114396327 1.0000000180025095e-35 -1.0169978906928836 0.2031790335869815 0.12894709965286436 -0.086681212712981751 -0.80211001834883577 1.0726622376276256 0.2396481932681028 -0.05556238420892292 -4023.6499999999992 0.78492482994794777 80.500000000000014 0.0093386995998108093 1.0726622376276256 -4621.9499999999989 2.5769626654919415 -0.78446419210138973 -1.1988687304230317 1.0773425695638836 -0.052941197296521976 -0.0051290296361505422 -0.53737194844498581
decision_type=2 2 2 2 2 2 2 2 2 2 2 2 2 2 2 2 2 2 2 2 2 2 2 2 2 2 2 2 2 2
left_child=1 7 4 5 6 14 -3 9 10 -1 -8 21 -10 23 16 -11 -2 26 -18 -15 25 22 -4 -5 -12 -13 27 -9 29 -24
right_child=3 2 11 13 -6 -7 8 17 12 15 24 20 -14 19 -16 -17 18 -19 -20 -21 -22 -23 28 -25 -26 -27 -28 -29 -30 -31
leaf_value=-0.025697888774256567 0.042371404002761036 0.00082336591136664746 0.035475786354924953 0.022241140765022014 -0.010383609268408998 0.0059173936759153176 -0.0083036222785815416 0.019914903842679146 0.048436050048087445 -0.018132642032009393 -0.0079330809319353834 -0.0090969011780327649 0.023111759557991888 0.0022666223347187044 0.001181991716374895 -0.0073754822925693941 0.019990040962689866 -0.014487562108671598 0.04522586712742796 0.052568343952339905 -0.0077912422905250167 -0.018066296279082638 0.0015453708964930186 0.048694864256745754 0.021589103973768689 0.0064374226071582793 -0.023129602822221138 -0.00031846990651419302 -0.011177026328062487 -0.011302695445069191
leaf_weight=1079 264 487 35 191 301 544 161 144 177 1627 49 185 403 22 101 949 557 263 101 502 527 467 633 85 489 1015 44 264 1190 354
leaf_count=1079 264 487 35 191 301 544 161 144 177 1627 49 185 403 22 101 949 557 263 101 502 527 467 633 85 489 1015 44 264 1190 354
internal_value=-2.24864e-12 -0.00599954 0.000188532 0.0274833 0.0116082 0.0192896 0.0153565 -0.0151655 0.0208903 -0.017573 0.0126344 -0.00516882 0.03084 0.0435329 0.0264005 -0.0141697 0.029163 -0.00285911 0.0238636 0.0504564 0.000431426 -0.00877899 -0.00681824 0.0303881 0.0189003 0.00404255 0.00390701 0.00682272 -0.00749821 -0.00306275
internal_weight=13210 10843 6473 2367 2067 1567 1766 4370 1279 3655 699 4406 580 800 1023 2576 922 715 658 524 1727 2679 2212 276 538 1200 452 408 2177 987
internal_count=13210 10843 6473 2367 2067 1567 1766 4370 1279 3655 699 4406 580 800 1023 2576 922 715 658 524 1727 2679 2212 276 538 1200 452 408 2177 987
is_linear=0
shrinkage=0.05


Tree=20
num_leaves=31
num_cat=0
split_feature=11 5 6 7 1 11 11 6 6 10 7 11 7 6 7 6 7 7 6 7 11 5 10 7 3 6 7 1 5 6
split_gain=660.373 201.653 131.791 117.585 98.8796 97.5572 63.0927 56.1892 51.297 57.7808 51.1562 49.7898 48.7152 48.1661 47.6875 43.6818 40.519 35.184 35.4911 46.4853 34.8442 32.8606 32.2832 36.9416 31.568 29.902 26.5348 24.4583 23.5436 22.445
threshold=33.149581428033635 -0.056004692148561318 1.0773425695638836 0.90611137488937754 0.070759148214395107 18.348185732165209 18.764251591038221 1.0773425695638836 -0.55609327619001581 -4023.6499999999992 -1.0185066170388402 48.356253163707571 -1.3824887761340714 -0.47184730133737923 -0.2855562418744676 1.0633015737551104 0.61193401342884857 -1.3824887761340714 0.91353095179486887 0.89613926094156138 54.601459662225714 -0.086681212712981751 -3943.9499999999994 1.215246907271629 2.0903041906800399 1.4751707841457782 -1.1830464971777801 -0.80211001834883577 -0.011692971201042119 0.91353095179486887
decision_type=2 2 2 2 2 2 2 2 2 2 2 2 2 2 2 2 2 2 2 2 2 2 2 2 2 2 2 2 2 2
left_child=1 2 3 6 7 8 12 11 9 -3 15 26 -1 16 29 -10 -14 25 19 28 -6 -8 -5 27 -13 -7 -2 -24 -19 -15
right_child=4 5 -4 22 20 17 21 -9 10 -11 -12 24 13 14 -16 -17 -18 18 -20 -21 -22 -23 23 -25 -26 -27 -28 -29 -30 -31
leaf_value=0.040246746063110288 0.039531523082134597 0.0027557056372554851 -0.014281645045045421 -0.028151938470686418 0.032738102301954661 0.021467816164165262 0.04425861345302172 -0.0061959504797748175 -8.9131488802126783e-05 -0.013943964710312584 -0.026417287264885687 0.036025317854967147 0.031724064559508151 0.015051942042069683 -0.033103643261265379 -0.022520440756411953 0.0055629430006756547 0.0089111696084657657 -0.014805423444364176 -0.01364244348815493 0.056978962067380338 0.0209412730797582 -0.0097201136127114309 -0.01723213927686194 -0.013742494166773908 -0.029469591274744633 0.010144042249088979 0.028774245419803248 -0.0028282006934852214 -0.0079582478266914548
leaf_weight=122 86 720 653 166 516 227 236 218 465 1846 1220 507 257 215 111 407 349 822 620 573 208 420 65 184 34 33 719 113 889 209
leaf_count=122 86 720 653 166 516 227 236 218 465 1846 1220 507 257 215 111 407 349 822 620 573 208 420 65 184 34 33 719 113 889 209
internal_value=-2.29972e-12 -0.0051167 0.00567524 0.0110009 0.0244251 -0.00939375 0.0167501 0.017353 -0.0139959 -0.00925816 -0.0198071 0.0211671 0.0102162 0.00700521 -0.00392824 -0.0105588 0.0166577 -0.00261854 -0.0041962 -0.00131629 0.0397023 0.0293298 -0.00989442 -0.00152219 0.0328976 0.0150027 0.0132836 0.0147173 0.00281164 0.00370966
internal_weight=13210 10922 3100 2447 2288 7822 1919 1564 4658 2566 2092 1346 1263 1141 535 872 606 3164 2904 2284 724 656 528 362 541 260 805 178 1711 424
internal_count=13210 10922 3100 2447 2288 7822 1919 1564 4658 2566 2092 1346 1263 1141 535 872 606 3164 2904 2284 724 656 528 362 541 260 805 178 1711 424
is_linear=0
shrinkage=0.05


Tree=21
num_leaves=31
num_cat=0
split_feature=11 5 11 6 7 1 3 7 6 7 7 11 6 6 10 5 6 7 6 7 7 6 7 10 7 6 7 6 1 1
split_gain=600.491 168.184 133.931 105.725 76.5296 70.8202 67.4025 51.6136 99.9015 59.8798 57.3996 49.629 44.3605 42.2671 37.9254 34.9373 34.2327 54.9974 32.2768 29.1053 28.8264 37.9332 56.5086 26.8267 31.1678 26.6932 26.0693 24.4275 22.7401 22.354
threshold=27.128346945061242 -0.056004692148561318 48.356253163707571 1.3254001621855351 0.90611137488937754 -0.087944336615283253 2.0903041906800399 -1.3824887761340714 -0.47184730133737923 0.60694795645493882 -0.9786181612475825 13.555491145833335 -0.55609327619001581 0.91353095179486887 -4023.6499999999992 -0.055153212966005095 1.3113591663767636 -1.3824887761340714 -0.69650323427774563 0.78145995054169493 0.89613926094156138 -0.49992929295492589 -0.42017978016996627 -3943.9499999999994 1.170372394506465 0.91353095179486887 -0.99856238914321138 -0.69182290234148724 0.070759148214395107 1.5784422540963396
decision_type=2 2 2 2 2 2 2 2 2 2 2 2 2 2 2 2 2 2 2 2 2 2 2 2 2 2 2 2 2 2
left_child=1 3 5 4 7 -2 28 -1 9 18 13 12 14 -10 -3 27 17 -13 -9 29 21 -19 25 -6 -25 -23 -14 -7 -4 -17
right_child=2 11 6 -5 23 15 -8 8 10 -11 -12 16 26 -15 -16 19 -18 20 -20 -21 -22 22 -24 24 -26 -27 -28 -29 -30 -31
leaf_value=0.032622870338250412 0.005205246995679611 0.0010169272510855819 0.032631886536917766 -0.01986280378275964 -0.026500276825712151 0.051697496311237101 -0.012826075538506974 0.049130494293637611 0.020796321428428573 0.0099105496220938186 -0.022582820390421407 0.018762777103111149 -0.013918083682147395 -0.0064093603693095944 -0.015061999642866964 0.017890289758134188 -0.019700777490988336 0.0013418384983614614 0.018232088372217004 -0.0053459970253243233 -0.0159926556528837 0.0057149778583865229 -0.028529674058785738 0.025018383950426631 -0.010487594021891478 -0.012556245574704536 -0.028511158530041575 0.022710685237000386 0.050249039489782599 0.0509385651210323
leaf_weight=265 1532 522 537 406 163 141 69 211 254 507 265 225 517 326 1233 593 457 1346 141 128 674 379 329 82 251 423 750 150 278 56
leaf_count=265 1532 522 537 406 163 141 69 211 254 507 265 225 517 326 1233 593 457 1346 141 128 674 379 329 82 251 423 750 150 278 56
internal_value=7.97968e-12 -0.00638034 0.0178115 0.00377938 0.00767339 0.0120952 0.0346239 0.0120951 0.00890274 0.0209103 -0.00330371 -0.0106354 -0.0154267 0.00550485 -0.0102795 0.0219786 -0.00685785 -0.00511934 0.0367536 0.0164443 -0.00682466 -0.00433002 -0.0110801 -0.00987989 -0.00174438 -0.00392184 -0.0225564 0.0367558 0.0386412 0.0207419
internal_weight=13210 9726 3484 2871 2465 2600 884 1969 1704 859 845 6855 3022 580 1755 1068 3833 3376 352 777 3151 2477 1131 496 333 802 1267 291 815 649
internal_count=13210 9726 3484 2871 2465 2600 884 1969 1704 859 845 6855 3022 580 1755 1068 3833 3376 352 777 3151 2477 1131 496 333 802 1267 291 815 649
is_linear=0
shrinkage=0.05


Tree=22
num_leaves=31
num_cat=0
split_feature=0 0 5 5 0 0 5 1 5 6 7 6 7 7 6 8 7 6 7 7 1 6 0 6 3 7 6 6 7 7
split_gain=659.312 232.212 109.198 72.3236 53.945 49.9862 41.0527 40.6428 46.9008 32.6536 59.9915 30.0351 52.0924 51.6495 27.5221 27.31 26.0871 31.9283 30.7396 29.0902 25.5648 25.5034 24.0317 22.0627 21.9232 20.709 20.4725 19.7909 21.4095 18.2884
threshold=0.99562002077061784 -0.11763469821476448 -0.0416035268822742 -0.091422315813886393 2.1680585724036034 -0.86882825110529693 -0.037989074419684861 -0.88146176076367488 -0.088831901890470452 1.3254001621855351 -1.397446947055794 -0.55609327619001581 0.63686429829838376 -0.39026343832652133 1.1007442292451721 0.35252077807739807 -1.1281998704648 -0.46248663746486596 0.67176669711573489 -0.2855562418744676 1.0000000180025095e-35 0.76376032983462572 -1.1330811755797741 1.0633015737551104 -0.22241247960468361 0.96095800160235745 0.91353095179486887 0.91353095179486887 -1.4074190610036099 0.83630657725467505
decision_type=2 2 2 2 2 2 2 2 2 2 2 2 2 2 2 2 2 2 2 2 2 2 2 2 2 2 2 2 2 2
left_child=1 3 7 20 6 15 27 -3 -9 10 -7 12 -12 26 24 -5 23 18 -18 21 -1 -19 -22 -4 -10 -14 -13 -2 -29 -8
right_child=4 2 16 5 -6 9 29 8 14 -11 11 13 25 -15 -16 -17 17 19 -20 -21 22 -23 -24 -25 -26 -27 -28 28 -30 -31
leaf_value=-0.0038223712474227999 0.042405019225982526 0.00064015681879568708 0.014880352837326655 -0.02003917192300882 0.044068769124519444 0.021500265192882409 0.021946850388198394 0.038112858206205039 0.0050227518850607016 -0.019554821500856339 0.011173500648860466 0.0018082544690087917 -0.0042647987325619809 -0.027747015704542563 -0.0082600329424475597 0.00041689485423370949 0.011042613017431778 0.012738418662961805 -0.0042767950036616273 -0.034664797224820812 -0.018177555299364032 -0.014762103744732189 0.019169029021516616 -0.0053424203911038373 0.022709085229122031 -0.015854643315302421 -0.013434688382135915 0.04731061045522205 0.00096286821408548228 0.0054699061141082759
leaf_weight=455 325 373 398 1844 443 177 588 265 248 592 420 373 1044 460 118 179 446 113 1232 130 50 332 311 204 597 611 538 39 69 236
leaf_count=455 325 373 398 1844 443 177 588 265 248 592 420 373 1044 460 118 179 446 113 1232 130 50 332 311 204 597 611 538 39 69 236
internal_value=-3.22772e-11 -0.0042929 0.00464261 -0.00993745 0.0290655 -0.0117686 0.0237779 0.0150949 0.0194855 -0.00866778 -0.00688883 -0.008347 -0.00455266 -0.0140897 0.0143596 -0.0182292 -0.00121873 -0.00368931 -0.00020501 -0.0138574 0.00406068 -0.00777883 0.0139964 0.00802745 0.0175183 -0.00854359 -0.00719362 0.0362429 0.0176996 0.0172277
internal_weight=13210 11510 4456 7054 1700 6238 1257 1601 1228 4215 3623 3446 2075 1371 963 2023 2855 2253 1678 575 816 445 361 602 845 1655 911 433 108 824
internal_count=13210 11510 4456 7054 1700 6238 1257 1601 1228 4215 3623 3446 2075 1371 963 2023 2855 2253 1678 575 816 445 361 602 845 1655 911 433 108 824
is_linear=0
shrinkage=0.05


Tree=23
num_leaves=31
num_cat=0
split_feature=0 0 5 0 5 8 1 7 1 1 10 5 5 1 10 7 10 7 5 7 7 7 10 7 10 10 0 0 7 7
split_gain=595.421 202.898 94.1592 86.3521 74.514 37.9534 37.3508 37.1695 32.8783 32.7344 30.5488 28.1582 26.6079 26.4437 24.1888 29.5149 50.3441 44.9675 29.8721 26.5659 20.3468 19.788 28.3906 20.0932 40.9945 19.4426 17.0782 16.7623 16.7054 16.6637
threshold=0.12894709965286436 1.294348709338397 -0.056539510843930281 -0.71535464781104807 -0.091422315813886393 0.32388544421986448 1.8164974813408572 -1.3076979215254625 -0.80211001834883577 -0.96081350317851411 -4592.7499999999991 0.006717515762211689 -0.087843265405539564 0.1501108906292343 -4748.5999999999995 -1.1381719844126164 -4173.3999999999987 1.0108185713414313 0.054121071414857107 -0.2855562418744676 -1.4223772319253325 0.67675275408964131 -4049.4499999999994 -0.9337436484824152 -4173.3999999999987 -4602.9499999999989 -1.08130188632464 2.5769626654919415 0.36761722170738986 0.61692007040275498
decision_type=2 2 2 2 2 2 2 2 2 2 2 2 2 2 2 2 2 2 2 2 2 2 2 2 2 2 2 2 2 2
left_child=3 2 9 5 13 26 14 25 27 -2 -9 21 -11 -5 -6 -16 19 18 29 -17 -8 22 23 -12 -25 -4 -1 -3 -26 -18
right_child=1 8 7 4 6 -7 20 10 -10 12 11 -13 -14 -15 15 16 17 -19 -20 -21 -22 -23 -24 24 28 -27 -28 -29 -30 -31
leaf_value=-0.022098634167531397 0.0039261268432988243 0.015877787343101003 0.015427248151895601 0.0032738829805868024 -0.022801925924395314 -0.00025608251787639122 0.040562810679422877 -0.011587167666160636 0.038698895770157345 0.044218480376257883 0.019606227343901994 -0.0033694022277582143 0.021895718008984821 0.024397181529011436 0.0031869987258687617 -0.01189943602835861 0.01340150026073776 -0.015171390543588334 -0.011157433630550658 -0.028673030770784081 0.0053047743664181614 0.0025627722892857772 0.031210718428703477 -0.023172996815644269 0.038043322545234806 0.050900495805494161 -0.013795446170889243 0.040816704223261162 0.0049948145633648714 0.00049753736328298913
leaf_weight=948 167 325 241 341 238 404 51 350 740 194 230 773 428 262 672 762 338 675 445 342 207 710 185 117 54 46 1786 85 131 963
leaf_count=948 167 325 241 341 238 404 51 350 740 194 230 773 428 262 672 762 338 675 445 342 207 710 185 117 54 46 1786 85 131 963
internal_value=1.63797e-11 0.0141064 0.00830258 -0.00798815 -0.00409373 -0.0145607 -0.00621966 0.00405348 0.032406 0.023581 0.00213347 0.0043163 0.0288581 0.0124518 -0.00729552 -0.0064162 -0.00824694 -0.00421186 2.50731e-05 -0.0170956 0.0122744 0.00847961 0.0143387 0.00847153 -8.54471e-06 0.0211129 -0.0166745 0.0210481 0.0146414 0.00384999
internal_weight=13210 4776 3626 8434 5296 3138 4693 2837 1150 789 2550 2200 622 603 4435 4197 3525 2421 1746 1104 258 1427 717 532 302 287 2734 410 185 1301
internal_count=13210 4776 3626 8434 5296 3138 4693 2837 1150 789 2550 2200 622 603 4435 4197 3525 2421 1746 1104 258 1427 717 532 302 287 2734 410 185 1301
is_linear=0
shrinkage=0.05


Tree=24
num_leaves=31
num_cat=0
split_feature=0 0 5 0 10 7 5 5 1 5 10 7 7 10 7 7 5 3 10 7 10 7 3 7 1 7 10 10 7 9
split_gain=543.325 175.021 91.775 54.4183 53.8298 87.5118 50.0849 42.1663 38.4623 45.6113 30.328 63.8613 40.0598 26.8617 35.7651 25.9318 23.833 23.607 23.1107 23.7453 21.9644 19.7007 19.4902 18.0121 17.8616 17.7107 32.0963 23.2945 22.3951 17.5776
threshold=0.90461240588304437 -0.17849899461101235 -0.035794694855141897 2.1680585724036034 -4748.5999999999995 -1.397446947055794 -0.01867246741149654 -0.021401772742657848 -0.80211001834883577 -0.097953450590647737 -4127.3999999999987 0.61193401342884857 -0.21575144423976514 -4173.3999999999987 0.89613926094156138 1.2252190212194451 -0.13753677490491709 -0.21060668667403934 -4601.1499999999987 -1.1481440983604287 -4044.7999999999997 -0.2855562418744676 -0.11378527661957136 0.64185035527228995 -0.88146176076367488 -0.94371576243023136 -4196.8999999999987 -4627.7499999999991 0.67176669711573489 204.50000000000006
decision_type=2 2 2 2 2 2 2 2 2 2 2 2 2 2 2 2 2 2 2 2 2 2 2 2 2 2 2 2 2 2
left_child=1 4 8 7 -1 -6 10 22 -3 -10 12 20 18 21 23 16 -13 -11 -7 -20 -12 -8 24 -15 -2 27 -27 -4 -28 -19
right_child=3 2 25 -5 5 6 13 -9 9 17 11 15 -14 14 -16 -17 -18 29 19 -21 -22 -23 -24 -25 -26 26 28 -29 -30 -31
leaf_value=-0.024259879051394349 -0.00043148504434308661 -0.00040390641891717091 -0.0089422428250862159 0.04005431111467872 0.019606558275200858 -0.011098125430818968 -0.01523020289076403 0.01170871795440484 0.038251107429178102 0.0018200427378163176 0.0085851345609599013 -0.039917217122597826 -0.026206226822430807 0.0044802934950540904 -0.021095362572188137 -0.016898950763831137 0.0016259673774344577 -0.0083977721470091648 0.018944992256239527 -0.0053778735190890617 0.037489270319252518 -0.029647212308403611 0.039497112588640339 -0.0091822462149173979 0.026717944070152089 -0.017414091143022357 0.0081550702712036276 0.011038702026341801 -0.0052013984506685705 0.018838821225994135
leaf_weight=556 72 494 217 443 274 706 659 744 195 378 134 36 295 314 554 310 842 64 159 272 129 370 264 1041 382 411 421 445 1233 796
leaf_count=556 72 494 217 443 274 706 659 744 195 378 134 36 295 314 554 310 842 64 159 272 129 370 264 1041 382 411 421 445 1233 796
internal_value=7.23429e-12 -0.00416256 0.00327464 0.0247022 -0.0093667 -0.00800811 -0.00930796 0.0200504 0.0116272 0.0157747 -0.004626 0.000468569 -0.00978816 -0.0139023 -0.0103922 -0.00446686 -7.73978e-05 0.0122344 -0.00552841 0.00359506 0.0227624 -0.0204142 0.0286942 -0.00601617 0.0224123 -0.0026276 -0.00490907 0.00448906 -0.00180172 0.0168119
internal_weight=13210 11305 4654 1905 6651 6095 5821 1462 1927 1433 2883 1451 1432 2938 1909 1188 878 1238 1137 431 263 1029 718 1355 454 2727 2065 662 1654 860
internal_count=13210 11305 4654 1905 6651 6095 5821 1462 1927 1433 2883 1451 1432 2938 1909 1188 878 1238 1137 431 263 1029 718 1355 454 2727 2065 662 1654 860
is_linear=0
shrinkage=0.05


Tree=25
num_leaves=31
num_cat=0
split_feature=0 0 0 5 6 10 5 8 1 1 1 5 5 9 10 0 5 6 10 5 6 10 11 6 10 10 2 6 6 10
split_gain=494.442 126.697 97.8876 80.4157 52.1948 78.4408 50.9287 33.5855 28.3884 28.0803 24.9049 22.4131 19.0455 17.852 17.7086 15.7802 14.9671 14.8822 15.5656 15.6027 14.8598 16.7019 14.326 13.43 32.8485 28.2413 21.1966 16.5816 14.5968 12.8438
threshold=0.37736690474557383 1.294348709338397 -0.68823091261806968 -0.043570145440375234 1.0164982543925356 -4622.8499999999995 -0.065640642669254831 0.29924716114396327 -0.80211001834883577 1.4990905116815005 -0.80211001834883577 -0.091422315813886393 0.006717515762211689 139.50000000000006 -4748.5999999999995 -1.08130188632464 -0.0051290296361505422 0.91353095179486887 -4022.3499999999999 -0.037989074419684861 0.92757194760364048 -4551.8499999999995 80.10062496772197 -0.49056862908240922 -4421.2499999999991 -4025.6499999999992 -0.020242537022220647 -0.72926555783154723 0.92757194760364048 -4027.0499999999997
decision_type=2 2 2 2 2 2 2 2 2 2 2 2 2 2 2 2 2 2 2 2 2 2 2 2 2 2 2 2 2 2
left_child=2 6 7 4 5 -4 13 15 22 12 -7 -12 20 -2 -5 -1 -16 18 -10 -20 21 -8 -3 25 28 26 27 -13 -25 -9
right_child=1 8 3 14 -6 10 9 29 17 -11 11 23 -14 -15 16 -17 -18 -19 19 -21 -22 -23 -24 24 -26 -27 -28 -29 -30 -31
leaf_value=-0.020838122780223661 -0.014022257743403316 0.015074216673367001 0.051355733697130847 -0.023382103721791461 -0.0081493075361959832 -0.0040572434366209836 0.028103824888623154 0.0038208308689374952 0.043994533327989652 0.03457401500795694 0.020092929878737779 0.040040289241544624 -0.0020100233085587628 0.029777537366903542 -0.0025204775719743838 -0.012669751366575813 -0.0089900315351721018 0.019799654914586004 0.043937401119619607 0.015284698050365681 -0.00098125659677424245 0.0089618063966891478 0.042088918796364679 0.017054123765275139 -0.029791513898568912 0.0011991774412887356 0.054778377283417445 0.0075512209749730476 -0.00679941757430282 -0.01061865329174907
leaf_weight=869 25 353 103 155 588 426 129 355 414 85 380 54 628 335 1605 1850 2018 129 80 117 324 977 57 145 82 352 44 144 115 272
leaf_count=869 25 353 103 155 588 426 129 355 414 85 380 54 628 335 1605 1850 2018 129 80 117 324 977 57 145 82 352 44 144 115 272
internal_value=1.74399e-11 0.0156463 -0.00598054 -0.00226643 0.00482314 0.00895745 0.00933462 -0.0128748 0.0293839 0.00641141 0.00645054 0.009852 0.00524823 0.0267359 -0.00683205 -0.0152804 -0.006124 0.0352313 0.0384894 0.0269203 0.00843577 0.0111945 0.0188299 0.00569436 -0.0021988 0.0102389 0.0233876 0.0164119 0.00650352 -0.00244319
internal_weight=13210 3653 9557 6211 2433 1845 2503 3346 1150 2143 1742 1316 2058 360 3778 2719 3623 740 611 197 1430 1106 410 936 342 594 242 198 260 627
internal_count=13210 3653 9557 6211 2433 1845 2503 3346 1150 2143 1742 1316 2058 360 3778 2719 3623 740 611 197 1430 1106 410 936 342 594 242 198 260 627
is_linear=0
shrinkage=0.05


Tree=26
num_leaves=31
num_cat=0
split_feature=0 0 5 0 6 7 5 7 6 7 2 7 6 7 7 6 7 6 7 6 6 5 9 0 5 6 10 1 6 10
split_gain=448.336 125.451 86.5161 62.7743 50.881 55.1359 36.9334 32.3349 44.2293 65.2194 31.5096 24.5586 27.4548 26.7801 21.1437 32.2968 20.9039 27.9751 29.6544 53.5731 19.8378 18.8235 17.9696 18.291 17.4147 16.8003 17.2998 16.6451 33.7724 24.3364
threshold=0.73562077015989913 -0.57852813852681717 -0.0416035268822742 1.7450543381742876 1.0726622376276256 -1.3575584912645364 -0.0075563983991071282 1.215246907271629 -0.68714257040522886 0.60694795645493882 -0.46425255374090163 0.86622291909811999 1.0726622376276256 -1.3824887761340714 -0.9337436484824152 -0.14422406579934807 0.87619503304593616 1.0773425695638836 -0.84898067992599369 -0.15358472967186307 -0.77138854525786549 -0.0043880980148156565 38.500000000000007 2.8608034955365658 0.013365089414788244 -0.90243783947307865 -3834.9499999999994 1.0000000180025095e-35 -0.87903617979179038 -4027.7499999999995
decision_type=2 2 2 2 2 2 2 2 2 2 2 2 2 2 2 2 2 2 2 2 2 2 2 2 2 2 2 2 2 2
left_child=1 10 4 6 5 -3 11 8 9 -7 21 12 -2 -14 -10 -16 17 18 -4 24 -13 -1 -5 -24 -20 26 -18 -11 -29 -30
right_child=3 2 16 22 -6 7 -8 -9 14 27 -12 20 13 -15 15 -17 25 -19 19 -21 -22 -23 23 -25 -26 -27 -28 28 29 -31
leaf_value=-0.0011523009650246253 0.027178861783135441 0.034196229716299396 0.0088445977191604543 -0.013272380163627013 -0.00746914495700039 0.038667865473619334 0.0048411876536291519 -0.014732752405727904 0.0077902137778931707 0.0010844435194746762 -0.015276987117516292 0.010729631062117349 0.03788455491585116 -0.018061656102646088 0.0037113452863152051 -0.027524568005779376 0.0037606024236339049 -0.012387278549696771 0.0046725365261351881 -0.021017588047658679 -0.034767538096223564 -0.011145934902935273 0.027835183525768421 0.045193165422348087 -0.0055157591110770532 -0.019374444581064472 -0.018248107945934559 0.040554501210415483 0.024657403660335076 -0.0043672604479769112
leaf_weight=884 747 216 622 21 500 248 626 150 449 348 2201 166 31 69 209 137 235 636 939 364 28 1009 450 229 758 391 144 104 122 177
leaf_count=884 747 216 622 21 500 248 626 150 449 348 2201 166 31 69 209 137 235 636 939 364 28 1009 450 229 758 391 144 104 122 177
internal_value=2.5935e-11 -0.00430373 -0.000114951 0.019715 0.00690391 0.010231 0.0144385 0.0075682 0.00943283 0.0164363 -0.011209 0.0202098 0.0238852 -0.000718331 0.000632216 -0.00865663 -0.0046809 -0.00295897 -0.000724001 -0.00361176 0.00416303 -0.00647907 0.0322805 0.0336893 0.000121724 -0.0121031 -0.00460155 0.00909488 0.0160121 0.00747558
internal_weight=13210 10843 6749 2367 2660 2160 1667 1944 1794 999 4094 1041 847 100 795 346 4089 3319 2683 2061 194 1893 700 679 1697 770 379 751 403 299
internal_count=13210 10843 6749 2367 2660 2160 1667 1944 1794 999 4094 1041 847 100 795 346 4089 3319 2683 2061 194 1893 700 679 1697 770 379 751 403 299
is_linear=0
shrinkage=0.05


Tree=27
num_leaves=31
num_cat=0
split_feature=0 0 5 0 5 6 7 7 1 6 7 6 7 5 1 1 2 3 6 10 0 6 7 6 10 6 5 6 10 11
split_gain=407.945 135.9 66.813 60.2799 53.8788 30.9774 58.5209 29.3746 27.517 26.933 26.4461 37.5736 60.5741 35.6408 25.3573 24.9851 24.7559 22.1942 20.707 21.6678 20.5217 20.4574 20.1354 19.073 18.0491 17.3108 17.2635 16.3684 25.5709 15.9677
threshold=0.12894709965286436 1.2648093075067408 -0.056539510843930281 -0.87799202998462844 -0.091422315813886393 1.0633015737551104 -1.3575584912645364 -1.3076979215254625 0.1501108906292343 1.0867032334363989 1.0108185713414313 -0.47184730133737923 -0.2855562418744676 0.054121071414857107 0.070759148214395107 -0.96081350317851411 -0.81742565276120083 -0.30007488415278366 -0.93988049496313864 -4024.3499999999999 2.5769626654919415 -0.94456082689939691 0.89613926094156138 -0.8322328604292154 -4623.6499999999987 1.0118179224562771 -0.086681212712981751 -0.72926555783154723 -4030.2499999999995 31.97415305074507
decision_type=2 2 2 2 2 2 2 2 2 2 2 2 2 2 2 2 2 2 2 2 2 2 2 2 2 2 2 2 2 2
left_child=3 2 15 16 8 6 24 -4 -5 22 11 13 -13 18 20 -2 -1 -17 -8 27 -3 -12 29 -24 -6 -10 -19 28 -20 -9
right_child=1 14 7 4 5 -7 10 9 25 -11 21 12 -14 -15 -16 17 -18 26 19 -21 -22 -23 23 -25 -26 -27 -28 -29 -30 -31
leaf_value=-0.0028876431291897965 0.002492467423898157 0.016511591668448025 0.018506273431280872 0.00059696002977480209 0.042896481569752926 -0.012963562865764437 0.051227277967457976 0.0021552712812184633 0.026957668288705623 -0.013976413855057827 -0.0058701504286438853 -0.0019168376708745629 -0.024636528330509985 -0.0096276501218129276 0.035840113516761106 -0.0023735903296282219 -0.016257879700374903 0.040093964310763508 0.061773336724050942 -0.00097303326592073139 0.036654419988626612 -0.021927878072057837 0.0017093048594924208 -0.019227764392513891 0.011328049516147284 -0.0029890287249562802 0.021343255581539333 0.0068416955091520132 0.013985789886007653 0.012060895446695259
leaf_weight=429 166 603 281 408 72 1170 24 1169 231 254 433 850 448 561 437 69 1794 186 37 822 160 366 293 173 122 61 361 491 115 624
leaf_count=429 166 603 281 408 72 1170 24 1169 231 254 433 850 448 561 437 69 1794 186 37 822 160 366 293 173 122 61 361 491 115 624
internal_value=2.42471e-11 0.0116763 0.00679042 -0.00661203 -0.00408315 -0.00574286 -0.00379671 0.00317473 0.0089835 0.00146038 -0.00505235 -0.00310177 -0.00975846 0.00111305 0.0262361 0.0197089 -0.0136777 0.0243484 0.00515975 0.00440506 0.0207355 -0.0132258 0.00319608 -0.00606347 0.0230442 0.0207017 0.0277192 0.0112803 0.0256183 0.00560263
internal_weight=13210 4776 3576 8434 6211 5511 4341 2794 700 2513 4147 3348 1298 2050 1200 782 2223 616 1489 1465 763 799 2259 466 194 292 547 643 152 1793
internal_count=13210 4776 3576 8434 6211 5511 4341 2794 700 2513 4147 3348 1298 2050 1200 782 2223 616 1489 1465 763 799 2259 466 194 292 547 643 152 1793
is_linear=0
shrinkage=0.05


Tree=28
num_leaves=31
num_cat=0
split_feature=0 0 5 10 7 5 6 10 7 1 7 6 6 7 1 7 6 0 6 10 6 7 7 6 7 5 6 9 7 7
split_gain=370.468 131.768 66.9312 49.5991 84.0693 46.2846 34.5298 64.5601 37.8441 31.8362 31.5284 27.8963 27.5002 30.3479 26.2619 25.1409 24.9313 24.6747 23.91 23.8116 21.3108 21.2435 20.9564 55.4446 20.0536 19.0563 18.6441 17.4769 17.2056 16.0522
threshold=0.99562002077061784 -0.029095264458013921 -0.071624177916602874 -4748.5999999999995 -1.397446947055794 -0.025117838270760817 -0.47184730133737923 -4026.3499999999999 -0.9786181612475825 0.070759148214395107 -1.3076979215254625 0.90417028792235221 -0.41100298616603098 0.88616714699374877 -0.96081350317851411 0.67675275408964131 -0.69182290234148724 2.5769626654919415 0.91353095179486887 -4602.9499999999989 -0.72926555783154723 -0.50992880570029386 -0.8589527938738063 -0.14422406579934807 0.62190612737666118 -0.049705785308026142 1.1615885444165204 70.500000000000014 1.5343545536016965 0.56207344368977485
decision_type=2 2 2 2 2 2 2 2 2 2 2 2 2 2 2 2 2 2 2 2 2 2 2 2 2 2 2 2 2 2
left_child=1 3 14 -1 -5 6 7 20 18 17 19 15 13 29 -3 16 24 25 -8 -4 -6 -14 -18 -24 -12 -2 -16 -11 -9 -7
right_child=9 2 10 4 5 12 8 28 -10 27 11 -13 21 -15 26 -17 22 -19 -20 -21 -22 -23 23 -25 -26 -27 -28 -29 -30 -31
leaf_value=-0.021053237067256921 0.030361685035847963 0.00090797613306409306 0.009885127419264176 0.018241521561375425 0.032757448098311819 0.01454670172383043 0.015213040766743194 -0.0029743018974899317 -0.014416682617458612 -0.013861373244296938 0.034485283191995626 -0.010526816363347246 -0.01166644583530888 -0.016700066959784373 0.028378089449084289 -0.0025400594343272737 0.013669399989317399 0.03482169803901343 -0.0055447684154331248 0.045584364700307897 0.010441224504731617 -0.024987481060175405 0.0067818468521552494 -0.031196368919267487 0.0044018214175437567 0.010523995255891849 -0.021052343826740982 0.032560799033624986 -0.029332267504298327 -0.005413345995324767
leaf_weight=585 143 136 346 343 150 108 211 1000 929 21 137 540 739 676 413 1337 328 160 405 54 373 503 395 127 93 789 20 587 66 1496
leaf_count=585 143 136 346 343 150 108 211 1000 929 21 137 540 739 676 413 1337 328 160 405 54 373 503 395 127 93 789 20 587 66 1496
internal_value=-1.81285e-11 -0.00321796 0.00421757 -0.0070671 -0.00589809 -0.00714207 -0.00272202 0.00245309 -0.00804452 0.0217875 0.00152981 -0.000252362 -0.0110752 -0.00781428 0.0200748 0.00204313 0.00771695 0.0166819 0.00156546 0.0147045 0.0168417 -0.0170614 0.00376524 -0.00245806 0.0223211 0.0135678 0.0260949 0.0309574 -0.00460622 -0.0040694
internal_weight=13210 11510 3926 7584 6999 6656 3134 1589 1545 1700 3357 2957 3522 2280 569 2417 1080 1092 616 400 523 1242 850 522 230 932 433 608 1066 1604
internal_count=13210 11510 3926 7584 6999 6656 3134 1589 1545 1700 3357 2957 3522 2280 569 2417 1080 1092 616 400 523 1242 850 522 230 932 433 608 1066 1604
is_linear=0
shrinkage=0.05


Tree=29
num_leaves=31
num_cat=0
split_feature=0 0 5 6 7 5 7 6 7 6 7 7 6 7 6 0 6 1 5 6 7 6 10 7 6 7 1 7 7 5
split_gain=335.647 95.924 62.2719 59.2133 51.0326 49.4065 33.11 52.5986 45.9588 44.0499 41.4203 27.0799 41.2114 27.849 26.7271 24.9478 20.6094 20.5313 20.2901 29.6103 18.8968 17.3608 22.2279 16.7466 15.2804 16.1945 14.6182 14.5296 14.0876 13.5856
threshold=0.27057868496837828 1.3793434148753485 -0.043570145440375234 1.3254001621855351 -1.3824887761340714 -0.035292178858043977 1.215246907271629 -0.47184730133737923 -0.48001246385685259 0.91353095179486887 0.65182246922010612 -1.3675306052123488 0.90417028792235221 0.63686429829838376 -0.69182290234148724 -0.67441960118389088 -0.88371651172804866 -0.80211001834883577 -0.13753677490491709 -0.87903617979179038 -1.2179488959951315 -0.15358472967186307 -4023.6499999999992 0.80639023541123367 0.93693261147615547 -1.4074190610036099 1.4990905116815005 0.78644600751560134 0.86622291909811999 0.0039478021528898026
decision_type=2 2 2 2 2 2 2 2 2 2 2 2 2 2 2 2 2 2 2 2 2 2 2 2 2 2 2 2 2 2
left_child=2 5 3 4 26 11 7 10 9 -9 -6 -2 13 14 -13 21 28 -3 -12 -20 -16 22 -4 -21 27 -26 -1 -19 -15 -7
right_child=1 17 15 -5 6 29 -8 8 -10 -11 18 12 -14 16 20 -17 -18 24 19 23 -22 -23 -24 -25 25 -27 -28 -29 -30 -31
leaf_value=0.013062452820515068 0.036795308194192709 0.01556493398312599 0.0010111143220515558 -0.014226572312248094 0.019981829093946111 0.0061671197170131975 -0.014813303057027258 0.015844447197625414 -0.023317441944700649 -0.0084363422221551184 -0.033936129843718126 0.03987743600447774 -0.0094064322759825087 0.042063269546876357 0.03399688212821881 -0.0058504608071708987 -0.0051009868311335926 0.037863668607781245 0.016895442327308493 0.0043894463723867932 0.0057759958447824271 -0.017658562622335044 -0.013221092960952543 -0.016698249577318566 0.040041084205492954 0.00058016535603644284 0.036548409388843371 0.018348049075861815 0.010730390092748435 -0.0023942595779462977
leaf_weight=145 134 374 398 606 558 1074 299 300 265 495 38 193 172 48 90 3426 176 437 254 208 174 973 883 172 39 78 122 122 142 815
leaf_count=145 134 374 398 606 558 1074 299 300 265 495 38 193 172 48 90 3426 176 437 254 208 174 973 883 172 39 78 122 122 142 815
internal_value=1.02189e-11 0.0119479 -0.00531655 -3.08088e-05 0.00298132 0.00741912 0.000834948 0.0028781 -0.0052847 0.00072622 0.00991271 0.0156942 0.0128524 0.0175043 0.0257354 -0.00853825 0.00722672 0.0249648 0.00155175 0.00367878 0.0153968 -0.0126236 -0.00879922 -0.00515551 0.0301653 0.0137338 0.0237939 0.0336044 0.0186461 0.00247335
internal_weight=13210 4068 9142 3462 2856 3018 2589 2290 1060 795 1230 1129 995 823 457 5680 366 1050 672 634 264 2254 1281 380 676 117 267 559 190 1889
internal_count=13210 4068 9142 3462 2856 3018 2589 2290 1060 795 1230 1129 995 823 457 5680 366 1050 672 634 264 2254 1281 380 676 117 267 559 190 1889
is_linear=0
shrinkage=0.05


Tree=30
num_leaves=31
num_cat=0
split_feature=11 5 6 7 6 7 11 6 7 6 7 7 6 5 10 6 7 6 7 5 1 1 6 10 7 7 7 4 7 1
split_gain=261.882 79.3028 58.8565 64.5822 57.2269 49.8247 45.0783 33.3606 31.8814 42.6687 56.4357 40.9661 39.9626 31.2393 23.8536 23.5571 36.7805 61.1946 38.6856 26.1517 22.809 21.7103 26.7032 23.2111 20.8512 19.2833 18.4835 18.0335 16.036 13.6568
threshold=27.128346945061242 -0.049122101900741642 1.0867032334363989 0.93602771673282248 1.3254001621855351 -1.3824887761340714 48.356253163707571 -0.90243783947307865 1.215246907271629 -0.47184730133737923 0.60694795645493882 -0.48001246385685259 0.91353095179486887 -0.070805201591740904 -4041.6499999999992 1.0633015737551104 -0.84898067992599369 -0.41100298616603098 0.88616714699374877 0.029846391794197343 0.78492482994794777 -0.087944336615283253 -0.87903617979179038 -4026.3499999999999 1.215246907271629 -1.397446947055794 -1.3176700354732789 -0.86141961072837436 -0.42017978016996627 -0.72275827593399655
decision_type=2 2 2 2 2 2 2 2 2 2 2 2 2 2 2 2 2 2 2 2 2 2 2 2 2 2 2 2 2 2
left_child=1 4 3 6 5 29 13 24 9 10 14 12 -11 27 -7 16 -3 18 19 -18 26 -12 -23 -24 -5 -4 -15 -2 -19 -1
right_child=2 15 25 7 -6 8 -8 -9 -10 11 21 -13 -14 20 -16 -17 17 28 -20 -21 -22 22 23 -25 -26 -27 -28 -29 -30 -31
leaf_value=-0.003356298320711805 -0.00023303039488382639 0.0039472915032413161 0.014469273455198045 0.018760532349601247 -0.013526788135340979 0.013347206749882469 0.028636830641880009 -0.016775478057873747 -0.014161168999767812 0.015283741566487647 -0.0045354306528318997 -0.02309067041221026 -0.0076000746789300772 0.033562956064836023 0.038233274964288355 -0.014355007345565655 0.0031873577871664779 -0.0099924234445523657 -0.012957978992336004 -0.0069493626813312047 0.025448530504518022 0.031550191043899792 0.017254930529320103 -0.0079785571615926167 -0.0051737853489456235 -0.011425341379554168 0.0075435896216354539 0.041316414118455852 -0.023798322768357031 0.028405358391660231
leaf_weight=39 32 772 92 206 504 184 681 210 258 324 434 209 464 72 202 1045 1357 316 1052 1198 245 118 176 189 163 329 1312 142 629 256
leaf_count=39 32 772 92 206 504 184 681 210 258 324 434 209 464 72 202 1045 1357 316 1052 1198 245 118 176 189 163 329 1312 142 629 256
internal_value=1.08242e-11 -0.0042135 0.0117625 0.0141718 0.00200531 0.00474915 0.017677 -0.000866162 0.00250525 0.00437479 0.0103319 -0.00341068 0.00180901 0.0135375 0.0263705 -0.00749133 -0.00614413 -0.00785559 -0.00488824 -0.00156559 0.0113865 0.00358066 0.0108734 0.00418882 0.00818792 -0.00576666 0.0088972 0.0336751 -0.0191817 0.0242064
internal_weight=13210 9726 3484 3063 3357 2853 2484 579 2558 2300 1303 997 788 1803 386 6369 5324 4552 3607 2555 1629 917 483 365 369 421 1384 174 945 295
internal_count=13210 9726 3484 3063 3357 2853 2484 579 2558 2300 1303 997 788 1803 386 6369 5324 4552 3607 2555 1629 917 483 365 369 421 1384 174 945 295
is_linear=0
shrinkage=0.05


Tree=31
num_leaves=31
num_cat=0
split_feature=0 0 5 5 6 7 7 1 6 1 6 7 7 6 0 7 6 6 7 7 7 6 6 3 7 9 6 9 5 7
split_gain=278.298 98.0808 50.8556 37.5271 45.1103 43.9467 25.6059 25.2474 22.3729 21.2958 21.2484 49.2749 34.7868 27.9564 20.0568 19.9881 20.2286 19.4576 24.6369 19.1622 17.9484 47.8053 17.8673 17.2793 16.5103 15.8227 15.6246 15.3798 15.0636 14.6664
threshold=0.99562002077061784 -0.029095264458013921 -0.071624177916602874 -0.025117838270760817 1.3254001621855351 -1.3824887761340714 -1.3076979215254625 0.070759148214395107 0.90417028792235221 -0.96081350317851411 -0.47184730133737923 0.73159938080262121 -0.48001246385685259 0.91353095179486887 2.5769626654919415 0.67675275408964131 -0.69182290234148724 -0.41100298616603098 1.0108185713414313 -0.99856238914321138 -0.8589527938738063 -0.14422406579934807 0.91353095179486887 -0.057407223874791184 0.62190612737666118 401.50000000000017 0.97905559890247373 70.500000000000014 0.069392639435316636 -1.2179488959951315
decision_type=2 2 2 2 2 2 2 2 2 2 2 2 2 2 2 2 2 2 2 2 2 2 2 2 2 2 2 2 2 2
left_child=1 3 9 4 5 -1 22 14 15 -3 11 -7 13 -12 23 16 24 18 28 26 -18 -22 -4 29 -8 -11 -19 -9 -5 -2
right_child=7 2 6 17 -6 10 8 27 -10 25 12 -13 -14 -15 -16 -17 20 19 -20 -21 21 -23 -24 -25 -26 -27 -28 -29 -30 -31
leaf_value=0.020711586387120735 0.025566724573094758 0.00018858603160718784 0.039347283658571541 4.7328873729571696e-06 -0.013382311776130191 0.012025348383106321 0.030984030845303118 -0.014994087354058312 -0.0095242386476429939 0.01006907266053942 0.011484222626491755 -0.0056945865810067615 -0.019242204721353545 -0.0076645224930149778 0.030691489165619715 -0.0023538845389871215 0.01239808952700625 0.0039281637343533691 -0.015768729242863887 -0.018586549787083999 0.0060526614450949799 -0.029212237697270677 0.0088924109044794097 0.024895036180047708 0.0036873500139492574 0.030006350616073547 -0.013198384522435776 0.028553872961063872 -0.0096076432497254356 0.0052309974303777554
leaf_weight=239 103 136 56 1043 775 706 137 21 540 155 294 883 376 542 160 1337 328 210 568 915 395 127 344 192 93 278 364 587 669 637
leaf_count=239 103 136 56 1043 775 706 137 21 540 155 294 883 376 542 160 1337 328 210 568 915 395 127 344 192 93 278 364 587 669 637
internal_value=1.75163e-11 -0.00278907 0.00362595 -0.00610993 -0.00261403 0.000131173 0.0012831 0.0188837 -0.000322988 0.0174484 -0.00162488 0.00217846 -0.00661129 -0.000930394 0.014337 0.00173273 0.00679181 -0.0096485 -0.00674527 -0.014094 0.00323226 -0.00252711 0.0131561 0.0115294 0.0199467 0.0228694 -0.00693257 0.0270497 -0.00375151 0.00806151
internal_weight=13210 11510 3926 7584 3815 3040 3357 1700 2957 569 2801 1589 1212 836 1092 2417 1080 3769 2280 1489 850 522 400 932 230 433 574 608 1712 740
internal_count=13210 11510 3926 7584 3815 3040 3357 1700 2957 569 2801 1589 1212 836 1092 2417 1080 3769 2280 1489 850 522 400 932 230 433 574 608 1712 740
is_linear=0
shrinkage=0.05


Tree=32
num_leaves=31
num_cat=0
split_feature=0 0 5 10 7 5 7 0 6 10 7 6 5 6 5 6 7 4 6 10 7 7 6 7 6 7 5 6 7 7
split_gain=251.22 86.7157 46.4464 37.9396 60.1357 33.9892 25.0196 24.5735 23.7825 50.5026 31.2821 26.9176 22.567 21.0213 21.2392 19.5115 21.0821 18.5014 18.1041 16.8665 16.0868 14.8595 18.3807 15.6424 40.3432 14.2711 14.2936 15.7671 14.363 12.8369
threshold=0.97101698120060742 -0.029095264458013921 -0.075783219008171324 -4758.7499999999991 -1.397446947055794 -0.017018688124858208 -1.3426003203428138 2.2740853320446939 -0.56077360812627408 -4026.3499999999999 -0.21575144423976514 0.91353095179486887 -0.05556238420892292 0.90417028792235221 0.0085434834736172853 -0.41100298616603098 0.88616714699374877 -0.89791846642002981 -0.72926555783154723 -4601.1499999999987 0.84129263422858125 0.67675275408964131 -0.69182290234148724 -0.53485909056983261 -0.15358472967186307 1.5343545536016965 -0.13753677490491709 -0.80883120074792714 1.2052747933238164 -0.50992880570029386
decision_type=2 2 2 2 2 2 2 2 2 2 2 2 2 2 2 2 2 2 2 2 2 2 2 2 2 2 2 2 2 2
left_child=1 3 -3 -1 -5 8 19 12 9 18 11 -10 17 14 21 16 -7 -2 -6 -4 -14 22 -8 -24 -25 26 -11 28 -28 -17
right_child=7 2 6 4 5 15 13 -9 10 25 -12 -13 20 -15 -16 29 -18 -19 -20 -21 -22 -23 23 24 -26 -27 27 -29 -30 -31
leaf_value=-0.018513823880812949 -0.0089430701565639727 0.017760537588843685 0.010136561728006692 0.015474830660801273 0.02861691009683558 -0.0035586641329367515 0.022686935346346443 0.028649766546728579 0.0084774685467021316 -0.032822637688858729 -0.019128761044446402 -0.0073157509307716631 0.01496974041201741 -0.0087376220750446324 -0.0052270599106895863 -0.010479706931653548 -0.01455225923305479 0.033686977453628343 0.0085091258561988074 0.045799028108248846 0.0011820178734681709 0.00035319299887531607 0.014805106137713013 0.0078544638984991855 -0.03139411238843904 -0.025964845449530656 0.0080287228738404898 -0.01049426793275453 -0.0064144563875847887 -0.021413687633121781
leaf_weight=545 29 491 319 347 158 1505 205 393 372 38 385 982 838 579 739 661 614 208 384 37 283 873 262 285 85 70 452 341 278 452
leaf_count=545 29 491 319 347 158 1505 205 393 372 38 385 982 838 579 739 661 614 208 384 37 283 873 262 285 85 70 452 341 278 452
internal_value=1.44894e-12 -0.00269535 0.00338962 -0.00580444 -0.0048204 -0.00587277 0.00130448 0.0176391 -0.00242879 0.00173817 -0.00655263 -0.0029767 0.0144526 -0.00016967 0.00185599 -0.0095597 -0.00674416 0.0284706 0.0143708 0.0138431 0.011489 0.00491703 0.00967716 0.00545722 -0.0011621 -0.0040692 -0.00268714 -0.00161791 0.00252844 -0.0149201
internal_weight=13210 11459 3875 7584 7039 6692 3384 1751 3460 1721 1739 1354 1358 3028 2449 3232 2119 237 542 356 1121 1710 837 632 370 1179 1109 1071 730 1113
internal_count=13210 11459 3875 7584 7039 6692 3384 1751 3460 1721 1739 1354 1358 3028 2449 3232 2119 237 542 356 1121 1710 837 632 370 1179 1109 1071 730 1113
is_linear=0
shrinkage=0.05


Tree=33
num_leaves=31
num_cat=0
split_feature=11 5 6 7 6 7 6 7 7 6 5 6 6 10 10 7 6 7 6 1 7 6 7 6 5 7 7 11 6 7
split_gain=199.474 69.3873 70.7192 50.653 38.5062 36.8723 33.0534 71.5044 49.8685 34.2351 25.7583 25.0643 23.5228 38.7786 21.772 21.2898 32.2023 19.2894 28.3866 21.8206 18.0389 24.4802 33.0062 20.1858 18.7389 16.9296 16.8225 15.2892 14.8252 20.5591
threshold=31.634370856513833 -0.021854902152209584 1.3254001621855351 -1.3824887761340714 1.0820229015001421 0.93602771673282248 -0.47184730133737923 0.63686429829838376 -0.9786181612475825 0.91353095179486887 -0.0088518563232031239 -0.95392149077191191 -0.69650323427774563 -4028.9499999999994 -4096.5499999999984 0.59198978553321624 -0.82287219655669874 1.215246907271629 -0.88371651172804866 1.0000000180025095e-35 0.94599983068063509 -0.47184730133737923 -0.99856238914321138 0.97905559890247373 0.029846391794197343 0.97093011555017361 -1.397446947055794 74.550680095910579 0.92757194760364048 -1.4074190610036099
decision_type=2 2 2 2 2 2 2 2 2 2 2 2 2 2 2 2 2 2 2 2 2 2 2 2 2 2 2 2 2 2
left_child=1 2 3 -1 5 10 7 12 9 -8 28 -7 13 -5 -14 -15 -17 18 19 -9 21 24 23 -23 -3 -20 -6 -12 -2 -30
right_child=4 20 -4 6 26 11 8 17 -10 -11 27 -13 14 15 -16 16 -18 -19 25 -21 -22 22 -24 -25 -26 -27 -28 -29 29 -31
leaf_value=0.01942269319551997 0.025264460420224205 0.0028532770428284773 -0.01220179058254417 0.0384929915635654 0.017651228089608364 0.012288676112945963 0.013657977127470789 0.004918248469598604 -0.01389841242085231 -0.004830780476942069 0.0075700006164302995 -0.012338305736036115 0.032087792832849189 0.03033798129283391 0.00024474974469436954 0.030962578635219309 -0.012593649157251302 -0.010128372333681209 -8.3803877410840933e-05 0.028671222556592293 -0.014016402204715237 0.004752810353165343 -0.015948223625331544 -0.01032611744128841 -0.0063656815448593284 -0.01960870837508381 -0.010833103322692411 0.031075229045624538 0.0359177109436132 0.0016838992164867354
leaf_weight=438 920 971 881 237 67 234 449 303 714 566 612 185 67 97 270 63 130 415 728 142 828 437 1069 451 1275 131 229 78 60 163
leaf_count=438 920 971 881 237 67 234 449 303 714 566 612 185 67 97 270 63 130 415 728 142 828 437 1069 451 1275 131 229 78 60 163
internal_value=1.69945e-11 -0.0030036 0.000809036 0.0032222 0.0125684 0.0147969 0.0015766 0.00515818 -0.00377401 0.00334799 0.0178557 0.00141519 0.0168924 0.0234897 0.00657556 0.0112285 0.00162419 -0.000739664 0.00224831 0.0124978 -0.00727093 -0.00594206 -0.01003 -0.00290552 -0.0023801 -0.00306141 -0.00438564 0.0102271 0.0224609 0.0108948
internal_weight=13210 10662 5631 4750 2548 2252 4312 2583 1729 1015 1833 419 864 527 337 290 193 1719 1304 445 5031 4203 1957 888 2246 859 296 690 1143 223
internal_count=13210 10662 5631 4750 2548 2252 4312 2583 1729 1015 1833 419 864 527 337 290 193 1719 1304 445 5031 4203 1957 888 2246 859 296 690 1143 223
is_linear=0
shrinkage=0.05


Tree=34
num_leaves=31
num_cat=0
split_feature=0 0 5 10 7 5 7 6 7 6 7 6 6 7 6 7 6 10 7 6 7 6 6 6 7 1 6 10 6 7
split_gain=207.212 72.6287 38.4936 32.327 49.9288 28.0749 21.3333 21.0035 23.7767 27.5518 30.4303 20.4618 20.3642 22.6294 41.6804 25.4497 18.9529 40.9127 26.5128 21.3767 17.9344 16.2622 16.1455 16.0312 19.3349 15.7595 14.8714 14.2238 14.4332 13.2104
