tree
version=v4
num_class=1
num_tree_per_iteration=1
label_index=0
max_feature_idx=11
objective=regression
feature_names=MedInc HouseAge AveRooms AveBedrms Population AveOccup Latitude Longitude bedroom_ratio population_density location_cluster income_rooms
feature_infos=[-1.7754384434994495:5.8392679465339663] [-2.1907655106085215:1.8561733525482766] [-1.9043862182419304:23.615466869744104] [-1.6659334550503557:32.815716637394331] [-1.2519133921041592:30.12742810723508] [-0.20768455488371665:51.528506438498795] [-1.4430161781108297:2.9518155100350509] [-2.3772071424285768:2.6287940593743486] [0.10000000000000001:1] [2:6082] [-5207.6999999999998:-3757.1999999999998] [0.8569714285714285:333.33555555555552]
tree_sizes=2709 2875 2871 2896 2892 2878 2893 2882 2904 2877 2890 2909 2900 2890 2891 2909 2892 2895 2894 2896 2900 2900 2896 2934 2895 2895 2894 2909 2900 2903 2900 2907 2900 2867 2910 2901 2909 2882 2922 2895 2896 2913 2898 2905 2883 2894 2898 2914 2926 2902 2916 2908 2902 2909 2903 2934 2922 2914 2910 2917 2886 2909 2903 2904 2914 2905 2894 2890 2878 2889 2912 2918 2886 2903 2908 2913 2919 2913 2922 2902 2922 2905 2926 2898 2896 2878 2891 2924 2915 2904 2910 2899 2888 2919 2881 2906 2891 2863 2915 2888

Tree=0
num_leaves=31
num_cat=0
split_feature=0 0 0 5 5 5 6 1 10 0 0 6 0 6 7 7 6 7 5 5 1 1 1 5 1 8 1 7 7 6
split_gain=5515.26 1396.26 1010.92 756.452 347.669 260.137 205.367 200.45 198.54 155.554 148.815 136.222 128.604 108.13 102.337 96.4344 97.1949 103.611 93.9131 84.1345 80.0733 79.4872 76.6594 66.1216 63.122 53.9333 53.2073 49.9722 46.1077 36.4978
threshold=0.60365185139909594 -0.39630285078308974 1.5474423042320262 -0.068946462881130308 -0.044328900693387532 -0.079857351846710903 -0.56077360812627408 -0.40535130627463994 -4025.8499999999999 0.12030846569498432 2.2388481078152873 1.0867032334363989 0.95224305025871026 1.0773425695638836 0.6667806401418287 -0.29552835582228376 1.0633015737551104 -1.3775027191601652 -0.01718054966196312 -0.09780403857242545 1.1816835420221439 -0.56405479110431822 -0.16729607903012242 -0.0889030059740165 -0.087944336615283253 0.20180883383968221 1.0229800571924654 -1.3775027191601652 0.90611137488937754 -0.35015867099468273
decision_type=2 2 2 2 2 2 2 2 2 2 2 2 2 2 2 2 2 2 2 2 2 2 2 2 2 2 2 2 2 2
left_child=1 5 4 7 21 13 8 -3 -7 20 22 19 -6 14 29 16 17 -8 26 -9 25 -2 -4 -23 -14 -5 -11 -22 -10 -1
right_child=2 3 10 9 12 6 15 11 28 18 -12 -13 24 -15 -16 -17 -18 -19 -20 -21 27 23 -24 -25 -26 -27 -28 -29 -30 -31
leaf_value=2.1087871370015971 2.1137151214147973 2.0788978113589405 2.1387712632190472 2.0402657030898337 2.0812537360516021 2.0655369555120298 2.092108243410582 2.1581282587227939 2.0371960991094591 2.077149451915894 2.1970944700337172 2.0548205952582355 2.1021526554463739 2.0258520548938903 2.0457712247445135 2.0000336226662512 2.0124791864792382 2.0303536402466289 2.0596410934912956 2.1179761427862696 2.1056994343639386 2.1986555167642265 2.181164387088514 2.145348947602006 2.135706412631095 2.0562661743705357 2.1107682757943502 2.0619268363954006 2.0202099190504805 2.0744581573111964
leaf_weight=121 166 377 278 1158 716 508 76 208 907 665 394 62 512 199 277 630 944 639 904 350 91 71 173 322 193 966 143 230 714 215
leaf_count=121 166 377 278 1158 716 508 76 208 907 665 394 62 512 199 277 630 944 639 904 350 91 71 173 322 193 966 143 230 714 215
internal_value=2.06692 2.05007 2.12886 2.06853 2.10932 2.03186 2.02708 2.10765 2.03826 2.05915 2.17465 2.12513 2.09618 2.05788 2.06827 2.01669 2.02301 2.03692 2.07071 2.13294 2.05106 2.14273 2.15503 2.15498 2.11134 2.04754 2.0831 2.07434 2.02971 2.08682
internal_weight=13209 10384 2825 5154 1980 5230 4418 997 2129 4157 845 620 1421 812 613 2289 1659 715 1712 558 2445 559 451 393 705 2124 808 321 1621 336
internal_count=13209 10384 2825 5154 1980 5230 4418 997 2129 4157 845 620 1421 812 613 2289 1659 715 1712 558 2445 559 451 393 705 2124 808 321 1621 336
is_linear=0
shrinkage=1


Tree=1
num_leaves=31
num_cat=0
split_feature=0 0 0 5 5 2 1 0 0 6 0 0 8 0 5 5 1 5 1 1 2 5 1 1 7 5 0 0 7 1
split_gain=4977.52 1265.28 912.352 709.789 313.771 227.792 184.063 164.218 137.877 137.114 134.305 116.065 96.8685 92.2292 89.7517 82.7173 71.7372 70.1326 69.1851 66.2375 60.1224 59.6747 56.9676 49.1108 39.3081 39.0754 36.9473 33.997 33.6503 32.975
threshold=0.60365185139909594 -0.44934248784970793 1.5474423042320262 -0.068946462881130308 -0.044328900693387532 -0.47039482964853818 -0.32599956385980072 0.095048994973159398 -0.87615402275954757 1.0867032334363989 2.2388481078152873 0.95224305025871026 0.32140961480133462 -0.79570182079315266 -0.02235862580706981 -0.091260212043461936 -0.56405479110431822 -0.09780403857242545 -0.16729607903012242 1.4197387692666614 -0.13154852697053887 -0.0889030059740165 -0.087944336615283253 1.1023317996073045 -1.35257243429063 -0.068946462881130308 -0.24577005904897045 0.89093238067922853 1.215246907271629 -0.88146176076367488
decision_type=2 2 2 2 2 2 2 2 2 2 2 2 2 2 2 2 2 2 2 2 2 2 2 2 2 2 2 2 2 2
left_child=1 5 4 6 16 8 -3 19 12 17 18 29 -1 -7 23 -10 -2 26 -4 20 -5 -18 -13 -9 -21 -15 -8 -23 -19 -6
right_child=2 3 10 7 11 13 9 14 15 -11 -12 22 -14 25 -16 -17 21 28 -20 24 -22 27 -24 -25 -26 -27 -28 -29 -30 -31
leaf_value=-0.043052338613895708 0.044457962734804277 0.010819674358922201 0.068261297824859568 -0.010515771366712794 -0.0011205494735247246 -0.053097961923229624 0.053596776216099533 0.0099892641659345555 0.023389834807387419 -0.014111966595930212 0.12366834327881107 0.033473620951963316 -0.010856585087480421 -0.016474652533997106 -0.0066737622300602336 -0.01485470567527144 0.12515133317087737 0.05101430761340673 0.10853476024695774 0.039463249010008736 -0.026364712510567913 0.056783600526602085 0.065349689608806535 0.043091629338450732 -0.0053743460218053469 -0.038693255672382638 0.096874988235925386 0.089400355101696083 -0.01568446367746219 0.021430692642466484
leaf_weight=800 166 421 278 1126 248 1388 73 659 175 68 394 512 330 238 1047 736 71 347 173 74 1277 147 193 135 144 1174 152 175 20 468
leaf_count=800 166 421 278 1126 248 1388 73 659 175 68 394 512 330 238 1047 736 71 347 173 74 1277 147 193 135 144 1174 152 175 20 468
internal_value=-2.89415e-10 -0.0160092 0.0588457 0.000301651 0.0402832 -0.0346852 0.0366525 -0.00850499 -0.0219816 0.0531306 0.102341 0.0277992 -0.03365 -0.0439453 0.00294018 -0.00750806 0.0720179 0.0608545 0.0837099 -0.0165441 -0.0189382 0.083659 0.0422 0.0156175 0.00984576 -0.0349482 0.0828336 0.0745101 0.0473795 0.0136196
internal_weight=13209 10384 2825 5543 1980 4841 1081 4462 2041 660 845 1421 1130 2800 1841 911 559 592 451 2621 2403 393 705 794 218 1412 225 322 367 716
internal_count=13209 10384 2825 5543 1980 4841 1081 4462 2041 660 845 1421 1130 2800 1841 911 559 592 451 2621 2403 393 705 794 218 1412 225 322 367 716
is_linear=0
shrinkage=0.05


Tree=2
num_leaves=31
num_cat=0
split_feature=0 0 5 0 5 0 1 6 5 7 6 7 6 6 7 5 5 5 0 0 7 7 6 7 6 7 1 1 6 7
split_gain=4495.85 1492.76 713.101 496.679 243.017 226.09 194.552 185.147 178.621 132.833 122.52 103.495 118.864 96.506 97.3306 95.9993 91.6192 90.0859 72.0268 67.8463 61.5239 60.4839 55.2704 52.4991 47.5713 45.9939 45.983 39.5046 38.8354 42.8513
threshold=0.89093238067922853 -0.36245726059553007 -0.068946462881130308 1.9696850783252366 -0.080590228149472601 0.33987155735392521 -0.80211001834883577 -0.56077360812627408 -0.038266165011487115 0.89613926094156138 1.0164982543925356 -1.0234926740127464 1.4190068009106882 1.0773425695638836 0.6667806401418287 0.0037046915878788992 -0.043223784190817183 -0.025528532848622606 -0.0085358407831813889 1.3908966031472854 -1.3924608900818876 -1.3924608900818876 1.0773425695638836 -1.35257243429063 1.4424084605919749 -1.4074190610036099 -0.56405479110431822 -0.56405479110431822 1.0773425695638836 0.90611137488937754
decision_type=2 2 2 2 2 2 2 2 2 2 2 2 2 2 2 2 2 2 2 2 2 2 2 2 2 2 2 2 2 2
left_child=1 4 6 8 13 16 -3 9 26 15 18 12 20 14 -1 -6 22 -7 25 -10 -9 24 23 -4 -18 -8 -2 -5 29 -23
right_child=3 2 5 27 7 17 10 11 19 -11 -12 -13 -14 -15 -16 -17 21 -19 -20 -21 -22 28 -24 -25 -26 -27 -28 -29 -30 -31
leaf_value=0.02073835406314806 0.055513165899701705 0.007564903150968247 0.062530677315468589 0.09353728958086116 0.0016929721822135993 0.028091971203606281 0.099793067896688306 0.012566423312637199 0.031959498680972802 -0.041937682374070091 0.010815780458964525 -0.053034249270956763 -0.055769430018641465 -0.036740525855863355 -0.01844536210116195 -0.025265899517413523 0.022276160133457401 0.0034489565355897409 0.080823928458768082 0.05958540737444256 -0.026700936520752391 -0.010754396743178605 -0.020951958624292402 0.0078482097490431054 -0.045263230127672999 0.040452413061271897 0.0907131752702144 0.12128922425497889 -0.033619148831057828 -0.028740918813562305
leaf_weight=357 131 288 48 207 496 593 37 128 600 762 127 1493 326 196 285 988 164 990 331 353 452 1475 158 513 31 278 318 337 320 427
leaf_count=357 131 288 48 207 496 593 37 128 600 762 127 1493 326 196 285 988 164 990 331 353 452 1475 158 513 31 278 318 337 320 427
internal_value=-3.21136e-11 -0.0121251 0.00560385 0.0701773 -0.0308144 -0.00272365 0.042642 -0.0352854 0.0544425 -0.0249686 0.0557108 -0.0449443 -0.0316128 -0.0060316 0.00334371 -0.0162554 -0.0104993 0.0126804 0.0645369 0.0421924 -0.018035 -0.0151606 0.00516995 0.0125269 0.0115391 0.0474226 0.0804432 0.110729 -0.0175037 -0.0147924
internal_weight=13209 11263 5780 1946 5483 4719 1061 4645 1402 2246 773 2399 906 838 642 1484 3136 1583 646 953 580 2417 719 561 195 315 449 544 2222 1902
internal_count=13209 11263 5780 1946 5483 4719 1061 4645 1402 2246 773 2399 906 838 642 1484 3136 1583 646 953 580 2417 719 561 195 315 449 544 2222 1902
is_linear=0
shrinkage=0.05


Tree=3
num_leaves=31
num_cat=0
split_feature=0 0 0 5 5 8 0 6 1 0 0 0 1 0 8 1 1 2 5 5 5 1 5 7 6 7 6 6 5 1
split_gain=4068.38 1037.86 744.096 612.157 261.253 211.488 170.551 153.305 145.088 111.457 95.7294 93.2646 86.7942 76.5872 63.4141 62.7929 59.5331 57.6034 55.0945 54.7685 53.0655 46.3437 44.1676 48.1045 54.6281 39.3736 43.3505 34.7178 33.4509 30.4044
threshold=0.60365185139909594 -0.54623172585753976 1.5474423042320262 -0.068946462881130308 -0.043223784190817183 0.28703966506377915 -0.028858949243360757 1.0867032334363989 -0.32599956385980072 2.2388481078152873 -0.85346776215283571 1.0359248934920329 1.1023317996073045 -0.24577005904897045 0.21417455353917306 -0.56405479110431822 -0.16729607903012242 -0.44783702390494767 -0.09780403857242545 -0.077140125120668562 -0.0073351623926580971 -0.16729607903012242 0.0056807420676434975 1.215246907271629 1.0726622376276256 0.64185035527228995 -0.68714257040522886 1.3581624857393384 -0.0053622886074932673 1.261035284436983
decision_type=2 2 2 2 2 2 2 2 2 2 2 2 2 2 2 2 2 2 2 2 2 2 2 2 2 2 2 2 2 2
left_child=1 5 4 7 15 10 14 8 25 16 -1 28 20 -10 29 -2 -4 -12 -15 -17 27 -13 23 24 -7 26 -3 -8 -6 -5
right_child=2 3 9 6 11 22 12 -9 13 -11 17 21 -14 18 -16 19 -18 -19 -20 -21 -22 -23 -24 -25 -26 -27 -28 -29 -30 -31
leaf_value=-0.047237335083826729 0.039211240422301619 0.063734019920229909 0.061178228370979332 -0.027191339432883873 0.024426471829954825 0.010513487705672574 0.0071546819311329576 -0.01809946056313954 0.029934363292899592 0.11190999297302236 -0.015220834485119192 0.030997641603769412 0.026089000437229466 0.088753630225791746 -0.0086536144434391418 0.10545799823985857 0.098536951983121443 -0.036335257505348065 0.050806030153491825 0.064194584859926004 -0.011904920949200461 0.062014929999834337 -0.024234653828366672 -0.04359369100850137 -0.042783875817602332 -0.0032300761179251979 0.013544743565112122 -0.020553982800136754 0.0041050735982516842 -0.0043795735787503743
leaf_weight=1767 171 61 278 1336 386 382 1029 142 254 394 452 419 291 152 1045 110 173 1132 258 299 936 169 405 61 55 189 146 127 426 164
leaf_count=1767 171 61 278 1336 386 382 1029 142 254 394 452 419 291 152 1045 110 173 1132 258 299 936 169 405 61 55 189 146 127 426 164
internal_value=-1.28929e-10 -0.0144735 0.0532009 -0.00130533 0.0364372 -0.0334487 -0.00910881 0.0306876 0.0372233 0.0924816 -0.039236 0.0247471 0.000503863 0.0515088 -0.0181096 0.0646546 0.0755087 -0.0303102 0.0648744 0.0752923 -0.00305506 0.0399125 -0.0119725 -0.00200035 0.00380558 0.0132698 0.0283348 0.00411056 0.0137652 -0.0246973
internal_weight=13209 10384 2825 6130 1980 4254 4928 1202 1060 845 3351 1400 2383 664 2545 580 451 1584 410 409 2092 588 903 498 437 396 207 1156 812 1500
internal_count=13209 10384 2825 6130 1980 4254 4928 1202 1060 845 3351 1400 2383 664 2545 580 451 1584 410 409 2092 588 903 498 437 396 207 1156 812 1500
is_linear=0
shrinkage=0.05


Tree=4
num_leaves=31
num_cat=0
split_feature=0 0 5 0 6 5 1 0 6 10 5 5 6 7 7 6 7 7 0 0 7 7 6 1 6 7 7 6 5 1
split_gain=3679.11 1222.94 593.289 404.745 210.727 188.506 168.27 168.041 152.855 154.353 150.322 128.93 89.3209 74.8295 74.4526 70.5979 65.0884 62.7019 58.6622 55.9099 54.7913 50.773 48.6328 44.6747 43.309 67.0599 59.5838 57.4346 43.2162 37.4958
threshold=0.89093238067922853 -0.39630285078308974 -0.049100690495745829 1.9696850783252366 1.0726622376276256 -0.074485129883133369 -0.64340653351915733 0.33987155735392521 -0.55141294425375909 -4025.8499999999999 -0.038266165011487115 -0.09780403857242545 1.0726622376276256 -1.3625445482384426 -0.34040286858744762 1.0633015737551104 -1.3775027191601652 -1.3924608900818876 0.36313547737423379 1.3076611330971966 1.215246907271629 -1.3625445482384426 1.4424084605919749 -0.96081350317851411 -0.55141294425375909 -0.19082115937022651 0.89613926094156138 0.97905559890247373 -0.00071318705326082956 -0.56405479110431822
decision_type=2 2 2 2 2 2 2 2 2 2 2 2 2 2 2 2 2 2 2 2 2 2 2 2 2 2 2 2 2 2
left_child=1 5 4 10 6 12 -3 17 9 -7 29 -8 13 -1 15 16 -10 22 21 -12 -15 -13 -4 -9 26 27 28 -26 -19 -2
right_child=3 2 7 -5 -6 8 11 23 14 -11 19 18 -14 20 -16 -17 -18 24 -20 -21 -22 -23 -24 -25 25 -27 -28 -29 -30 -31
leaf_value=0.064527718350291252 0.050619770765290353 0.0084403013647559311 0.022582303982798604 0.10009065258902197 -0.011490336460395045 0.00083680219208744739 0.075673598621781246 -0.0067535631347447646 0.020969351895258462 -0.031076826909555516 0.027382433504166234 0.067754699755460029 -0.034033845733159145 0.0032273223532731164 -0.056852991093192168 -0.045769121856869176 -0.029639468014108047 0.0076765275728868558 0.056602581458476686 0.051801389747952981 -0.034258840220565558 0.023381177053708197 -0.041774573368685591 0.013527806616376786 -0.0033892619101925921 -0.049383745243882435 -0.025457199392379722 -0.029907471444695462 -0.012876840046172018 0.082405720596969045
leaf_weight=43 131 459 182 544 299 498 254 375 71 1584 537 72 253 539 631 888 604 460 243 416 119 616 35 984 388 204 455 431 576 318
leaf_count=43 131 459 182 544 299 498 254 375 71 1584 537 72 253 539 631 888 604 460 243 416 119 616 35 984 388 204 455 431 576 318
internal_value=5.12355e-11 -0.0109686 0.00437154 0.0634837 0.0271205 -0.028664 0.0341428 -0.00643562 -0.0331477 -0.0234433 0.0492796 0.0440985 -0.00856724 0.00062399 -0.0423567 -0.0365044 -0.0243162 -0.0135849 0.035484 0.0380417 -0.00355209 0.0280249 0.0122022 0.0079314 -0.0158108 -0.0237336 -0.0103748 -0.0173445 -0.00375083 0.0731319
internal_weight=13209 11263 6033 1946 1943 5230 1644 4090 4276 2082 1402 1185 954 701 2194 1563 675 2731 931 953 658 688 217 1359 2514 1023 1491 819 1036 449
internal_count=13209 11263 6033 1946 1943 5230 1644 4090 4276 2082 1402 1185 954 701 2194 1563 675 2731 931 953 658 688 217 1359 2514 1023 1491 819 1036 449
is_linear=0
shrinkage=0.05


Tree=5
num_leaves=31
num_cat=0
split_feature=0 0 0 5 5 8 0 6 1 0 0 0 5 7 8 1 1 0 2 1 5 1 10 6 5 6 7 6 5 7
split_gain=3325.27 854.715 607.621 504.458 217.188 177.773 141.949 125.993 121.66 92.6802 83.7857 83.0306 73.7382 67.6288 54.5773 52.1516 52.0804 51.175 47.9849 44.706 49.0043 43.5157 41.3713 40.8582 50.9085 38.9819 34.9015 37.5915 32.8083 30.472
threshold=0.60365185139909594 -0.54623172585753976 1.5474423042320262 -0.068946462881130308 -0.048542511365009831 0.28703966506377915 0.022631510304974983 1.0867032334363989 -0.32599956385980072 2.2388481078152873 -0.85346776215283571 1.0359248934920329 -0.02235862580706981 -1.4074190610036099 0.20180883383968221 -0.16729607903012242 0.30881437545891272 -0.24577005904897045 -0.44783702390494767 -0.88146176076367488 -0.0889030059740165 -0.64340653351915733 -4025.1499999999992 1.0726622376276256 -0.053525181959576333 0.95097360728492886 0.64185035527228995 -0.68714257040522886 -0.0053622886074932673 -1.3924608900818876
decision_type=2 2 2 2 2 2 2 2 2 2 2 2 2 2 2 2 2 2 2 2 2 2 2 2 2 2 2 2 2 2
left_child=1 5 4 7 19 10 14 8 26 15 -1 28 21 -10 -5 -4 -13 -15 -12 -2 -21 -8 23 24 -7 -19 27 -3 -6 -16
right_child=2 3 9 6 11 22 12 -9 13 -11 18 16 -14 17 29 -17 -18 25 -20 20 -22 -23 -24 -25 -26 -27 -28 -29 -30 -31
leaf_value=-0.043096447401655281 0.034319859967731375 0.059045778236306107 0.054703573763316915 -0.023561208869354283 0.022887004632171914 0.026609983120797556 -0.0046595926361871843 -0.016320735227618312 0.085966055099117145 0.10130996214613547 -0.013488361662052939 0.030000506964692582 -0.0067491764631960093 0.022122553847913173 0.013842440421026121 0.089669627127792112 0.06648777353684189 0.060056348072472392 -0.032759512436507078 0.1042191092018038 0.060311712317235026 0.018779065810311132 -0.023085142464205101 -0.038188934331816256 -0.0084377158198586429 0.013737165275961161 -0.0036365875350951992 0.012309025136167058 0.0033206867196498369 -0.01156909237256059
leaf_weight=1767 119 61 278 1238 431 160 282 142 95 394 452 493 1234 229 129 173 122 286 1132 80 309 665 383 66 294 54 189 146 426 1380
leaf_count=1767 119 61 278 1238 431 160 282 142 95 394 452 493 1234 229 129 173 122 286 1132 80 309 665 383 66 294 54 189 146 426 1380
internal_value=-1.13734e-10 -0.013085 0.0480974 -0.00113508 0.0329488 -0.0303049 -0.00821892 0.0279075 0.0338324 0.0835936 -0.0356108 0.0232206 0.00130472 0.0469138 -0.0157803 0.0681163 0.0372386 0.0403937 -0.0272604 0.0611376 0.0693415 0.0117994 -0.0106148 -0.00142992 0.0039139 0.0526998 0.011898 0.0260817 0.0131609 -0.00939673
internal_weight=13209 10384 2825 6130 1980 4254 4928 1202 1060 845 3351 1472 2181 664 2747 451 615 569 1584 508 389 947 903 520 454 340 396 207 857 1509
internal_count=13209 10384 2825 6130 1980 4254 4928 1202 1060 845 3351 1472 2181 664 2747 451 615 569 1584 508 389 947 903 520 454 340 396 207 857 1509
is_linear=0
shrinkage=0.05


Tree=6
num_leaves=31
num_cat=0
split_feature=0 0 5 0 5 6 1 0 6 1 7 5 7 6 5 6 7 7 7 6 5 6 7 0 5 5 5 0 7 6
split_gain=3009.9 1003.1 489.915 329.909 177.184 150.092 143.659 141.693 139.047 127.36 104.555 83.9401 81.3933 92.8748 74.636 65.7476 73.4499 59.7373 47.3734 47.2385 46.9861 43.3544 45.0979 41.5622 40.5002 39.9589 37.1662 35.6513 33.4442 32.6265
threshold=0.89093238067922853 -0.36245726059553007 -0.056309121517071299 1.9696850783252366 -0.080590228149472601 1.0867032334363989 -0.72275827593399655 0.33987155735392521 -0.56077360812627408 -0.087944336615283253 0.89613926094156138 -0.093871835640447807 -1.0234926740127464 1.4190068009106882 0.0037046915878788992 1.0773425695638836 0.66179458316791873 -1.3924608900818876 -1.3924608900818876 1.4424084605919749 -0.010730736073885978 0.97905559890247373 0.89613926094156138 0.12863201269999339 -0.047270921835889552 -0.0060305173506343358 -0.078175644472835246 1.2736054849410563 0.76151572264606615 0.97437526696621546
decision_type=2 2 2 2 2 2 2 2 2 2 2 2 2 2 2 2 2 2 2 2 2 2 2 2 2 2 2 2 2 2
left_child=1 4 5 9 15 6 -3 17 10 24 14 -8 13 18 -6 16 -1 19 -10 -4 -9 22 25 -13 -2 -19 -11 -26 -5 -20
right_child=3 2 7 28 8 -7 11 20 12 26 -12 23 -14 -15 -16 -17 -18 21 29 -21 -22 -23 -24 -25 27 -27 -28 -29 -30 -31
leaf_value=0.019008987582988499 0.059092411363150847 0.0074694698462381137 0.023123664643059542 0.097979062936156436 0.0034376310741795501 -0.011044449989022168 0.066662040967494257 0.017761492565986973 0.013247733666503336 0.10078379582733876 -0.035173282675664157 0.023376061490845323 -0.044603846977818939 -0.046959879445312033 -0.020333053688551695 -0.02942703293817004 -0.014974094448081249 0.0020892718241754238 -0.001956531996964603 -0.039937468937465123 -0.00026486759315872213 -0.027012146764322315 -0.023421361259303622 0.04801635533346342 0.01848215446439817 -0.013612238580563932 0.059485165497914522 0.040136527000768009 0.070001362696647237 -0.030582262271108402
leaf_weight=352 129 354 196 398 496 206 300 704 128 62 762 364 1493 326 988 196 290 789 148 35 743 453 480 323 399 833 449 363 146 304
leaf_count=352 129 354 196 398 496 206 300 704 128 62 762 364 1493 326 988 196 290 789 148 35 743 453 480 323 399 833 449 363 146 304
internal_value=-6.5994e-11 -0.00992099 0.00461215 0.0574204 -0.0252414 0.0286915 0.0347957 -0.00418795 -0.0290591 0.0445965 -0.0201184 0.0445965 -0.0374295 -0.0256068 -0.0123881 -0.00407998 0.00365837 -0.0107806 -0.0136049 0.0135689 0.00850539 -0.0129821 -0.00995852 0.0349609 0.0331839 -0.00597445 0.064496 0.0287978 0.0904703 -0.0212092
internal_weight=13209 11263 5780 1946 5483 1547 1341 4233 4645 1402 2246 987 2399 906 1484 838 642 2786 580 231 1447 2555 2102 687 891 1622 511 762 544 452
internal_count=13209 11263 5780 1946 5483 1547 1341 4233 4645 1402 2246 987 2399 906 1484 838 642 2786 580 231 1447 2555 2102 687 891 1622 511 762 544 452
is_linear=0
shrinkage=0.05


Tree=7
num_leaves=31
num_cat=0
split_feature=11 5 11 6 11 1 7 3 6 10 7 11 6 5 11 1 6 7 1 6 7 7 6 7 6 7 6 6 7 7
split_gain=2259.38 574.311 471.577 250.133 243.662 209.67 192.192 187.913 133.306 130.464 113.949 109.968 102.649 92.1093 88.7741 71.9048 70.0954 101.195 66.7409 51.1639 56.4886 50.0246 47.665 73.6696 110.725 74.1094 47.1877 47.1005 59.8707 44.7365
threshold=27.621341923480085 -0.068946462881130308 47.534177997152355 1.0773425695638836 17.340101793666502 1.0000000180025095e-35 0.74157149475043738 1.4573420668864665 -0.56077360812627408 -4026.5499999999997 -1.0234926740127464 13.651355733490908 1.0118179224562771 -0.029701242256095581 64.218829967207014 1.1023317996073045 -0.69650323427774563 -1.4074190610036099 -0.16729607903012242 -0.91647883528185192 1.215246907271629 0.98588828647189619 0.9977769266475055 -0.83900856597817752 -0.55141294425375909 0.89613926094156138 1.1101048931176869 1.0773425695638836 -1.1531301553343387 -1.3924608900818876
decision_type=2 2 2 2 2 2 2 2 2 2 2 2 2 2 2 2 2 2 2 2 2 2 2 2 2 2 2 2 2 2
left_child=1 3 5 6 8 27 11 14 9 -3 12 29 -10 26 18 22 -13 -18 -4 20 -8 -11 23 -6 25 -25 -7 28 -2 -1
right_child=2 4 7 -5 15 13 19 -9 10 21 -12 16 -14 -15 -16 -17 17 -19 -20 -21 -22 -23 -24 24 -26 -27 -28 -29 -30 -31
leaf_value=0.056946208591590511 0.044383063471001211 0.0029906352463421166 0.047075579007659324 -0.024588387884527513 0.014321200584361272 0.059240337012909344 0.02024158688591424 -0.0063778871183665141 -0.0031309518514966439 -0.018260499392126258 -0.043731975495944375 0.065977391170069441 -0.036345119205489759 0.023866908302394102 0.093510787808705892 0.013050679078776814 0.079710288972339852 0.019478986865267094 0.08392160992677275 -0.027680152721750142 -0.022690391688583753 -0.035364349536849041 -0.02293244767527456 0.0049978331389955678 -0.035989637266135285 -0.019932696198542346 -0.0015843539214556051 -0.0061050955092569999 0.011973748950132573 0.0084777715310462333
leaf_weight=53 165 594 348 398 351 513 222 83 435 1330 1313 236 500 399 315 386 88 336 190 178 117 630 564 812 347 471 34 288 1045 468
leaf_count=53 165 594 348 398 351 513 222 83 435 1330 1313 236 500 399 315 386 88 336 190 178 117 630 564 812 347 471 34 288 1045 468
internal_value=-6.66669e-11 -0.0121264 0.0352635 0.0110885 -0.0184188 0.0237057 0.0194509 0.0654422 -0.0253528 -0.017537 -0.0342325 0.0305807 -0.0208925 0.0421346 0.0724306 -0.00705836 0.0441365 0.0319798 0.0600881 -0.00597333 0.00542436 -0.0237582 -0.0101083 -0.0064572 -0.0109316 -0.00415437 0.0554596 0.0120678 0.0163932 0.0134083
internal_weight=13209 9829 3380 2096 7733 2444 1698 936 4802 2554 2248 1181 935 946 853 2931 660 424 538 517 339 1960 2545 1981 1630 1283 547 1498 1210 521
internal_count=13209 9829 3380 2096 7733 2444 1698 936 4802 2554 2248 1181 935 946 853 2931 660 424 538 517 339 1960 2545 1981 1630 1283 547 1498 1210 521
is_linear=0
shrinkage=0.05


Tree=8
num_leaves=31
num_cat=0
split_feature=0 0 5 0 0 5 2 6 5 1 5 0 2 1 1 7 6 7 1 3 10 7 7 7 0 6 7 1 7 6
split_gain=2487.53 840.242 378.538 255.979 199.171 154.422 113.572 111.044 107.676 106.158 86.0827 75.9408 65.6016 45.8317 43.6602 41.8416 39.5442 39.0816 37.6009 36.7527 35.3903 34.4769 32.9235 32.0694 31.5124 29.9392 30.9439 29.8828 29.0383 26.0777
threshold=0.91222700724409367 -0.20583278777257144 -0.049100690495745829 1.9696850783252366 -0.70406403199983736 -0.074485129883133369 -0.74552222533714063 1.1007442292451721 -0.0078769569215614166 -0.96081350317851411 -0.0889030059740165 0.33987155735392521 -0.18164079969096375 -0.56405479110431822 -0.56405479110431822 -1.4074190610036099 -0.15358472967186307 -1.3775027191601652 -0.96081350317851411 -0.13047354321685464 -4456.8499999999995 -1.3775027191601652 -1.3924608900818876 0.96095800160235745 0.41567622676547272 -0.55141294425375909 0.60694795645493882 -0.56405479110431822 0.63187824132447734 0.97905559890247373
decision_type=2 2 2 2 2 2 2 2 2 2 2 2 2 2 2 2 2 2 2 2 2 2 2 2 2 2 2 2 2 2
left_child=1 4 7 8 6 14 -1 9 13 -3 -11 15 22 -2 -6 -4 28 -16 -13 -15 -18 -12 -7 -20 -23 26 -19 -5 -8 -17
right_child=3 2 11 27 5 12 16 -9 -10 10 21 18 -14 19 17 29 20 25 23 -21 -22 24 -24 -25 -26 -27 -28 -29 -30 -31
leaf_value=-0.011228180610298514 0.035279523041585818 0.003993012031324265 0.016180349015570306 0.067012047734345506 -0.0096830336662429971 0.01948236547295381 -0.0066386766804105331 -0.0096925562312089875 0.023245756365240365 0.061065390829274563 0.062795608266167452 -0.0068153304852964476 -0.025960330210094109 0.051410458928053737 0.060866783097386357 -0.0081831637270832862 -0.035008660129739265 0.052416141046625044 0.014388938694435957 0.078308209622965058 -0.052563476749236074 0.019703162376528766 -0.011953743227633026 -0.015576655253993744 0.043459721370174689 -0.0033452852891825481 0.012788657000913726 0.091148864195643428 -0.030428919281007962 -0.023777576207548976
leaf_weight=670 268 263 154 207 186 89 148 177 511 322 73 391 1184 383 50 1509 1051 72 910 190 395 479 1298 99 197 152 156 337 962 326
leaf_count=670 268 263 154 207 186 89 148 177 511 322 73 391 1184 383 50 1509 1051 72 910 190 395 479 1298 99 197 152 156 337 962 326
internal_value=4.62052e-11 -0.00888278 0.00670613 0.0530015 -0.0207938 -0.0119285 -0.029552 0.0275189 0.0413478 0.0324563 0.0394459 -0.00257334 -0.0173159 0.0523468 0.0105565 -0.00885275 -0.0343552 0.0193113 0.00634789 0.0603294 -0.0398041 0.0301515 -0.00993657 0.0114488 0.0266263 0.0138434 0.0253026 0.0819645 -0.0272569 -0.0109536
internal_weight=13209 11313 4900 1896 6413 3187 3226 1511 1352 1334 1071 3389 2571 841 616 1989 2556 430 1400 573 1446 749 1387 1009 676 380 228 544 1110 1835
internal_count=13209 11313 4900 1896 6413 3187 3226 1511 1352 1334 1071 3389 2571 841 616 1989 2556 430 1400 573 1446 749 1387 1009 676 380 228 544 1110 1835
is_linear=0
shrinkage=0.05


Tree=9
num_leaves=31
num_cat=0
split_feature=11 5 11 6 11 5 3 7 11 6 10 7 1 6 11 1 1 7 6 6 7 7 6 7 7 7 6 7 6 7
split_gain=1845.61 478.273 389.622 209.223 198.839 183.826 165.15 164.691 119.4 112.703 114.772 96.7461 90.5182 88.4526 87.5258 61.6183 55.0583 54.493 65.1623 53.3002 52.95 49.7475 44.5695 49.6959 40.6906 40.0757 39.9715 44.9526 37.6272 118.077
threshold=27.621341923480085 -0.068946462881130308 41.816720646387843 1.0726622376276256 17.340101793666502 -0.048542511365009831 0.98276967464229037 0.74157149475043738 64.218829967207014 -0.56077360812627408 -4025.1499999999992 -1.0234926740127464 -0.16729607903012242 1.0118179224562771 15.848742753171139 1.1023317996073045 -0.80211001834883577 -1.3625445482384426 -0.46248663746486596 1.0820229015001421 -0.53485909056983261 1.220232964245539 -0.91647883528185192 1.2052747933238164 1.0058325143675251 -1.35257243429063 1.3019985025042484 0.89613926094156138 -0.52333095263621254 -0.88388307874334149
decision_type=2 2 2 2 2 2 2 2 2 2 2 2 2 2 2 2 2 2 2 2 2 2 2 2 2 2 2 2 2 2
left_child=1 3 5 7 9 19 8 14 12 10 -3 13 -4 25 17 26 -7 -1 -19 21 -20 -2 23 -9 -12 -11 27 28 -6 -30
right_child=2 4 6 -5 15 16 -8 22 -10 11 24 -13 -14 -15 -16 -17 -18 18 20 -21 -22 -23 -24 -25 -26 -27 -28 -29 29 -31
leaf_value=0.054939874562461188 0.056556707142871303 0.0022680613824578701 0.037243458418438437 -0.021809166831009818 0.0047459911204157101 -0.001428876888178236 -0.0067766467650376616 0.02101725039753741 0.085157904187187605 0.023894698304602655 -0.016902573392030541 -0.039883779011268147 0.070649148784931518 -0.033183174659218641 0.045062747658596171 0.012175491941988954 0.017638264963000801 0.027311504547529931 0.0055538704969836849 0.0019217667761487795 -0.047565788131649217 -0.012434743876968113 -0.025742842390377264 -0.017949352615329008 -0.032504140079619846 -0.011126661906875899 -0.025935457810493452 -0.020129846641026884 0.0057779924977143845 -0.030350623805054457
leaf_weight=84 391 655 566 410 812 615 105 201 313 109 1278 1313 316 500 471 386 985 326 229 61 59 28 178 138 621 326 315 499 517 402
leaf_count=84 391 655 566 410 812 615 105 201 313 109 1278 1313 316 500 471 386 985 326 229 61 59 28 178 138 621 326 315 499 517 402
internal_value=-6.73894e-12 -0.01096 0.0318714 0.0102252 -0.0167021 0.0184508 0.0533445 0.0180153 0.0586271 -0.022966 -0.0157796 -0.0311307 0.0492119 -0.0188389 0.0284076 -0.00643968 0.0103093 0.017169 0.0120016 0.045589 -0.00532828 0.0519463 -0.00548311 0.00515474 -0.0220045 -0.00235119 -0.00926304 -0.00690797 -0.00309647 -0.0100258
internal_weight=13209 9829 3380 2096 7733 2080 1300 1686 1195 4802 2554 2248 882 935 1169 2931 1600 698 614 480 288 419 517 339 1899 435 2545 2230 1731 919
internal_count=13209 9829 3380 2096 7733 2080 1300 1686 1195 4802 2554 2248 882 935 1169 2931 1600 698 614 480 288 419 517 339 1899 435 2545 2230 1731 919
is_linear=0
shrinkage=0.05


Tree=10
num_leaves=31
num_cat=0
split_feature=0 0 5 0 6 8 5 7 0 7 6 7 0 0 7 6 7 8 1 5 2 7 6 5 7 6 6 1 7 6
split_gain=2049.09 613.128 349.761 292.647 145.204 118.486 118.459 102.941 93.0117 62.6594 102.724 76.5731 56.3992 54.9824 43.0105 41.388 33.1943 30.9754 29.998 44.1786 29.2548 29.1389 28.9951 36.6004 28.875 48.5194 31.055 28.4289 27.5258 35.6322
threshold=0.73291627381442304 -0.57629627261064753 -0.050719079482674866 1.9696850783252366 1.0773425695638836 0.28703966506377915 -0.038266165011487115 -1.3775027191601652 0.12863201269999339 0.84627869120249122 -0.68714257040522886 0.60694795645493882 1.3076611330971966 -0.92599027580531046 -1.3226560924471851 -0.91179850334559365 1.215246907271629 0.20771811775816354 -0.96081350317851411 -0.077140125120668562 -0.47039482964853818 0.65182246922010612 1.0726622376276256 -0.05697321366928338 -1.1132416995430776 -0.1348634019268331 0.91821128373112548 0.62622134511826943 0.90611137488937754 1.0867032334363989
decision_type=2 2 2 2 2 2 2 2 2 2 2 2 2 2 2 2 2 2 2 2 2 2 2 2 2 2 2 2 2 2
left_child=1 5 4 6 7 13 18 -3 17 10 11 -9 27 -1 -10 16 -11 -4 -2 -20 -15 22 23 -7 26 -26 -12 -8 29 -16
right_child=3 2 8 -5 -6 21 12 9 14 15 24 -13 -14 20 28 -17 -18 -19 19 -21 -22 -23 -24 -25 25 -27 -28 -29 -30 -31
leaf_value=-0.036391037268644219 0.028285491153458728 0.05883949755331163 -0.017944343529791192 0.074340011835824157 -0.012434647153239577 0.025085192153762495 0.013420214613467122 0.061008103553536079 0.024246650156717689 0.024846596660305902 0.030629816990866639 0.024650728173651978 0.038639076297001272 -0.012721641696186795 0.005222753118625737 -0.024053557672832387 -0.013203647277778251 -0.0074076181894571829 0.085083084603150685 0.048357466492433887 -0.027040412109561613 -0.017952411153237337 -0.030825859233736992 -0.0061083138774067052 0.013270055474779031 -0.034669974990122553 0.0027877261526056477 0.050041847205475755 -0.014962871450438873 -0.018717592596513791
leaf_weight=1395 118 176 1591 544 356 147 754 234 183 168 217 380 416 488 1100 117 87 1242 105 372 1326 416 65 261 142 84 186 57 301 181
leaf_count=1395 118 176 1591 544 356 147 754 234 183 168 217 380 416 488 1100 117 87 1242 105 372 1326 416 65 261 142 84 186 57 301 181
internal_value=9.49863e-12 -0.00919916 6.84117e-05 0.0421583 0.0167306 -0.0244529 0.0325497 0.0225279 -0.00771189 0.0185707 0.0239585 0.0385068 0.0236716 -0.0289278 0.00129771 0.000567862 0.0118647 -0.013325 0.0508578 0.0564417 -0.0231884 -0.00829992 0.000189371 0.00513052 0.00975717 -0.00454836 0.0177796 0.0159941 -0.00135694 0.00184008
internal_weight=13209 10843 6745 2366 2147 4098 1822 1791 4598 1615 1243 614 1227 3209 1765 372 255 2833 595 477 1814 889 473 408 629 226 403 811 1582 1281
internal_count=13209 10843 6745 2366 2147 4098 1822 1791 4598 1615 1243 614 1227 3209 1765 372 255 2833 595 477 1814 889 473 408 629 226 403 811 1582 1281
is_linear=0
shrinkage=0.05


Tree=11
num_leaves=31
num_cat=0
split_feature=0 0 5 0 0 8 5 8 1 5 5 5 6 7 1 7 6 7 6 7 6 6 10 5 2 7 6 6 10 7
split_gain=1857.56 622.554 288.18 198.02 152.347 125.426 93.085 92.3169 81.75 73.3494 67.8768 64.5628 63.5421 54.3044 45.0334 37.6805 35.3838 33.0122 44.0752 78.2879 31.8528 30.8996 29.6656 28.8203 28.6625 27.9077 33.6336 23.8887 23.2517 23.1177
threshold=0.89093238067922853 -0.20583278777257144 -0.058694188161035409 2.0510825411502447 -0.70406403199983736 0.22779259377197522 -0.0078769569215614166 0.29758840444859774 -0.80211001834883577 -0.093871835640447807 -0.010730736073885978 -0.054006899160810765 1.0445802460100804 -1.3126839784993689 -0.56405479110431822 -1.3924608900818876 1.1007442292451721 1.0058325143675251 -0.46248663746486596 -0.29552835582228376 -0.15358472967186307 0.85736696855977568 -4456.8499999999995 -0.077140125120668562 0.11491355190987336 -0.95368787637804397 -0.52333095263621254 1.0024572585837623 -4756.0999999999995 0.89613926094156138
decision_type=2 2 2 2 2 2 2 2 2 2 2 2 2 2 2 2 2 2 2 2 2 2 2 2 2 2 2 2 2 2
left_child=1 4 8 6 7 -6 14 20 -3 -10 12 15 13 -4 -2 -7 -11 18 24 21 -1 -20 28 -16 -15 27 29 -12 -22 -27
right_child=3 2 10 -5 5 11 -8 -9 9 16 25 -13 -14 17 23 -17 -18 -19 19 -21 22 -23 -24 -25 -26 26 -28 -29 -30 -31
leaf_value=-0.02356246352421466 0.029524960028635951 0.0048194336904030964 0.045042977031497733 0.072453545061103172 -0.018992552777548685 0.051369980742068347 0.019569449945974704 -0.0083182742677620335 0.057741773448446221 0.030521449229055371 0.011223796458782293 -0.0080078505878911684 -0.011636931715941559 0.011641984619380602 0.082207573239544515 0.0094933955305660789 -0.0049698304499924927 -0.0092799873481962392 0.023856435229871582 -0.042684834491420576 -0.041165092820163479 -0.0072753520258541761 -0.046298854721710088 0.049303005802788923 0.032775823171885515 -0.0023718278186837831 -0.026337880353152678 -0.015407572526038632 -0.025262563066643359 -0.017952466525957143
leaf_weight=1147 292 297 105 494 1796 60 549 619 255 528 288 818 421 476 76 513 81 236 177 91 337 145 400 535 242 740 298 119 723 351
leaf_count=1147 292 297 105 494 1796 60 549 619 255 528 288 818 421 476 76 513 81 236 177 91 337 145 400 535 242 740 298 119 723 351
internal_value=-3.38597e-11 -0.00779383 0.00572352 0.0451089 -0.0180167 -0.0102632 0.0358056 -0.0256764 0.027449 0.0352279 -0.00111392 0.00100783 0.00549232 0.0103914 0.0456768 0.0138784 0.0258009 0.00772977 0.0112791 -0.00173525 -0.0297979 0.00983746 -0.0346966 0.0533959 0.0187651 -0.00807695 -0.0114508 0.00343723 -0.0303184 -0.00738448
internal_weight=13209 11263 4850 1946 6413 3187 1452 3226 1161 864 3689 1391 1893 1472 903 573 609 1367 1131 413 2607 322 1460 611 718 1796 1389 407 1060 1091
internal_count=13209 11263 4850 1946 6413 3187 1452 3226 1161 864 3689 1391 1893 1472 903 573 609 1367 1131 413 2607 322 1460 611 718 1796 1389 407 1060 1091
is_linear=0
shrinkage=0.05


Tree=12
num_leaves=31
num_cat=0
split_feature=0 0 5 0 6 1 8 0 5 5 0 0 5 1 0 7 7 8 1 3 7 6 7 6 7 5 8 5 6 1
split_gain=1677.79 572.836 299.578 171.081 109.644 94.2399 91.8084 88.0433 81.5599 66.7005 64.6801 50.5562 37.9667 36.1664 34.4526 33.639 32.3372 30.8686 29.9943 28.1184 27.0602 37.9546 33.6775 31.1194 30.8125 29.3604 25.3593 25.2663 24.4785 23.8989
threshold=0.91222700724409367 -0.44934248784970793 -0.049100690495745829 2.0510825411502447 1.0726622376276256 -0.64340653351915733 0.25865478688721072 0.12863201269999339 -0.0078769569215614166 -0.09780403857242545 -0.82316690018507466 -0.87615402275954757 0.0023754710713361194 -0.48470304868947911 1.0000000180025095e-35 0.64683641224619637 -1.3924608900818876 0.32140961480133462 0.86427657236278699 -0.13047354321685464 -1.3924608900818876 -0.56077360812627408 -0.29552835582228376 1.2505148512054152 0.88616714699374877 0.013842981782893707 0.22894225608923763 -0.12013860744141373 0.97905559890247373 1.0000000180025095e-35
decision_type=2 2 2 2 2 2 2 2 2 2 2 2 2 2 2 2 2 2 2 2 2 2 2 2 2 2 2 2 2 2
left_child=1 6 4 8 5 -3 10 20 13 29 -1 17 18 -2 16 27 -11 -8 -9 -15 23 24 28 -4 25 -22 -12 -13 -23 -7
right_child=3 2 7 -5 -6 9 11 12 -10 14 26 15 -14 19 -16 -17 -18 -19 -20 -21 21 22 -24 -25 -26 -27 -28 -29 -30 -31
leaf_value=-0.033100901862728987 0.029718690685517458 0.0040950808245466012 0.025184472822261481 0.068830869346857074 -0.0084016108933503506 0.028662200815929673 -0.024703041665853104 0.00513553477367932 0.0190737137802372 0.0537703566354416 -0.022731426038237787 0.054012667798281955 -0.005863112524401898 0.043507584670509497 0.032613332736851332 -0.011547877128908191 0.0095912914946963551 -0.0060591792242777861 0.029246523615358757 0.066933043600417838 0.0061379604996018239 -0.0051422110087966438 -0.038988957454155135 -0.01783664342914967 -0.019557402183448799 -0.012280046588708921 -0.0093574143013700154 0.0060493045782578393 -0.024328486053661651 0.060854699171148247
leaf_weight=1454 295 481 101 494 331 81 647 1107 527 46 1178 30 826 389 537 363 416 338 146 191 462 298 205 72 380 407 507 324 376 200
leaf_count=1454 295 481 101 494 331 81 647 1107 527 46 1178 30 826 389 537 363 416 338 146 191 462 298 205 72 380 407 507 324 376 200
internal_value=5.87297e-11 -0.00729514 0.00243556 0.0435285 0.018001 0.0229637 -0.0203043 -0.0049989 0.0346131 0.0300542 -0.0253745 -0.0109532 0.00245892 0.0439722 0.0240008 -0.000852894 0.0139901 -0.0183055 0.00794496 0.0512218 -0.0117372 -0.0132832 -0.021243 0.00727973 -0.00768139 -0.00248819 -0.0187073 0.010114 -0.0158455 0.051575
internal_weight=13209 11313 6472 1896 2092 1761 4841 4380 1402 1280 3139 1702 2079 875 999 717 462 985 1253 580 2301 2128 879 173 1249 869 1685 354 674 281
internal_count=13209 11313 6472 1896 2092 1761 4841 4380 1402 1280 3139 1702 2079 875 999 717 462 985 1253 580 2301 2128 879 173 1249 869 1685 354 674 281
is_linear=0
shrinkage=0.05


Tree=13
num_leaves=31
num_cat=0
split_feature=0 0 0 5 5 6 8 1 1 0 0 7 0 5 7 6 7 7 8 5 7 6 7 5 6 7 6 6 5 6
split_gain=1522.88 403.183 287.346 243.142 102.953 91.1425 89.9507 74.4349 72.7912 57.7976 56.7014 52.6305 43.7038 41.998 41.9407 40.829 42.8382 40.6333 31.1535 30.1499 27.0443 28.313 26.5762 29.9591 30.9373 23.8314 33.0356 23.143 30.4711 22.7497
threshold=0.60365185139909594 -0.57629627261064753 1.3076611330971966 -0.056309121517071299 -0.030188404092655292 1.0867032334363989 0.28703966506377915 0.070759148214395107 -0.32599956385980072 2.5121860394308779 -0.028858949243360757 -1.3775027191601652 -1.0151073689756578 -0.0889030059740165 -1.3426003203428138 -0.55141294425375909 1.215246907271629 -0.92875759150850878 0.21417455353917306 -0.074485129883133369 0.60694795645493882 -0.87903617979179038 1.215246907271629 0.00042049753608348564 1.0118179224562771 0.64185035527228995 -0.69650323427774563 1.0867032334363989 0.002945346627593486 0.92757194760364048
decision_type=2 2 2 2 2 2 2 2 2 2 2 2 2 2 2 2 2 2 2 2 2 2 2 2 2 2 2 2 2 2
left_child=1 6 4 5 13 8 12 9 25 -4 18 -10 -1 -2 -12 16 20 29 -5 -14 -13 -22 23 24 -8 26 -3 28 -16 -17
right_child=2 3 7 10 -6 -7 22 -9 11 -11 14 15 19 -15 27 17 -18 -19 -20 -21 21 -23 -24 -25 -26 -27 -28 -29 -30 -31
leaf_value=-0.033529057559593005 0.063727029329995716 0.049678165152103514 0.034772107029036638 -0.017272857484286724 0.0088078608342002981 -0.011328166381821835 0.011375153735571075 0.068489339818545394 0.056909463607007639 0.069478907031895548 0.019455375672305927 0.050471534995016103 -0.0078213856714991238 0.028909726062709907 0.0039997017144460427 0.03233776574205928 -0.019901338650992043 -0.041195835948393156 -0.0056453275451222567 -0.023595794221418758 0.048835455906606214 0.016409300065927463 -0.033923079484108706 -0.014189773606816378 -0.024462433121715713 -0.0056240436410228021 0.0066442290065835607 -0.017999623190757843 -0.0096967740155227446 0.0010737798925734652
leaf_weight=1016 101 56 569 1372 971 280 344 424 136 152 221 183 363 608 1017 106 38 37 993 1830 97 220 83 389 73 264 219 242 676 129
leaf_count=1016 101 56 569 1372 971 280 344 424 136 152 221 183 363 608 1017 106 38 37 993 1830 97 220 83 389 73 264 219 242 676 129
internal_value=2.44503e-11 -0.00885512 0.0325492 -0.000900167 0.0193845 0.0148381 -0.0210574 0.0518652 0.0197719 0.0420889 -0.00704441 0.0281278 -0.0249564 0.0338696 -0.00117977 0.0232953 0.0312772 0.00750763 -0.0123908 -0.0209847 0.0351668 0.0263315 -0.00698329 -0.00420909 0.00510143 0.00510634 0.0154075 -0.00353655 -0.00146918 0.0151758
internal_weight=13209 10384 2825 6286 1680 1765 4098 1145 1485 721 4521 946 3209 709 2156 810 538 272 2365 2193 500 317 889 806 417 539 275 1935 1693 235
internal_count=13209 10384 2825 6286 1680 1765 4098 1145 1485 721 4521 946 3209 709 2156 810 538 272 2365 2193 500 317 889 806 417 539 275 1935 1693 235
is_linear=0
shrinkage=0.05


Tree=14
num_leaves=31
num_cat=0
split_feature=0 0 5 0 6 5 8 7 0 7 6 7 0 0 1 6 7 5 7 6 5 2 7 6 6 7 7 10 7 6
split_gain=1378.21 409.211 239.601 201.257 94.8724 87.2937 80.8428 69.1724 58.2144 49.5224 75.8434 58.1121 48.4801 43.9437 36.4598 36.2214 36.062 30.1122 31.8422 37.5681 27.8724 25.5457 25.1518 38.0184 29.3904 25.8951 24.5141 24.2846 23.961 35.5764
threshold=0.73291627381442304 -0.50592685313612451 -0.049100690495745829 1.5474423042320262 1.0773425695638836 -0.043223784190817183 0.27201624884754744 -1.4074190610036099 0.12030846569498432 0.84627869120249122 -0.68714257040522886 0.60694795645493882 -0.82316690018507466 2.5121860394308779 -0.16729607903012242 -0.91179850334559365 -1.1531301553343387 1.0000000180025095e-35 1.215246907271629 1.0633015737551104 0.0037046915878788992 -0.44783702390494767 -1.1132416995430776 -0.47184730133737923 0.91821128373112548 -1.2628234087602987 1.215246907271629 -4621.3499999999995 -1.3924608900818876 -0.56077360812627408
decision_type=2 2 2 2 2 2 2 2 2 2 2 2 2 2 2 2 2 2 2 2 2 2 2 2 2 2 2 2 2 2
left_child=1 6 4 5 7 -2 12 27 28 10 11 -9 -1 14 -5 26 -10 18 19 -8 -7 -14 24 -24 25 -12 -11 -3 -4 -30
right_child=3 2 8 13 -6 20 17 9 16 15 22 -13 21 -15 -16 -17 -18 -19 -20 -21 -22 -23 23 -25 -26 -27 -28 -29 29 -31
leaf_value=-0.029166586231095332 0.042754505460934927 0.06107508839398134 0.0060968757285811206 0.035482904125116212 -0.0098480277826331741 0.022614594452233166 0.0085497762773277999 0.053092171680704084 0.014398541355273371 0.0215799477723745 0.05690792548328133 0.021366435533900826 -0.0045292494335214643 0.069749170632994906 0.061828236733735713 -0.023070417061050345 -0.0029940718731414828 -0.016541816449991233 -0.029060261370614172 -0.027646389295391385 0.0062486613774234579 -0.020280480390128332 0.014478334303986949 -0.026277208249911529 0.0016531479996975832 0.018218550047216318 -0.012224499686750809 0.006054401304572821 -0.0072693401773975463 -0.019841088161546224
leaf_weight=1696 431 122 187 335 338 661 489 232 379 167 59 382 329 294 216 117 1395 598 88 84 429 1183 123 107 188 162 79 24 1350 965
leaf_count=1696 431 122 187 335 338 661 489 232 379 167 59 382 329 294 216 117 1395 598 88 84 429 1183 123 107 188 162 79 24 1350 965
internal_value=-2.1837e-11 -0.00754441 0.000585819 0.0345748 0.0144167 0.0237055 -0.0191491 0.0190713 -0.00620669 0.0160936 0.0208047 0.033354 -0.023363 0.0541396 0.0458107 -0.000168383 0.000721712 -0.00841205 -0.00105712 0.00324353 0.0161733 -0.0168531 0.00874638 -0.00448185 0.0161852 0.0285474 0.010724 0.0520306 -0.0111192 -0.0125098
internal_weight=13209 10843 6376 2366 2100 1521 4467 1762 4276 1616 1253 614 3208 845 551 363 1774 1259 661 573 1090 1512 639 230 409 221 246 146 2502 2315
internal_count=13209 10843 6376 2366 2100 1521 4467 1762 4276 1616 1253 614 3208 845 551 363 1774 1259 661 573 1090 1512 639 230 409 221 246 146 2502 2315
is_linear=0
shrinkage=0.05


Tree=15
num_leaves=31
num_cat=0
split_feature=0 0 0 5 5 1 2 1 6 10 0 1 1 6 7 7 6 7 5 1 5 0 7 6 5 1 10 7 6 7
split_gain=1249.71 340.893 254.668 189.037 122.852 69.5586 64.7739 63.4752 52.4635 54.0831 47.7255 44.3353 39.7283 39.2726 86.6497 62.6065 45.4028 37.974 33.3736 30.9499 34.5216 27.4345 26.1855 24.5726 23.8289 23.1463 22.5182 22.3618 22.2963 21.2998
threshold=0.33987155735392521 1.2736054849410563 -0.63710805451475017 -0.068946462881130308 -0.049100690495745829 -0.40535130627463994 -0.74552222533714063 0.070759148214395107 1.0164982543925356 -4622.3499999999995 2.5121860394308779 1.4990905116815005 0.62622134511826943 -0.55141294425375909 -0.19082115937022651 0.64683641224619637 1.0539409098825956 -0.84898067992599369 -0.069546021571615615 -0.56405479110431822 -0.0889030059740165 -0.12052299528274854 -1.35257243429063 -0.15358472967186307 -0.0046964226889498681 -1.040165245593353 -4026.5499999999997 0.97093011555017361 -0.1348634019268331 0.96095800160235745
decision_type=2 2 2 2 2 2 2 2 2 2 2 2 2 2 2 2 2 2 2 2 2 2 2 2 2 2 2 2 2 2
left_child=2 4 6 5 19 -4 26 10 9 -7 -3 13 25 15 16 -5 17 -15 -8 -2 -21 -11 -13 27 -17 -6 28 -20 -1 -27
right_child=1 7 3 11 12 8 18 -9 -10 21 -12 22 -14 14 -16 24 -18 -19 23 20 -22 -23 -24 -25 -26 29 -28 -29 -30 -31
leaf_value=0.010890326490722753 0.016652684599449415 0.031151667865070828 -0.001780016429256648 0.010962558278258953 -0.0050559040665670877 0.072377840966097451 -0.012154371146600867 0.061350187090957124 -0.0030894621039409468 0.016713199747123302 0.062517503550962403 0.030536034843170686 0.02808786326929277 0.0072964443271270928 -0.036811756078642059 -0.0028209439999952821 -0.017442485530736771 -0.016365897386288086 -0.014295388942207077 0.067214146809166542 0.032952072481972121 0.040094482521817555 -0.00013601824132056941 -0.030303353784119476 -0.014545482048258195 0.010775175958750298 -0.016216724254138237 -0.028956606005310956 -0.012776955643535879 -0.0092025809580366137
leaf_weight=240 210 600 418 501 420 67 553 443 149 362 152 107 212 510 351 810 834 254 649 92 366 192 199 1337 932 1146 348 434 170 151
leaf_count=240 210 600 418 501 420 67 553 443 149 362 152 107 212 510 351 810 834 254 649 92 366 192 199 1337 932 1146 348 434 170 151
internal_value=1.22853e-11 0.024236 -0.00975926 -0.00309871 0.0140667 0.0146408 -0.0199098 0.0463362 0.0235549 0.0299479 0.0374916 -0.00778402 0.00766714 -0.0091252 -0.0143169 -0.00461396 -0.00937596 -0.000570355 -0.0232364 0.0325467 0.0398344 0.0248165 0.0105892 -0.0257688 -0.00909377 0.00514577 -0.00686256 -0.0201707 0.00107706 0.00844932
internal_weight=13209 3792 9417 5686 2597 1188 3731 1195 770 621 752 4498 1929 4192 1949 2243 1598 764 2973 668 458 554 306 2420 1742 1717 758 1083 410 1297
internal_count=13209 3792 9417 5686 2597 1188 3731 1195 770 621 752 4498 1929 4192 1949 2243 1598 764 2973 668 458 554 306 2420 1742 1717 758 1083 410 1297
is_linear=0
shrinkage=0.05


Tree=16
num_leaves=31
num_cat=0
split_feature=0 0 5 0 5 1 5 6 7 7 5 6 5 7 6 1 6 7 7 6 7 6 7 7 1 7 7 6 7 7
split_gain=1136.85 393.95 187.182 116.42 103.424 71.3246 78.8815 66.4758 71.7808 65.1443 60.046 59.4457 58.3457 56.5527 44.6456 44.4574 41.5873 31.9918 30.7585 57.0645 37.8467 31.9087 25.6931 24.9616 24.6484 24.2479 23.1063 22.0448 43.591 22.4945
threshold=0.91222700724409367 -0.20583278777257144 -0.036757166872688887 1.9696850783252366 -0.074485129883133369 -0.80211001834883577 -0.091260212043461936 -0.56077360812627408 0.89613926094156138 -0.29552835582228376 0.029180326446176661 1.0633015737551104 -0.038266165011487115 -1.3775027191601652 1.0633015737551104 -0.087944336615283253 1.0633015737551104 -1.35257243429063 -1.0234926740127464 -0.46248663746486596 0.6667806401418287 1.0633015737551104 -0.29552835582228376 1.2052747933238164 0.94362831477762621 0.76151572264606615 -1.3775027191601652 -0.49056862908240922 -0.92875759150850878 0.61692007040275498
decision_type=2 2 2 2 2 2 2 2 2 2 2 2 2 2 2 2 2 2 2 2 2 2 2 2 2 2 2 2 2 2
left_child=1 4 5 12 14 -3 -7 8 10 11 -6 13 -2 -9 15 -1 17 -8 21 20 -20 -4 -21 27 -14 -5 -17 29 -29 -19
right_child=3 2 18 25 7 6 16 9 -10 -11 -12 -13 24 -15 -16 26 -18 23 19 22 -22 -23 -24 -25 -26 -27 -28 28 -30 -31
leaf_value=-0.0068824504600261491 0.043052469134730847 0.00044856024845501001 0.013193981486637722 0.061756630501326418 0.0040150499965135788 0.046154947521140639 0.047393708986540634 0.025249257781371954 -0.023448993279123038 -0.035877455296518583 -0.014643023080235219 -0.026020798122550218 0.01902168011350025 -0.013224330011025296 -0.018286971215129212 0.045919097321866838 -0.0034866745837859184 0.039586419875718926 0.011298887515868002 -0.013357627285032037 -0.0061382977139338157 -0.0088620121767039439 -0.037335559562346118 -0.018043892583607331 0.058233771659433844 0.037934045573658225 0.011158991624767016 0.016418464996074657 -0.039737445525825026 0.018231601960004989
leaf_weight=446 435 512 473 398 833 277 102 109 842 698 894 1065 875 772 283 54 213 191 414 365 1253 251 161 46 42 146 417 254 40 348
leaf_count=446 435 512 473 398 833 277 102 109 842 698 894 1065 875 772 283 54 213 191 414 365 1253 251 161 46 42 146 417 254 40 348
internal_value=-1.76511e-11 -0.00600505 0.00466913 0.0358308 -0.0141609 0.0165217 0.0221161 -0.0172074 -0.0114793 -0.0227729 -0.0056435 -0.0180725 0.0279716 -0.00846426 -0.000926546 0.00443114 0.0165393 0.0208874 -0.00338832 -0.0063384 -0.00180777 0.0055475 -0.0206969 0.0178116 0.0208177 0.0553631 0.0151442 0.0197916 0.00877821 0.0257989
internal_weight=13209 11313 4900 1896 6413 1983 1471 5213 2569 2644 1727 1946 1352 881 1200 917 1194 981 2917 2193 1667 724 526 879 917 544 471 833 294 539
internal_count=13209 11313 4900 1896 6413 1983 1471 5213 2569 2644 1727 1946 1352 881 1200 917 1194 981 2917 2193 1667 724 526 879 917 544 471 833 294 539
is_linear=0
shrinkage=0.05


Tree=17
num_leaves=31
num_cat=0
split_feature=0 0 0 5 5 8 0 6 7 5 10 7 6 7 7 6 7 6 5 7 0 7 7 5 6 6 7 6 7 10
split_gain=1030.46 278.791 213.254 160.368 104.408 59.5742 52.5195 49.1503 52.824 40.5718 40.0034 72.7569 42.8517 72.1035 64.897 36.6758 33.5152 52.4154 30.3212 28.7199 26.1114 25.5998 23.7899 24.5628 23.2727 23.0279 28.1634 22.3383 22.5178 22.0077
threshold=0.33987155735392521 1.2736054849410563 -0.67715035477543961 -0.068946462881130308 -0.031193326956296303 0.30021847474860525 2.5121860394308779 1.0913835653726556 -1.4074190610036099 -0.020332274185450101 -4756.0999999999995 -1.3924608900818876 -0.55141294425375909 -0.19082115937022651 0.63686429829838376 0.91821128373112548 0.84129263422858125 -0.69650323427774563 -0.0889030059740165 -1.1431580413865225 -1.0151073689756578 0.6019618994810324 0.94599983068063509 0.033129895483552906 -0.92115916721810864 1.0633015737551104 0.92605560278500632 0.91821128373112548 0.71664120988089886 -4622.3499999999995
decision_type=2 2 2 2 2 2 2 2 2 2 2 2 2 2 2 2 2 2 2 2 2 2 2 2 2 2 2 2 2 2
left_child=2 4 5 7 18 20 9 8 29 27 -5 -12 14 15 -13 19 17 21 -2 -14 -1 -10 23 -16 -24 26 -6 28 -3 -4
right_child=1 6 3 10 25 -7 -8 -9 16 -11 11 12 13 -15 22 -17 -18 -19 -20 -21 -22 -23 24 -25 -26 -27 -28 -29 -30 -31
leaf_value=-0.027861385027006299 0.045227850717344108 0.061394162834878474 0.061232728694381504 -0.02975815031275212 0.010702140152705967 -0.0046437049625263384 0.060343593513580408 -0.012808292313697345 0.052093568974142447 0.025313116278058184 0.017743881690564681 0.011660846332468871 0.018214242423718077 -0.033269063364152168 0.0016350460453215963 -0.014744018599334333 -0.0036476794579452694 0.0064512654628775777 0.021405229453404249 -0.0068666526612396993 -0.01800629033669195 0.022827913196275144 -0.0071268171451495865 -0.012730235824620679 -0.025442073939181572 -0.010810239760589155 -0.0071611639725605164 0.026187706787515287 0.034332251092092252 0.003002862147986889
leaf_weight=1102 157 236 86 191 1055 612 294 162 116 447 292 532 179 381 770 897 229 415 895 315 1723 210 383 485 317 211 279 104 114 20
leaf_count=1102 157 236 86 191 1055 612 294 162 116 447 292 532 179 381 770 897 229 415 895 315 1723 210 383 485 317 211 279 104 114 20
internal_value=2.68013e-12 0.0220076 -0.00886192 -0.00315763 0.012811 -0.0187867 0.0419936 0.0128674 0.016733 0.036006 -0.0073413 -0.00640049 -0.00805585 -0.0139975 -0.0038224 -0.00871893 0.0130708 0.0182375 0.0249605 0.00222136 -0.0218506 0.0332415 -0.00803575 -0.00391648 -0.015421 0.0045384 0.00696611 0.046534 0.0525797 0.050246
internal_weight=13209 3792 9417 5980 2597 3437 1195 1238 1076 901 4742 4551 4259 1772 2487 1391 970 741 1052 494 2825 326 1955 1255 700 1545 1334 454 350 106
internal_count=13209 3792 9417 5980 2597 3437 1195 1238 1076 901 4742 4551 4259 1772 2487 1391 970 741 1052 494 2825 326 1955 1255 700 1545 1334 454 350 106
is_linear=0
shrinkage=0.05


Tree=18
num_leaves=31
num_cat=0
split_feature=0 0 5 0 5 6 5 7 6 7 7 6 7 7 6 7 1 7 7 1 5 4 6 3 6 6 7 11 7 6
split_gain=935.205 276.824 160.163 135.005 78.553 63.7541 63.2808 60.1465 57.4724 63.4863 57.1521 52.0284 48.9821 46.4568 45.1803 66.6983 31.6414 29.3353 27.0051 24.0004 23.9537 23.2397 23.0415 22.9068 21.9301 19.7374 27.5007 20.661 19.6361 34.9624
threshold=0.73291627381442304 -0.29253421430424098 -0.035784621865387993 1.6062847926806851 -0.091260212043461936 1.0539409098825956 -0.043223784190817183 -1.35257243429063 -0.56077360812627408 0.63686429829838376 -0.24566778608320652 1.0633015737551104 -1.3625445482384426 1.2052747933238164 -0.68714257040522886 0.62190612737666118 -0.56405479110431822 1.5293684966277901 -1.4074190610036099 -0.087944336615283253 0.0037046915878788992 -1.0280830602119579 1.0118179224562771 0.16686659861696704 1.4424084605919749 1.0773425695638836 0.89613926094156138 24.804274186375586 -1.1132416995430776 -0.49056862908240922
decision_type=2 2 2 2 2 2 2 2 2 2 2 2 2 2 2 2 2 2 2 2 2 2 2 2 2 2 2 2 2 2
left_child=1 4 5 6 19 7 -2 -3 9 -6 11 12 -10 14 15 -9 -5 -11 24 -1 -8 -18 -21 -17 -4 26 27 -20 -16 -30
right_child=3 2 18 16 8 -7 20 13 10 17 -12 -13 -14 -15 28 23 21 -19 25 22 -22 -23 -24 -25 -26 -27 -28 -29 29 -31
leaf_value=-0.0066187851031435478 0.035922416456794413 0.045547098747509368 0.018444817693105305 0.033429822414464343 0.0069031118020417385 -0.0052773856699920184 0.019480930880245283 0.04486851187001141 0.023774822579209948 -0.012416800181688187 -0.033133524641705513 -0.023611315063470487 -0.011821079217909541 -0.016658692924816788 0.014099114930942916 0.011309646443784349 0.0035148331048813737 -0.038832382072468065 -0.0058431727616626112 0.020238008280575745 0.0045117739524320145 0.056164867357134357 -0.009192318394375237 0.048156172761936553 -0.031531134452670813 -0.017316329057733133 -0.014910365555565373 0.0054528868556880748 0.013555707183501237 -0.023563531530278972
leaf_weight=355 446 170 180 330 449 382 688 265 110 1978 683 1121 796 113 328 508 22 111 1126 240 437 443 92 46 25 363 516 632 131 123
leaf_count=355 446 170 180 330 449 382 688 265 110 1978 683 1121 796 113 328 508 22 111 1126 240 437 443 92 46 25 363 516 632 131 123
internal_value=8.22301e-12 -0.00621471 0.00257055 0.028481 -0.0134798 0.0131642 0.0199847 0.0173475 -0.015561 -0.0101542 -0.0206247 -0.0164098 -0.00749928 0.0141811 0.0166685 0.0242377 0.0452707 -0.0138204 -0.00513053 0.00241886 0.0136662 0.0536739 0.0120826 0.0143691 0.0123502 -0.00648948 -0.00476119 -0.00178225 0.00601717 -0.00441936
internal_weight=13209 10843 4908 2366 5935 2066 1571 1684 5248 2538 2710 2027 906 1514 1401 819 795 2089 2842 687 1125 465 332 554 205 2637 2274 1758 582 254
internal_count=13209 10843 4908 2366 5935 2066 1571 1684 5248 2538 2710 2027 906 1514 1401 819 795 2089 2842 687 1125 465 332 554 205 2637 2274 1758 582 254
is_linear=0
shrinkage=0.05


Tree=19
num_leaves=31
num_cat=0
split_feature=0 0 5 5 0 6 1 6 10 5 1 5 5 10 6 6 6 6 6 0 5 10 8 0 10 0 5 10 6 8
split_gain=848.044 292.759 132.423 96.1882 87.3271 71.0484 52.7508 52.3928 58.9365 47.8332 45.1017 40.7089 39.571 29.1308 28.3 28.1481 26.8482 26.0742 21.0602 21.0171 26.7937 20.2648 19.0117 18.2799 23.0259 15.993 15.8046 14.6843 16.3376 14.6086
threshold=0.91222700724409367 -0.12052299528274854 -0.056309121517071299 -0.053028184260683321 2.0510825411502447 1.3441214899305669 -0.96081350317851411 -0.56545394006253236 -4028.3499999999999 -0.0078769569215614166 -0.56405479110431822 -0.090251377484674697 -0.010730736073885978 -4456.8499999999995 1.0633015737551104 1.0445802460100804 1.0820229015001421 -0.73862622170406222 1.1381868847352321 -1.0038955249026646 -0.10032920865921123 -4620.0499999999993 0.18818582383853999 -0.71117974568550746 -4624.1499999999987 -0.67715035477543961 0.0089502545988572307 -3996.8999999999996 0.90417028792235221 0.19536690312576441
decision_type=2 2 2 2 2 2 2 2 2 2 2 2 2 2 2 2 2 2 2 2 2 2 2 2 2 2 2 2 2 2
left_child=1 3 6 5 9 10 -3 8 17 16 -1 -8 15 14 23 21 22 -5 -13 -12 -21 -4 27 -9 -25 -10 -6 28 -2 -22
right_child=4 2 12 7 26 -7 11 13 25 -11 19 18 -14 -15 -16 -17 -18 -19 -20 20 29 -23 -24 24 -26 -27 -28 -29 -30 -31
leaf_value=-0.010036114874956778 0.040865610146309989 -0.0012777388239693312 0.043969240228179843 0.043715745352563409 0.053359504187596031 -0.021485322386016081 0.042475803061586208 -0.01972957498940241 -0.018375090889865314 0.012676697773234305 -0.008565925012007156 0.022191021687523769 -0.0054682619538639673 -0.029475395772500301 -0.023349916126301169 -0.0071674007674351579 0.00181029643121081 0.0022475613988900038 -0.0068468656758187522 0.023393991551282904 -0.013982244763368122 0.0078120771721357412 0.054828344181067114 0.047700125265068248 -0.005986600716349523 -0.0095471877120488473 0.030575450295780567 0.019194903146941857 0.02068452056411102 0.0074705659364787003
leaf_weight=582 390 225 40 42 400 418 259 283 1047 527 186 518 1644 704 858 344 69 389 71 265 90 1242 99 21 408 1006 94 182 135 671
leaf_count=582 390 225 40 42 400 418 259 283 1047 527 186 518 1644 704 858 344 69 389 71 265 90 1242 99 21 408 1006 94 182 135 671
internal_value=-1.02494e-12 -0.0051865 0.00500311 -0.0115356 0.0309467 -0.00292106 0.0202447 -0.0155406 -0.0105205 0.024577 0.00140439 0.0259553 1.82292e-06 -0.0210243 -0.0172347 0.00553246 0.0317444 0.00628854 0.0186907 0.0068981 0.00970152 0.00894023 0.034307 -0.00986559 -0.00335858 -0.0140493 0.0490241 0.0314335 0.0356762 0.00493344
internal_weight=13209 11313 4343 6970 1896 2212 1073 4758 2484 1402 1794 848 3270 2274 1570 1626 875 431 589 1212 1026 1282 806 712 429 2053 494 707 525 761
internal_count=13209 11313 4343 6970 1896 2212 1073 4758 2484 1402 1794 848 3270 2274 1570 1626 875 431 589 1212 1026 1282 806 712 429 2053 494 707 525 761
is_linear=0
shrinkage=0.05


Tree=20
num_leaves=31
num_cat=0
split_feature=11 5 11 6 1 7 11 3 6 7 7 6 6 7 10 6 7 1 5 7 7 6 7 6 5 6 7 11 7 10
split_gain=644.936 185.312 132.053 113.325 84.5948 74.2408 59.9806 57.6233 49.387 86.2574 77.9654 45.2893 43.8987 40.4415 36.4783 35.133 53.5829 32.1651 31.9541 28.6673 28.1045 39.2904 59.6255 33.9476 31.1134 26.4002 43.9446 25.4966 23.5663 24.15
threshold=27.621341923480085 -0.056309121517071299 48.457474028703047 1.3300804941217936 1.0000000180025095e-35 0.89613926094156138 13.531579371164817 2.0304612554348256 -0.69650323427774563 -1.3924608900818876 0.60694795645493882 -0.15358472967186307 -0.97732315045320017 1.1653863375325588 -4023.0499999999997 1.3019985025042484 -1.3775027191601652 0.070759148214395107 -0.0046964226889498681 -1.0085345030910238 0.90611137488937754 -0.50460962489118255 -0.48001246385685259 0.90417028792235221 0.013842981782893707 0.91821128373112548 -1.4074190610036099 72.159093848646151 0.69669698198527008 -4045.9499999999994
decision_type=2 2 2 2 2 2 2 2 2 2 2 2 2 2 2 2 2 2 2 2 2 2 2 2 2 2 2 2 2 2
left_child=1 3 4 5 -2 8 11 17 10 -10 -1 14 13 -7 -3 16 -8 27 25 -13 21 24 23 -23 -18 28 -27 -4 29 -6
right_child=2 6 7 -5 18 12 15 -9 9 -11 -12 19 -14 -15 -16 -17 20 -19 -20 -21 -22 22 -24 -25 -26 26 -28 -29 -30 -31
leaf_value=0.048579642374588561 0.0056694262238225594 -0.0011878870421653252 0.026281340152742139 -0.019894990996362619 0.030381753402044673 0.034864443315095021 0.018951996027964491 -0.0074231091320850987 0.032707213830765046 0.00032027710505731067 0.012110757085961611 -0.014579496025117039 -0.026747230403897551 -0.0068445614200916801 -0.016206083951729691 -0.019924637048561396 0.0076220219134468525 0.053078302327839368 0.0047718038780225304 -0.030190765597856217 -0.016007536506638505 0.0080380315726498591 -0.027071358822286132 -0.01223651941999363 -0.0078381503319784936 0.044198960604337166 -0.0025145895252804418 0.052606983931135325 0.019958975269809054 0.055600019231000365
leaf_weight=214 1534 606 417 419 215 76 217 72 258 1012 465 504 202 247 1215 452 819 277 168 706 650 367 388 472 540 78 142 118 189 170
leaf_count=214 1534 606 417 419 215 76 217 72 258 1012 465 504 202 247 1215 452 819 277 168 706 650 367 388 472 540 78 142 118 189 170
internal_value=1.81513e-11 -0.00647884 0.0188404 0.0041515 0.0129589 0.00822404 -0.0109127 0.035447 0.0127194 0.00689967 0.0236046 -0.0161904 -0.00846448 0.00296932 -0.0112083 -0.00681633 -0.00510045 0.0392483 0.0245826 -0.0236882 -0.00671336 -0.00437724 -0.0108634 -0.00336791 0.00147891 0.0287743 0.0140475 0.0320877 0.0344187 0.0415171
internal_weight=13209 9829 3380 2893 2496 2474 6936 884 1949 1270 679 3031 525 323 1821 3905 3453 812 962 1210 3236 2586 1227 839 1359 794 220 535 574 385
internal_count=13209 9829 3380 2893 2496 2474 6936 884 1949 1270 679 3031 525 323 1821 3905 3453 812 962 1210 3236 2586 1227 839 1359 794 220 535 574 385
is_linear=0
shrinkage=0.05


Tree=21
num_leaves=31
num_cat=0
split_feature=11 5 11 5 6 7 11 3 6 10 1 1 2 6 7 11 5 6 7 7 1 7 6 6 7 6 10 5 7 6
split_gain=582.572 168.483 124.76 75.3024 73.7543 84.4005 60.5366 58.3306 49.1228 73.0254 44.1985 43.0633 40.788 39.7206 56.2645 35.4387 34.3563 28.8631 41.9678 33.554 28.0008 25.8819 25.0686 23.7177 25.5206 23.5489 20.9321 20.5751 20.2261 21.4831
threshold=27.167156379459151 -0.068946462881130308 41.816720646387843 -0.048542511365009831 1.0118179224562771 0.63686429829838376 13.100528378355312 0.98276967464229037 -0.69650323427774563 -4622.3499999999995 -0.16729607903012242 1.0000000180025095e-35 -0.44783702390494767 1.3019985025042484 -1.3426003203428138 72.159093848646151 -0.023391449352593626 -0.50460962489118255 -0.44511006503950135 0.94599983068063509 -0.96081350317851411 1.215246907271629 0.91821128373112548 1.0820229015001421 1.220232964245539 -0.87903617979179038 -4028.9499999999994 0.029180326446176661 0.98588828647189619 0.91821128373112548
decision_type=2 2 2 2 2 2 2 2 2 2 2 2 2 2 2 2 2 2 2 2 2 2 2 2 2 2 2 2 2 2
left_child=1 4 3 23 5 8 12 10 26 -10 15 -7 27 14 -8 -4 17 19 22 -16 -5 25 -19 24 -2 -13 -1 -3 29 -22
right_child=2 6 7 20 -6 11 13 -9 9 -11 -12 21 -14 -15 16 -17 -18 18 -20 -21 28 -23 -24 -25 -26 -27 -28 -29 -30 -31
leaf_value=0.050188221901956667 0.034767402250529558 -0.0047467624689001503 0.020908467988522351 -0.0043896643449807668 -0.0098511895862897509 -0.010928900033643543 0.015876613818145417 -0.0059230135572475515 0.052767688778256716 0.0061000391566307941 0.044994985274645072 0.041558475288329649 -0.021612237802956735 -0.018352124353286422 0.012880064237592899 0.053084933543295576 -0.0099963592832507317 0.01588667796162278 -0.027274608178428247 -0.0087217629989857007 0.015699856640238929 -0.020387289453389905 -0.0090493016677273049 -0.00086287848364848354 -0.013787569359330268 0.0078435655675645252 0.021718104353069454 -0.015467987762661485 -0.010279612666084272 -0.0012245095727433052
leaf_weight=173 405 896 631 525 527 432 320 105 101 493 465 90 1350 569 568 99 2160 165 197 263 799 43 259 65 29 122 103 894 116 245
leaf_count=173 405 896 631 525 527 432 320 105 101 493 465 90 1350 569 568 99 2160 165 197 263 799 43 259 65 29 122 103 894 116 245
internal_value=1.55522e-11 -0.00628498 0.0175435 0.0102436 0.00631672 0.0117891 -0.00972196 0.0298072 0.0221338 0.0140351 0.0329467 -0.00131115 -0.0150503 -0.00600477 -0.00421799 0.0252721 -0.00599824 -5.06283e-05 -0.00820542 0.00604338 0.0051912 0.0149824 0.000654558 0.0273044 0.0315229 0.0221565 0.0395635 -0.0101014 0.00952737 0.0117281
internal_weight=13209 9725 3484 2184 2084 1557 7641 1300 870 594 1195 687 3140 4501 3932 730 3612 1452 621 831 1685 255 424 499 434 212 276 1790 1160 1044
internal_count=13209 9725 3484 2184 2084 1557 7641 1300 870 594 1195 687 3140 4501 3932 730 3612 1452 621 831 1685 255 424 499 434 212 276 1790 1160 1044
is_linear=0
shrinkage=0.05


Tree=22
num_leaves=31
num_cat=0
split_feature=0 0 0 5 5 6 7 1 8 1 5 7 6 7 10 7 6 7 10 6 0 6 7 0 6 1 3 7 9 7
split_gain=639.23 174.281 140.619 104.105 70.4085 43.8999 41.886 38.9759 38.9018 31.9581 30.8087 29.1582 41.2566 27.6751 24.2059 48.2134 26.3096 43.8439 36.6036 23.3338 21.4134 20.6836 22.228 20.2219 19.5335 19.2481 18.6703 18.4195 17.5345 17.1092
threshold=0.33987155735392521 1.2736054849410563 -0.70406403199983736 -0.056309121517071299 -0.031193326956296303 1.0867032334363989 -1.4074190610036099 -0.56405479110431822 0.3098754885331419 -0.96081350317851411 -0.0889030059740165 0.84129263422858125 -0.69650323427774563 0.6019618994810324 -4756.0999999999995 -1.3924608900818876 -0.55141294425375909 -0.19082115937022651 -4023.7499999999995 0.91821128373112548 2.7130014573939945 -0.81819186462044213 0.64185035527228995 -1.0151073689756578 -0.91179850334559365 0.78492482994794777 -0.12081507946212304 -0.87391096479552888 81.500000000000014 1.5293684966277901
decision_type=2 2 2 2 2 2 2 2 2 2 2 2 2 2 2 2 2 2 2 2 2 2 2 2 2 2 2 2 2 2
left_child=2 4 8 5 9 6 -4 20 23 -2 -11 12 13 -8 -5 -16 18 19 -17 27 -3 22 -20 -1 -13 -6 -12 -18 -9 -24
right_child=1 7 3 14 25 -7 11 28 -10 10 26 24 -14 -15 15 16 17 -19 21 -21 -22 -23 29 -25 -26 -27 -28 -29 -30 -31
leaf_value=-0.022852399490748757 0.0028445472839006853 0.018333007470547603 0.038255227724624467 -0.025216465625007862 0.0018322922231404856 -0.0092494091373295159 0.043356594959256693 -0.0040125258355623201 -0.0025163006338311655 0.048492200872658389 0.01445009606497543 0.0041271965443417588 0.0043863625584333018 0.015905309113015128 0.015088456555949818 0.0068012277786853583 0.009122539989031302 -0.027454289236092062 0.029696523790777314 -0.013022959415699229 0.046489728208107407 -0.013299245427980947 -0.0027710416798712545 -0.014132080850232976 -0.02129930951383098 0.024950754040522348 0.03109260751507871 -0.011505476494891231 0.042396121782373286 -0.037542154846360559
leaf_weight=1142 215 433 129 171 1449 325 135 21 493 115 454 232 615 287 254 588 281 368 51 788 80 835 807 1591 112 96 268 176 661 37
leaf_count=1142 215 433 129 171 1449 325 135 21 493 115 454 232 615 287 254 588 281 368 51 788 80 835 807 1591 112 96 268 176 661 37
internal_value=2.67267e-11 0.0173335 -0.00697978 -0.00256928 0.0100622 0.0074204 0.0110083 0.0331355 -0.0154439 0.0200393 0.0244561 0.00846312 0.0126476 0.0246871 -0.00677752 -0.0060241 -0.00738828 -0.0122919 -0.00397606 -0.00781014 0.0227239 -0.0076391 -0.0023584 -0.0177759 -0.0041512 0.00326878 0.0206276 0.00117827 0.0409671 -0.00429537
internal_weight=13209 3792 9417 6191 2597 1835 1510 1195 3226 1052 837 1381 1037 422 4356 4185 3931 1613 2318 1245 513 1730 895 2733 344 1545 722 457 682 844
internal_count=13209 3792 9417 6191 2597 1835 1510 1195 3226 1052 837 1381 1037 422 4356 4185 3931 1613 2318 1245 513 1730 895 2733 344 1545 722 457 682 844
is_linear=0
shrinkage=0.05


Tree=23
num_leaves=31
num_cat=0
split_feature=0 0 5 0 5 0 5 1 5 8 8 1 1 7 10 5 7 10 7 10 5 3 10 7 10 7 10 7 10 10
split_gain=581.431 210.607 102.555 68.2097 58.3823 54.7608 41.9707 40.8986 39.0566 30.2613 29.4374 25.8958 21.6916 20.9615 19.0916 18.4509 17.7015 38.392 22.82 19.1241 16.5448 15.4166 15.1939 25.5409 18.1644 25.5163 15.1269 14.2632 19.304 13.6411
threshold=0.95224305025871026 -0.12052299528274854 -0.068946462881130308 -0.86864445038278881 -0.081687959510632083 2.2388481078152873 -0.01598941208953155 -0.96081350317851411 -0.043223784190817183 0.30370343935429495 0.22894225608923763 1.0000000180025095e-35 -0.64340653351915733 0.83630657725467505 -4670.4499999999989 0.077287271756934853 -1.3276421494210913 -4580.6499999999987 0.67675275408964131 -4041.2499999999995 0.0043677497866690769 -0.022018169446302412 -4756.0999999999995 -0.98859027519539511 -4179.7999999999984 0.89613926094156138 -4594.8999999999987 -0.95368787637804397 -4151.8999999999987 -4626.6499999999987
decision_type=2 2 2 2 2 2 2 2 2 2 2 2 2 2 2 2 2 2 2 2 2 2 2 2 2 2 2 2 2 2
left_child=1 3 7 9 11 8 12 -3 -2 -1 22 -5 -4 20 -9 -12 -14 -18 19 -19 26 -16 -6 -24 -25 -26 -10 29 -29 -8
right_child=5 2 6 4 10 -7 27 14 13 -11 15 -13 16 -15 21 -17 17 18 -20 -21 -22 -23 23 24 25 -27 -28 28 -30 -31
leaf_value=-0.019542212794830899 0.035452655155306885 -0.00027813199864924954 -0.001881982684625852 -0.0022840636555736963 -0.023441497653477101 0.042913623190919875 -0.010365010955490906 -0.0074345697060279135 0.011060265656262405 -0.0050679607211301728 -0.00018964678761415306 0.016765036088825448 0.0228432990939114 0.0051134094065022236 0.024305543340052384 -0.013927298740875158 -0.011694222554198911 0.012276074535515213 0.0033793374545214743 0.034051993656782555 0.010519822612927505 0.042502775404136633 0.00078665358723765955 -0.018352381903979392 9.3098298364145926e-05 -0.016276445066608605 0.031412153435064864 -0.019149929160876829 -0.0040482616884664714 0.0086207561575512067
leaf_weight=1828 382 168 562 365 254 394 132 36 121 450 1199 349 219 282 360 307 214 292 403 154 245 172 407 858 463 490 372 260 1137 334
leaf_count=1828 382 168 562 365 254 394 132 36 121 450 1199 349 219 282 360 307 214 292 403 154 245 172 407 858 463 490 372 260 1137 334
internal_value=-8.89607e-12 -0.00416138 0.00434579 -0.00958424 -0.00613777 0.0264442 0.000960948 0.0213942 0.0218159 -0.0166829 -0.00850069 0.00702705 0.00630853 0.0167088 0.0278043 -0.00299008 0.00989907 0.0072323 0.0120029 0.0197951 0.0211395 0.0301889 -0.0118579 -0.0105313 -0.0130749 -0.00832356 0.0264171 -0.0043321 -0.00685888 0.00324281
internal_weight=13209 11413 4443 6970 4692 1796 3707 736 1402 2278 3978 714 1844 1020 568 1506 1282 1063 849 446 738 532 2472 2218 1811 953 493 1863 1397 466
internal_count=13209 11413 4443 6970 4692 1796 3707 736 1402 2278 3978 714 1844 1020 568 1506 1282 1063 849 446 738 532 2472 2218 1811 953 493 1863 1397 466
is_linear=0
shrinkage=0.05


Tree=24
num_leaves=31
num_cat=0
split_feature=0 0 0 5 5 5 8 1 1 1 1 10 7 7 10 0 7 10 1 5 7 5 10 10 10 7 10 7 7 10
split_gain=527.254 136.531 119.32 90.3223 57.8192 42.4009 35.7689 32.5571 32.3576 30.528 25.8942 23.5224 45.4836 32.6218 28.9766 22.5574 19.0955 18.364 18.1343 18.6845 18.0037 16.1356 17.5958 15.8594 15.5466 15.4231 24.9692 24.5089 19.7106 14.4425
threshold=0.37663170185554157 1.3076611330971966 -0.67715035477543961 -0.092727663846127031 -0.050162002059118672 -0.025100304383226274 0.25865478688721072 -0.40535130627463994 0.070759148214395107 1.8164974813408572 0.62622134511826943 -4123.8499999999995 -1.0234926740127464 0.94599983068063509 -4742.4999999999991 2.7130014573939945 -1.3625445482384426 -4020.2499999999995 -0.56405479110431822 -0.0889030059740165 1.220232964245539 -0.00071318705326082956 -4633.7999999999984 -4629.8499999999995 -4625.8499999999995 -1.1331859274387064 -4179.7999999999984 -0.48001246385685259 0.63686429829838376 -4600.3499999999995
decision_type=2 2 2 2 2 2 2 2 2 2 2 2 2 2 2 2 2 2 2 2 2 2 2 2 2 2 2 2 2 2
left_child=2 4 6 7 18 9 -1 -4 15 11 25 12 14 -13 -5 -3 -11 29 -2 -20 21 22 -8 -9 -25 -6 27 -27 -28 -12
right_child=1 8 3 5 10 -7 20 23 -10 16 17 13 -14 -15 -16 -17 -18 -19 19 -21 -22 -23 -24 24 -26 26 28 -29 -30 -31
leaf_value=-0.017744089149458613 0.010306318579488941 0.019986530247578758 0.0014436401401583983 -0.021697047487832605 0.011703346500328241 -0.0082611153335815091 -0.017615611272464908 -0.0067837605382212347 0.041462783016748224 0.04069197543568033 0.0080778042682343072 0.010063935736986662 -0.015508698841587194 -0.0079969300892883659 0.0074096033209737518 0.043274886863276602 0.0083195266470758502 -0.0088104911578389313 0.04945519144764577 0.023424283132877158 -0.023654279526943961 -0.010706017196523886 0.005059542705276289 0.058720006234943868 0.024475753525017217 -0.0041614976472991675 0.016701941572267353 -0.037555206602465523 0.00028866682494313505 0.039558181361644532
leaf_weight=2076 193 595 240 100 407 2854 105 36 424 68 54 771 615 370 590 126 138 39 87 332 150 644 462 37 318 243 247 71 705 112
leaf_count=2076 193 595 240 100 407 2854 105 36 424 68 54 771 615 370 590 126 138 39 87 332 150 644 462 37 318 243 247 71 705 112
internal_value=1.83023e-11 0.0162121 -0.00615532 -0.00197806 0.00964104 -0.00403152 -0.0136141 0.0159401 0.030502 0.000520245 0.00529159 -0.00103657 -0.00562137 0.00420721 0.00319125 0.0240563 0.0190056 0.0220639 0.0229879 0.0288293 -0.00731444 -0.00529051 0.00086044 0.0248381 0.0280449 0.00323639 0.000514397 -0.0117123 0.00454715 0.0293176
internal_weight=13209 3635 9574 6137 2490 5506 3437 631 1145 2652 1878 2446 1305 1141 690 721 206 205 612 419 1361 1211 567 391 355 1673 1266 314 952 166
internal_count=13209 3635 9574 6137 2490 5506 3437 631 1145 2652 1878 2446 1305 1141 690 721 206 205 612 419 1361 1211 567 391 355 1673 1266 314 952 166
is_linear=0
shrinkage=0.05


Tree=25
num_leaves=31
num_cat=0
split_feature=0 0 0 5 5 6 1 8 5 1 1 9 5 0 4 2 0 10 0 0 6 8 0 6 10 3 0 10 6 11
split_gain=477.444 124.291 98.8867 88.9779 47.1954 45.6313 39.2803 31.5929 29.7182 29.6295 22.2736 18.8781 18.1806 19.1099 16.3729 16.0073 15.6674 15.4272 17.6223 15.2145 14.9068 14.11 18.7957 13.4517 12.9959 12.5426 12.5128 12.014 11.609 11.5198
threshold=0.52984273268906457 -0.63710805451475017 1.3076611330971966 -0.046179455268871038 -0.072066501369747085 1.0539409098825956 -0.64340653351915733 0.25865478688721072 -0.099191523914579624 -0.56405479110431822 0.62622134511826943 81.500000000000014 0.0017255038348865765 -0.052149126509741982 -0.93925451985395303 -0.29448969509715189 2.7130014573939945 -4621.3499999999995 -0.19015721186723919 -1.0151073689756578 1.0820229015001421 0.35326610500191852 -1.1552948057571795 0.92757194760364048 -4570.2499999999991 -0.16528641620327472 2.2388481078152873 -4625.8499999999995 -0.69650323427774563 30.756119783116205
decision_type=2 2 2 2 2 2 2 2 2 2 2 2 2 2 2 2 2 2 2 2 2 2 2 2 2 2 2 2 2 2
left_child=1 7 4 5 14 6 -3 19 27 16 20 -11 13 15 -2 -5 -4 -10 -19 -1 25 22 -9 24 -20 -6 -13 -8 -29 -12
right_child=2 3 9 12 10 -7 8 21 17 11 29 26 -14 -15 -16 -17 -18 18 23 -21 -22 -23 -24 -25 -26 -27 -28 28 -30 -31
leaf_value=-0.021983946335189453 -0.010089361872524023 -0.0017338652603235286 0.0156516225541443 0.0025147724409492695 0.0023345336446072905 -0.0069982503947084067 0.054962870883020133 -0.019230253781653068 0.028553889664524996 -0.011936891638906674 0.0075470883719077316 0.031903892673398784 -0.0091533835204708879 0.0022884698721394878 0.037507920218432411 -0.010530164187159709 0.039855815490591341 0.0011987185543946848 0.047383326405714105 -0.013280875732321038 -0.0077337527002479577 0.0035144723470859826 -0.0051598690406057524 -0.0079084579198589102 0.015306476471274484 0.012346061069068312 0.046323554836780814 0.032218883181895377 0.0095848245573939683 0.029806316211038544
leaf_weight=748 20 496 407 326 640 478 38 329 110 20 93 395 1825 1098 187 844 80 426 34 1528 192 274 852 58 443 612 243 174 84 155
leaf_count=748 20 496 407 326 640 478 38 329 110 20 93 395 1825 1098 187 844 80 426 34 1528 192 274 852 58 443 612 243 174 84 155
internal_value=1.51634e-11 -0.00520193 0.0173711 -0.000991684 0.0103734 0.00678314 0.0103191 -0.0124624 0.0146924 0.0289769 0.00761635 0.0358965 -0.00543851 -0.00244925 0.0329091 -0.00689542 0.0196277 0.0108167 0.00878644 -0.0161411 0.00523893 -0.0067079 -0.00907956 0.0148282 0.0175929 0.00722835 0.037396 0.0287155 0.0248497 0.0214591
internal_weight=13209 10165 3044 6434 1899 2341 1863 3731 1367 1145 1692 658 4093 2268 207 1170 487 1071 961 2276 1444 1455 1181 535 477 1252 638 296 258 248
internal_count=13209 10165 3044 6434 1899 2341 1863 3731 1367 1145 1692 658 4093 2268 207 1170 487 1071 961 2276 1444 1455 1181 535 477 1252 638 296 258 248
is_linear=0
shrinkage=0.05


Tree=26
num_leaves=31
num_cat=0
split_feature=0 0 5 0 5 1 7 6 7 1 10 7 6 10 7 6 1 7 6 6 6 7 10 8 6 7 10 6 10 0
split_gain=433.474 146.156 74.0935 73.2266 63.1412 33.7333 33.6406 34.7393 38.1736 31.0555 30.9151 57.5579 34.354 51.9063 51.011 26.8436 26.2815 25.0575 56.8631 24.0407 23.982 23.814 23.7573 23.3114 23.2513 24.8492 21.3668 21.104 21.025 20.136
threshold=0.12863201269999339 1.2420967896539563 -0.068350019043483076 -0.86864445038278881 -0.092727663846127031 -0.96081350317851411 -1.3276421494210913 0.87140796436854895 0.67675275408964131 0.070759148214395107 -4756.0999999999995 -1.3924608900818876 -0.55141294425375909 -4024.4499999999994 -0.14594664660506265 -0.69182290234148724 1.0000000180025095e-35 -0.48001246385685259 -0.24251103646075794 0.91821128373112548 -0.73862622170406222 -1.1331859274387064 -4602.2499999999991 0.32140961480133462 -0.82287219655669874 1.2052747933238164 -4028.3499999999999 1.0164982543925356 -4026.5499999999997 2.7130014573939945
decision_type=2 2 2 2 2 2 2 2 2 2 2 2 2 2 2 2 2 2 2 2 2 2 2 2 2 2 2 2 2 2
left_child=3 2 5 23 16 -2 22 8 15 29 -6 -12 13 20 19 28 -5 -17 -19 21 26 -14 -4 -1 25 -15 -13 -18 -8 -3
right_child=1 9 6 4 10 -7 7 -9 -10 -11 11 12 14 24 -16 17 27 18 -20 -21 -22 -23 -24 -25 -26 -27 -28 -29 -30 -31
leaf_value=-0.016607735056657164 0.0029499358335723469 0.017264789621581251 0.013444729305458085 0.0008143982608794227 -0.021293394923802243 0.031957611616601891 0.053567544913344214 -0.0093965010582933318 -0.0012186548048666245 0.037137849939008767 0.015807418747693421 0.047743309575563941 0.01470786647194061 0.0044968673424194885 -0.025898141583826334 0.01725403788087751 0.026558802505753001 0.0087615465799087393 -0.0369301444915838 -0.011238706386831512 0.0045203171733197703 -0.0065501429141905897 0.051376194841399485 -0.0024305668327502658 -0.012245509091882881 -0.011785623822395935 0.007346450653858483 -0.0076927469172342515 0.0183438169154044 0.039069647804671342
leaf_weight=1937 136 663 262 333 302 381 57 532 1184 456 317 67 212 642 451 363 269 327 86 1095 638 348 49 341 983 369 64 54 165 126
leaf_count=1937 136 663 262 333 302 381 57 532 1184 456 317 67 212 642 451 363 269 327 86 1095 638 348 49 341 983 369 64 54 165 126
internal_value=-5.11325e-13 0.0120141 0.00683441 -0.00682874 -0.00398986 0.024327 0.00384478 0.00205988 0.00485309 0.0267504 -0.00574231 -0.00483671 -0.00618076 -0.00251404 -0.0109914 0.0120564 0.0106709 0.00767042 -0.000752946 -0.00692916 0.00852137 0.00149753 0.0194211 -0.0144855 -0.00676993 -0.001446 0.0280074 0.0208325 0.0273877 0.0207469
internal_weight=13209 4787 3542 8422 6144 517 3025 2714 2182 1245 5488 5186 4869 2763 2106 998 656 776 413 1655 769 560 311 2278 1994 1011 131 323 222 789
internal_count=13209 4787 3542 8422 6144 517 3025 2714 2182 1245 5488 5186 4869 2763 2106 998 656 776 413 1655 769 560 311 2278 1994 1011 131 323 222 789
is_linear=0
shrinkage=0.05


Tree=27
num_leaves=31
num_cat=0
split_feature=0 0 5 5 6 7 5 1 5 7 6 7 6 7 6 7 7 6 7 7 6 10 11 6 7 6 7 7 6 6
split_gain=394.317 143.822 72.0805 50.2915 46.7047 41.1463 38.2211 35.1153 41.359 29.3975 41.1109 36.7277 28.6161 32.5074 27.9002 27.4959 23.5522 35.8489 44.1904 32.723 31.2426 20.1175 19.8193 19.7759 20.6562 29.7478 22.5568 18.9347 18.6944 18.5946
threshold=0.95224305025871026 -0.12052299528274854 -0.025100304383226274 -0.041793949377363533 1.3300804941217936 -1.3924608900818876 0.0037046915878788992 -0.96081350317851411 -0.0889030059740165 0.86622291909811999 0.90417028792235221 -1.4074190610036099 -0.47184730133737923 0.89613926094156138 -0.79010987300289548 -0.50992880570029386 1.2252190212194451 -0.47184730133737923 -0.29552835582228376 0.63686429829838376 0.91821128373112548 -4028.3499999999999 72.159093848646151 1.3300804941217936 -1.3775027191601652 0.91821128373112548 0.86622291909811999 0.70666909593308624 -0.79947053687541214 1.0539409098825956
decision_type=2 2 2 2 2 2 2 2 2 2 2 2 2 2 2 2 2 2 2 2 2 2 2 2 2 2 2 2 2 2
left_child=1 3 7 4 5 -1 9 -3 -9 10 -2 -12 13 21 -11 29 17 19 20 -7 -19 -5 -8 24 -10 26 -26 -23 -28 -14
right_child=6 2 -4 12 -6 16 22 8 23 14 11 -13 15 -15 -16 -17 -18 18 -20 -21 -22 27 -24 -25 25 -27 28 -29 -30 -31
leaf_value=0.024661345932778557 0.035393336940247093 -0.002116505018754029 -0.0027927214638463725 0.0062350982967903298 -0.015507369996904875 0.019973688938265299 0.0058303529492180588 0.031014568060086196 0.028043381292204635 0.01693434801438707 0.0415300686684687 0.0018808849254540476 -0.0052721487400719386 -0.01638294232626733 -0.033349414192343829 -0.024253284497477129 -0.016186488782407422 0.015038270504999271 -0.027638785703318944 0.00035791164179196737 -0.0082065752667563659 -0.011670641186904633 0.037020370274669777 -0.010908971519543315 0.016517354869704445 -0.0071679532866304116 0.0063146468369247579 0.0010504340532193803 -0.031039599244379337 -0.01744574487296811
leaf_weight=166 803 475 2212 389 556 337 418 275 166 200 82 203 608 730 32 645 233 217 194 576 433 764 58 106 808 225 131 474 45 648
leaf_count=166 803 475 2212 389 556 337 418 275 166 200 82 203 608 730 32 645 233 217 194 576 433 764 58 106 808 225 131 474 45 648
internal_value=-1.0904e-11 -0.00342698 0.00360313 -0.00790829 -0.00258648 0.000745619 0.0217773 0.0099445 0.013207 0.0261574 0.0296031 0.0132887 -0.0112978 -0.0076167 0.00999866 -0.015862 -0.00124936 0.000731487 -0.00669676 0.00759835 -0.000446373 -0.00368347 0.00963082 0.00990042 0.0115046 0.0092338 0.0129842 -0.00680005 -0.00323615 -0.0115528
internal_weight=13209 11413 4443 6970 2712 2156 1796 2231 1756 1320 1088 285 4258 2357 232 1901 1990 1757 844 913 650 1627 476 1481 1375 1209 984 1238 176 1256
internal_count=13209 11413 4443 6970 2712 2156 1796 2231 1756 1320 1088 285 4258 2357 232 1901 1990 1757 844 913 650 1627 476 1481 1375 1209 984 1238 176 1256
is_linear=0
shrinkage=0.05


Tree=28
num_leaves=31
num_cat=0
split_feature=0 0 0 5 5 5 6 10 6 1 1 6 7 6 7 7 7 6 6 7 1 3 1 7 7 6 6 7 6 7
split_gain=358.158 91.3217 80.547 62.9113 47.2342 30.9453 25.7782 42.094 27.6834 24.4673 23.7854 21.8628 38.2045 27.0809 24.5872 21.1518 19.7432 25.5596 19.1948 18.8731 18.6877 18.2883 17.4843 15.8763 14.8724 14.8666 14.6245 13.7371 18.0164 13.4231
threshold=0.37663170185554157 1.5109184749450633 -0.70406403199983736 -0.092727663846127031 -0.036757166872688887 -0.025100304383226274 -0.15358472967186307 -4028.3499999999999 -0.72926555783154723 1.8164974813408572 0.22946263304407347 -0.47184730133737923 -0.50992880570029386 0.91821128373112548 0.94599983068063509 0.63686429829838376 -1.0883114146735424 0.97437526696621546 1.0164982543925356 0.86622291909811999 0.78492482994794777 -0.015888517130006091 -0.56405479110431822 -1.3625445482384426 1.6141314651842151 -0.94456082689939691 0.92757194760364048 0.92605560278500632 0.9977769266475055 0.90611137488937754
decision_type=2 2 2 2 2 2 2 2 2 2 2 2 2 2 2 2 2 2 2 2 2 2 2 2 2 2 2 2 2 2
left_child=2 4 6 10 21 9 7 8 15 11 -4 14 13 -13 -5 -1 17 -8 -12 26 27 22 -2 -11 -9 -16 -3 28 -6 -7
right_child=1 19 3 5 20 29 16 24 -10 23 18 12 -14 -15 25 -17 -18 -19 -20 -21 -22 -23 -24 -25 -26 -27 -28 -29 -30 -31
leaf_value=0.058315485698539164 0.00040599841449875387 0.0347207017378202 0.0047486708497275973 0.0089649378885201924 0.0075985120378265327 -0.0054856627362021059 0.019486565589904789 -0.0098257638059800496 0.0011029295224102159 0.035243597190600599 0.030073583957824959 0.01389488689917124 -0.021745248410919602 -0.0052746860558770666 0.00095409161722157854 0.0036125346203334631 -0.020385862480919018 -0.012632176693674736 -0.004714334559927617 0.012906700583006881 0.023939216928133236 0.029520634145913077 0.018256876033541602 0.0067142878961912195 -0.031957259397079919 -0.019784852617971516 0.017436333475812416 -0.0068149878306934244 -0.0072471259919689064 -0.014329565164400489
leaf_weight=43 184 555 381 791 1100 2431 70 1208 268 74 228 236 282 840 237 30 988 538 48 183 110 245 539 143 81 136 157 311 251 521
leaf_count=43 184 555 381 791 1100 2431 70 1208 268 74 228 236 282 840 237 30 988 538 48 183 110 245 539 143 81 136 157 311 251 521
internal_value=2.76906e-11 0.0133618 -0.00507315 -0.0018038 0.00883245 -0.00349503 -0.0115065 -0.00708376 0.0085382 0.000332644 0.0128459 -0.00105355 -0.00536355 -0.00107021 0.00397478 0.0358348 -0.0160234 -0.0089343 0.0240235 0.0272284 0.00398035 0.0177146 0.0137139 0.0164432 -0.0112165 -0.00660756 0.0309094 0.00265937 0.00484037 -0.00704653
internal_weight=13209 3635 9574 6348 2740 5691 3226 1630 341 2739 657 2522 1358 1076 1164 73 1596 608 276 895 1772 968 723 217 1289 373 712 1662 1351 2952
internal_count=13209 3635 9574 6348 2740 5691 3226 1630 341 2739 657 2522 1358 1076 1164 73 1596 608 276 895 1772 968 723 217 1289 373 712 1662 1351 2952
is_linear=0
shrinkage=0.05


Tree=29
num_leaves=31
num_cat=0
split_feature=0 0 5 0 6 7 5 7 6 7 7 6 6 8 7 10 10 6 1 7 6 7 6 7 6 7 6 5 7 5
split_gain=326.672 101.522 68.4228 46.3491 43.495 41.4282 27.1743 25.429 34.1119 57.8776 38.4914 27.2095 25.8621 24.8469 24.3017 23.8196 21.9002 20.4229 19.4103 18.7053 30.1647 42.3004 18.7645 16.9641 17.3492 22.087 39.4726 16.2435 16.0436 16.4018
threshold=0.76190427347855472 -0.57629627261064753 -0.025100304383226274 1.9696850783252366 1.0726622376276256 -1.3625445482384426 0.0043677497866690769 1.215246907271629 -0.55141294425375909 -0.19082115937022651 0.63686429829838376 -0.91647883528185192 -0.69650323427774563 0.25865478688721072 0.78145995054169493 -4030.2499999999995 -4088.0499999999997 0.90417028792235221 0.86427657236278699 0.86622291909811999 0.90417028792235221 -1.4074190610036099 -0.79010987300289548 0.89613926094156138 1.0633015737551104 -0.84898067992599369 -0.46248663746486596 -0.072066501369747085 1.220232964245539 -0.00071318705326082956
decision_type=2 2 2 2 2 2 2 2 2 2 2 2 2 2 2 2 2 2 2 2 2 2 2 2 2 2 2 2 2 2
left_child=1 13 4 6 5 -3 19 8 10 17 12 18 15 -1 -13 -7 -14 -10 -12 20 27 -22 -21 24 25 -4 -27 -2 29 -15
right_child=3 2 23 -5 -6 7 -8 -9 9 -11 11 14 16 28 -16 -17 -18 -19 -20 22 21 -23 -24 -25 -26 26 -28 -29 -30 -31
leaf_value=-0.012848341461644989 0.04412701194088689 0.027171531337831591 0.007756899879867803 0.030009513804602379 -0.0061575824261335598 0.045888676418043263 0.0030010259060473591 -0.01035831044421525 0.013194333927429806 -0.027375116366211601 0.014734537430637169 0.0079136465829776625 0.041267449103973133 0.0024855695694999736 -0.011641392687497133 0.019586543221093031 0.0024238894880830274 -0.0038787477742217458 0.06474499001744248 0.011379596101703929 0.0376395689116584 -0.0047030893145858692 -0.024020965031915063 -0.012700830849502685 -0.012287871930917463 -0.00035712115220085902 -0.019137488544071702 0.022642042203807791 -0.019929784508068354 -0.0083487996180760162
leaf_weight=2541 103 248 494 544 713 144 469 223 393 164 255 384 44 675 271 214 207 316 21 201 81 217 46 600 454 1349 353 603 158 724
leaf_count=2541 103 248 494 544 713 144 469 223 393 164 255 384 44 675 271 214 207 316 21 201 81 217 46 600 454 1349 353 603 158 724
internal_value=3.48692e-12 -0.0035762 0.000149241 0.0172886 0.00490031 0.00763411 0.0132653 0.005796 0.00728891 -0.000606907 0.0117649 0.00537162 0.0215386 -0.00980071 -0.000177064 0.0301662 0.00923312 0.00558489 0.0185397 0.0171134 0.0201459 0.00680616 0.00478678 -0.0051091 -0.00339022 -0.00155072 -0.00425223 0.0257765 -0.00482702 -0.00312135
internal_weight=13209 10945 6847 2264 3597 2884 1720 2636 2413 873 1540 931 609 4098 655 358 251 709 276 1251 1004 298 247 3250 2650 2196 1702 706 1557 1399
internal_count=13209 10945 6847 2264 3597 2884 1720 2636 2413 873 1540 931 609 4098 655 358 251 709 276 1251 1004 298 247 3250 2650 2196 1702 706 1557 1399
is_linear=0
shrinkage=0.05


Tree=30
num_leaves=31
num_cat=0
split_feature=11 5 6 7 6 7 7 6 6 7 11 6 6 10 5 7 6 10 7 6 1 7 7 6 7 5 6 7 7 5
split_gain=252.641 93.106 93.6469 63.5314 46.5955 97.8946 81.8801 69.2598 46.0397 44.0387 32.6199 30.8586 30.0495 35.546 26.7391 26.5813 29.3107 24.3197 24.155 32.5731 28.2271 25.8899 19.6625 28.4493 46.1508 23.0307 22.8426 19.6205 17.8104 17.7505
threshold=32.094340694524817 -0.018145663419675866 1.3300804941217936 -1.3775027191601652 -0.47184730133737923 0.63686429829838376 -0.48001246385685259 0.90417028792235221 1.0820229015001421 0.93602771673282248 50.569960480023106 -0.97732315045320017 -0.69650323427774563 -4028.9499999999994 -0.0046964226889498681 0.6019618994810324 -0.82287219655669874 -4098.7499999999991 1.215246907271629 -0.88839684366430538 1.0000000180025095e-35 0.97093011555017361 0.90611137488937754 -0.47184730133737923 -0.95368787637804397 0.029180326446176661 1.0024572585837623 1.2002887363499066 -1.4074190610036099 -0.13579231642544873
decision_type=2 2 2 2 2 2 2 2 2 2 2 2 2 2 2 2 2 2 2 2 2 2 2 2 2 2 2 2 2 2
left_child=1 2 3 -1 5 12 7 -6 9 10 14 27 13 -5 -2 -15 -17 -14 19 20 29 -21 23 25 26 -3 -25 -11 -10 -7
right_child=8 22 -4 4 6 18 -8 -9 28 11 -12 -13 17 15 -16 16 -18 -19 -20 21 -22 -23 -24 24 -26 -27 -28 -29 -30 -31
leaf_value=0.021129811439739292 0.021051035361939266 0.0033124203814831801 -0.013838141519153588 0.04114562355824708 0.016050980327141948 -0.033912856281838481 -0.022290265190525349 -0.0070882889882023974 0.020496641993843791 0.030021400298989778 0.030098123546650882 -0.011695941267575633 0.035042377911987853 0.033476595726522916 0.0049677035648029487 0.030062647358599034 -0.011609319515693455 0.0011840698481851346 -0.010932366388525901 0.00087670943998889399 0.031243736631896658 -0.021630032817997479 -0.015309249771365791 0.0032342191192972721 -0.018898079448023831 -0.0073248910207763295 -0.01311011252157712 -0.00044943101797252893 -0.010507898704128583 0.0085179350248376709
leaf_weight=468 766 862 911 242 527 27 473 837 58 112 587 201 66 123 390 66 117 270 436 775 150 153 857 542 985 1242 353 100 230 283
leaf_count=468 766 862 911 242 527 27 473 837 58 112 587 201 66 123 390 66 117 270 436 775 150 153 857 542 985 1242 353 100 230 283
internal_value=1.73062e-12 -0.00329481 0.000908696 0.0035886 0.00178238 0.00595208 -0.00436436 0.00185188 0.0145125 0.0170207 0.0204992 0.00234036 0.0196077 0.0268261 0.015625 0.0155015 0.00341991 0.00783481 -0.000666101 0.00255875 0.013438 -0.00283399 -0.0084387 -0.00696078 -0.0114306 -0.00296683 -0.0032122 0.0156484 -0.00426393 0.00482235
internal_weight=13209 10765 5924 5013 4545 2708 1837 1364 2444 2156 1743 413 884 548 1156 306 183 336 1824 1388 460 928 4841 3984 1880 2104 895 212 288 310
internal_count=13209 10765 5924 5013 4545 2708 1837 1364 2444 2156 1743 413 884 548 1156 306 183 336 1824 1388 460 928 4841 3984 1880 2104 895 212 288 310
is_linear=0
shrinkage=0.05


Tree=31
num_leaves=31
num_cat=0
split_feature=0 0 5 0 5 6 7 7 1 6 7 1 6 7 6 2 7 7 6 7 6 7 6 7 7 5 6 7 6 8
split_gain=271.548 90.7903 50.3934 48.586 38.5271 29.7938 34.2191 25.9334 25.1341 24.89 26.7498 22.9319 21.0616 20.2593 17.2013 16.1339 15.9528 15.7014 33.5055 22.4033 16.2036 20.2966 14.6791 21.4626 20.6815 17.9032 14.791 17.9076 14.0418 13.4162
threshold=0.12863201269999339 1.2420967896539563 -0.068350019043483076 -0.87615402275954757 -0.046179455268871038 1.0164982543925356 -1.3126839784993689 -1.3276421494210913 -0.96081350317851411 0.87140796436854895 0.67675275408964131 -0.56405479110431822 -0.69182290234148724 -1.1980046680995027 0.91821128373112548 -0.8132557103260929 0.61692007040275498 0.84129263422858125 -0.71522456202277562 0.60694795645493882 -0.97732315045320017 1.1653863375325588 -0.46248663746486596 0.88616714699374877 -0.29552835582228376 0.054293866668668554 1.0633015737551104 -1.35257243429063 -0.46248663746486596 0.1824882915946788
decision_type=2 2 2 2 2 2 2 2 2 2 2 2 2 2 2 2 2 2 2 2 2 2 2 2 2 2 2 2 2 2
left_child=3 2 8 15 5 6 -5 14 -2 10 12 -3 16 -14 -4 -1 -9 18 19 -8 21 -19 23 25 26 -6 27 -24 -12 -17
right_child=1 11 7 4 22 -7 17 9 -10 -11 28 -13 13 -15 -16 29 -18 20 -20 -21 -22 -23 24 -25 -26 -27 -28 -29 -30 -31
leaf_value=-0.0029931486675520147 0.0014004551534205403 0.013344400766684084 0.042290231580328609 0.025225494985412281 0.0038524466475981511 -0.0070968688034740426 0.034710926942898367 0.035283820776103605 0.026439316048020411 -0.0083034192101637799 -0.0005248056878595801 0.027042919221825508 0.027152750484303254 0.0028315589343279033 0.011246934138575446 0.025916008570874557 0.0082914530290100659 0.029557951291402179 -0.00099792818556399291 0.0095023351434746581 -0.016025851407229265 -0.0043598305661446202 0.01607358297510704 -0.010929359857392906 -0.020154017425835013 -0.0077688902583504908 -0.012106417680471694 -0.0053068145150493573 -0.038399214200675491 -0.014283841717563318
leaf_weight=426 136 538 54 194 979 655 128 124 381 532 1159 707 98 678 257 21 98 57 630 283 190 195 118 659 367 501 665 576 25 1778
leaf_count=426 136 538 54 194 979 655 128 124 381 532 1159 707 98 678 257 21 98 57 630 283 190 195 118 659 367 501 665 576 25 1778
internal_value=-3.37427e-12 0.00950898 0.00542655 -0.00540483 -0.00312925 0.00194618 0.0054782 0.00296099 0.0198527 0.00139384 0.00375815 0.0211234 0.0097881 0.00590305 0.0166371 -0.0117427 0.0233683 0.00289494 0.00624732 0.0173532 -0.00500062 0.00331205 -0.00619158 -0.00342362 -0.00962186 -8.15329e-05 -0.00677764 -0.00167153 -0.00132452 -0.0138146
internal_weight=13209 4787 3542 8422 6197 2332 1677 3025 517 2714 2182 1245 998 776 311 2225 222 1483 1041 411 442 252 3865 2139 1726 1480 1359 694 1184 1799
internal_count=13209 4787 3542 8422 6197 2332 1677 3025 517 2714 2182 1245 998 776 311 2225 222 1483 1041 411 442 252 3865 2139 1726 1480 1359 694 1184 1799
is_linear=0
shrinkage=0.05


Tree=32
num_leaves=31
num_cat=0
split_feature=0 0 5 0 5 6 10 7 6 7 10 5 6 7 6 7 8 7 6 7 6 7 9 5 6 7 7 5 6 7
split_gain=245.072 81.9382 45.4801 43.8488 34.7707 26.8889 39.352 23.4361 22.5939 23.1183 19.659 19.2486 17.4073 15.9724 25.9169 20.2289 15.0831 15.0499 21.6791 16.5289 14.6237 18.3177 14.3793 13.7624 13.2479 19.37 18.665 16.1709 13.3489 16.262
threshold=0.12863201269999339 1.2420967896539563 -0.068350019043483076 -0.87615402275954757 -0.046179455268871038 1.0164982543925356 -4622.3499999999995 -1.3027118645515563 0.87140796436854895 0.78145995054169493 -4602.2499999999991 0.0043677497866690769 -0.77138854525786549 0.84129263422858125 -0.71522456202277562 0.6019618994810324 0.35326610500191852 0.86622291909811999 0.91821128373112548 -1.4074190610036099 -0.97732315045320017 1.1653863375325588 406.50000000000017 -0.009162592320961253 -0.46248663746486596 0.88616714699374877 -0.29552835582228376 0.030414331387275496 1.0633015737551104 -1.3276421494210913
decision_type=2 2 2 2 2 2 2 2 2 2 2 2 2 2 2 2 2 2 2 2 2 2 2 2 2 2 2 2 2 2
left_child=3 2 22 16 5 6 -5 10 9 23 -4 17 -11 14 15 -8 -1 18 -3 -20 21 -15 -2 -9 25 27 28 -6 29 -26
right_child=1 11 7 4 24 -7 13 8 -10 12 -12 -13 -14 20 -16 -17 -18 -19 19 -21 -22 -23 -24 -25 26 -27 -28 -29 -30 -31
leaf_value=-0.012529517904082271 0.0078750726696665569 0.031550434135730769 0.0097135427069664389 0.036286895120550375 0.0046823905338696913 -0.0067420253432746843 0.034834955097599464 0.012117631169368018 -0.0082704754999317082 0.0012120772207460239 0.041629330709512385 0.0095852684820312319 -0.0151622912596776 0.02808005383744705 0.0007805724393360184 0.0097797557450923778 0.0011791698561277608 0.0097090612333253206 0.035886922680755266 0.0030700466303295532 -0.015224558882121193 -0.004141839069973988 0.025189818604920269 0.0017865929856442993 0.014279085682804577 -0.010382891845944507 -0.019146316404053461 -0.0058162284039574939 -0.011501096785716237 -0.0052799297703453214
leaf_weight=2002 189 571 287 96 809 655 110 742 507 644 58 324 217 57 728 301 223 158 53 139 190 195 328 570 131 659 367 671 665 563
leaf_count=2002 189 571 287 96 809 655 110 742 507 644 58 324 217 57 728 301 223 158 53 139 190 195 328 570 131 659 367 671 665 563
internal_value=2.45531e-12 0.00903353 0.00515523 -0.00513459 -0.00297279 0.00184887 0.00520429 0.00281294 0.00123391 0.00345145 0.0150791 0.0200672 -0.0029148 0.00331692 0.00644759 0.0164855 -0.0111556 0.0237547 0.0266632 0.0121289 -0.00475059 0.00314645 0.0188601 0.0076293 -0.005882 -0.00325244 -0.00914077 -7.74563e-05 -0.00643876 -0.00158795
internal_weight=13209 4787 3542 8422 6197 2332 1677 3025 2680 2173 345 1245 861 1581 1139 411 2225 921 763 192 442 252 517 1312 3865 2139 1726 1480 1359 694
internal_count=13209 4787 3542 8422 6197 2332 1677 3025 2680 2173 345 1245 861 1581 1139 411 2225 921 763 192 442 252 517 1312 3865 2139 1726 1480 1359 694
is_linear=0
shrinkage=0.05


Tree=33
num_leaves=31
num_cat=0
split_feature=11 5 6 7 11 5 6 7 6 7 7 6 6 10 7 6 7 7 10 6 10 3 7 7 6 7 7 10 6 7
split_gain=193.654 64.1161 60.6464 46.181 44.7691 33.621 30.1372 31.8568 28.7003 58.5585 48.6702 33.8483 25.0024 21.7388 24.3909 24.1716 21.7919 21.5852 20.2768 18.4501 26.6499 17.7745 17.6417 16.0443 23.6032 15.824 15.289 14.9562 13.6277 19.968
threshold=26.744652099346805 -0.025100304383226274 1.3300804941217936 -1.3924608900818876 54.620953207227082 -0.0053622886074932673 1.0820229015001421 0.86622291909811999 -0.55141294425375909 0.65182246922010612 -0.24566778608320652 0.91821128373112548 -0.79947053687541214 -4049.1499999999992 -1.1631022692821513 -0.15358472967186307 0.69669698198527008 -0.81906433808254875 -3967.0999999999995 -0.69650323427774563 -4028.9499999999994 2.0304612554348256 0.42246384842036988 0.58201767158540363 -0.82287219655669874 -1.212962839021225 1.4495915850452714 -4098.7499999999991 0.91821128373112548 -1.4074190610036099
decision_type=2 2 2 2 2 2 2 2 2 2 2 2 2 2 2 2 2 2 2 2 2 2 2 2 2 2 2 2 2 2
left_child=1 2 3 -1 5 6 7 13 9 19 11 25 -9 14 28 22 -15 -17 -18 20 -5 -6 -16 -22 -25 -10 -11 -21 -2 -30
right_child=4 -3 -4 8 21 -7 -8 12 10 26 -12 -13 -14 16 15 17 18 -19 -20 27 23 -23 -24 24 -26 -27 -28 -29 29 -31
leaf_value=0.019508361332193219 0.028173148652581883 -0.0078416988862712589 -0.012418743285105643 0.033639122416083779 0.02488899258730734 8.1032118381840158e-05 -0.0033983139084457653 0.0079579326065110974 0.025106230691886045 -0.00013632815681564021 -0.02123695768709806 -0.0061995903356905357 -0.023276662935003092 0.036009467972609205 0.030989653694479171 0.0047433034490979914 0.010071459242268387 -0.034066925701031939 0.061623527610763201 0.03067542416586851 0.036295287191402167 -0.0033206271608510331 -0.0015130320989382676 0.024548664861640146 -0.0085492059724250179 0.005021308488618057 -0.023488929260811593 -2.0594691337130998e-05 0.032620575692756879 0.00062167105443824999
leaf_weight=374 237 4737 784 236 562 1035 297 293 139 1326 328 740 82 257 83 77 208 67 21 48 50 62 84 91 132 333 74 229 72 151
leaf_count=374 237 4737 784 236 562 1035 297 293 139 1326 328 740 82 257 83 77 208 67 21 48 50 62 84 91 132 333 74 229 72 151
internal_value=6.01907e-12 -0.00369713 0.000322698 0.00275911 0.00991362 0.00735099 0.0112517 0.0139177 0.00107789 0.00476111 -0.00415036 0.000473733 0.00112797 0.0177333 0.0125128 0.0016971 0.0260152 -0.0133142 0.0147989 0.0156829 0.021334 0.0220861 0.014641 0.0106967 0.0049571 0.0109361 -0.00137068 0.00529857 0.0198252 0.0109532
internal_weight=13209 9621 4884 4100 3588 2964 1929 1632 3726 2186 1540 1212 375 1257 771 311 486 144 229 786 509 624 167 273 223 472 1400 277 460 223
internal_count=13209 9621 4884 4100 3588 2964 1929 1632 3726 2186 1540 1212 375 1257 771 311 486 144 229 786 509 624 167 273 223 472 1400 277 460 223
is_linear=0
shrinkage=0.05


Tree=34
num_leaves=31
num_cat=0
split_feature=0 0 5 10 7 5 1 5 6 4 10 1 0 6 7 7 6 6 7 7 3 7 6 7 6 7 2 10 6 6
split_gain=202.136 80.6577 41.7703 30.9337 45.7778 28.9302 24.0232 23.2534 20.3025 20.1766 19.3195 17.848 16.5121 16.4452 34.5453 31.0949 19.5668 15.3531 18.6372 14.1391 12.8507 12.8389 11.9547 18.3118 12.2881 38.7186 19.4443 16.183 13.6769 12.4682
