tree
version=v4
num_class=1
num_tree_per_iteration=1
label_index=0
max_feature_idx=11
objective=regression
feature_names=MedInc HouseAge AveRooms AveBedrms Population AveOccup Latitude Longitude bedroom_ratio population_density location_cluster income_rooms
feature_infos=[-1.7754384434994495:5.8392679465339663] [-2.1907655106085215:1.8561733525482766] [-1.9043862182419304:57.166551507859516] [-1.7621165794365337:56.647271684169532] [-1.2519133921041592:30.12742810723508] [-0.20768455488371665:107.11644677509909] [-1.4476965100470898:2.9518155100350509] [-2.3522768575590418:2.6287940593743486] [0.10000000000000001:1] [1:6082] [-5195.6999999999998:-3757.1999999999998] [0.8569714285714285:333.33555555555552]
tree_sizes=2719 2886 2875 2899 2896 2893 2886 2879 2888 2878 2902 2893 2909 2895 2904 2888 2891 2885 2892 2899 2888 2894 2887 2900 2888 2894 2902 2904 2891 2906 2897 2894 2894 2910 2894 2917 2895 2884 2906 2902 2913 2898 2889 2894 2904 2903 2917 2920 2906 2907 2899 2907 2913 2911 2896 2899 2906 2894 2897 2894 2892 2903 2921 2881 2920 2889 2926 2895 2872 2922 2899 2885 2897 2879 2904 2901 2901 2916 2901 2889 2918 2895 2859 2908 2909 2938 2901 2876 2923 2895 2928 2906 2884 2889 2874 2892 2916 2872 2908 2913

Tree=0
num_leaves=31
num_cat=0
split_feature=0 0 5 0 5 5 6 1 5 10 0 7 6 0 6 7 6 1 1 5 7 6 7 7 5 0 0 1 1 6
split_gain=5678.43 1558.27 885.848 751.538 284.096 263.004 208.179 202.928 210.384 195.946 195.421 120.308 141.417 113.616 107.84 104.637 102.327 85.4959 71.7851 68.9577 64.6826 60.4874 74.175 54.7076 47.5999 46.3147 44.7189 50.8233 40.4622 39.0303
threshold=0.76177298724819187 -0.36143322799869942 -0.060297774020634388 2.0161078893815638 -0.080032333310911877 -0.03820127453665257 -0.55141294425375909 -0.72275827593399655 -0.098405305721905714 -4025.3499999999999 0.33858495229636859 -1.0185066170388402 1.0633015737551104 1.2907777238725255 1.0726622376276256 0.65680852619401253 1.0726622376276256 1.1023317996073045 -0.72275827593399655 -0.022800942457736676 -1.3575584912645364 -0.46716696940112262 -1.1481440983604287 0.90112531791547112 -0.072050852605102023 1.0000000180025095e-35 2.727784286932859 1.0000000180025095e-35 -0.16729607903012242 1.3581624857393384
decision_type=2 2 2 2 2 2 2 2 2 2 2 2 2 2 2 2 2 2 2 2 2 2 2 2 2 2 2 2 2 2
left_child=1 4 7 5 14 18 9 -3 -9 -6 17 12 20 -7 15 21 25 29 -2 -12 -8 -1 -23 -11 -20 -10 27 -5 -15 -4
right_child=3 2 10 26 6 13 11 8 16 23 19 -13 -14 28 -16 -17 -18 -19 24 -21 -22 22 -24 -25 -26 -27 -28 -29 -30 -31
leaf_value=2.120900278266364 2.1268344885296955 2.0825456624526359 2.0580924664621207 2.1660942793901139 2.0709180227764081 2.1035171171478479 2.100080839296218 2.1664818336729992 2.105002282061565 2.0450600756120396 2.0974400223045069 2.0155644142319371 2.0210030058151749 2.1275167012306415 2.0348229070454011 2.0542969073497188 2.0676671051955489 2.0820538071570676 2.1941181992258367 2.0735018561732823 2.050610003415207 2.0972972221717581 2.0327725233587084 2.0270164464678109 2.1566126932084786 2.1339167040918139 2.2116788455969956 2.2080453218496108 2.1643408238203641 2.0372023307952656
leaf_weight=137 156 363 2272 179 578 747 83 244 253 970 495 1439 500 323 203 288 108 361 114 767 324 152 63 741 328 306 249 121 97 248
leaf_count=137 156 363 2272 179 578 747 83 244 253 970 495 1439 500 323 203 288 108 361 114 767 324 152 63 741 328 306 249 121 97 248
internal_value=2.07379 2.05868 2.0777 2.14492 2.03988 2.12903 2.03502 2.11416 2.12675 2.04575 2.06648 2.02455 2.03882 2.11522 2.06658 2.07665 2.11222 2.0593 2.15599 2.08289 2.0607 2.09494 2.07839 2.03725 2.16629 2.12083 2.19602 2.18301 2.13602 2.05604
internal_weight=13209 10895 5417 2314 5478 1765 4635 1274 911 2289 4143 2346 907 1167 843 640 667 2881 598 1262 407 352 215 1711 442 559 549 300 420 2520
internal_count=13209 10895 5417 2314 5478 1765 4635 1274 911 2289 4143 2346 907 1167 843 640 667 2881 598 1262 407 352 215 1711 442 559 549 300 420 2520
is_linear=0
shrinkage=1


Tree=1
num_leaves=31
num_cat=0
split_feature=0 0 0 5 5 2 6 1 5 0 0 5 0 0 1 0 1 1 5 5 5 1 8 8 7 7 6 7 7 5
split_gain=5134.63 1164.13 941.237 733.603 306.084 228.411 164.444 172.329 141.235 130.21 126.018 125.485 119.508 111.313 82.6492 81.1754 69.8577 65.7835 61.8412 56.8479 55.8292 50.0865 48.2367 40.257 39.9885 37.9235 41.0037 37.288 36.0463 35.6357
threshold=0.60961224625757227 -0.41132199553660731 1.5671352387864637 -0.060297774020634388 -0.044902877879624055 -0.46959316828813874 1.0726622376276256 -0.32599956385980072 -0.021679121369573486 0.12863201269999339 2.3773813380942364 -0.098405305721905714 -0.77117755296136004 0.97550697027901911 -0.72275827593399655 -0.87594396479096692 -0.087944336615283253 1.1023317996073045 -0.016536092555075797 -0.084478539809710332 -0.074605101101499913 -0.087944336615283253 0.30377184134887275 0.21099927641099861 -1.4074190610036099 0.63686429829838376 -0.69650323427774563 -1.397446947055794 0.84627869120249122 -0.010689641274587275
decision_type=2 2 2 2 2 2 2 2 2 2 2 2 2 2 2 2 2 2 2 2 2 2 2 2 2 2 2 2 2 2
left_child=1 5 4 6 14 8 7 25 15 17 16 -9 -7 29 -2 22 -4 23 -11 -16 -14 -15 -1 -5 -19 26 -3 -17 -13 -6
right_child=2 3 10 9 13 12 -8 11 -10 18 -12 28 20 21 19 27 -18 24 -20 -21 -22 -23 -24 -25 -26 -27 -28 -29 -30 -31
leaf_value=-0.038149160005579615 0.042018482471531476 0.072270772817798631 0.072384436495286628 -0.025687827314795183 0.026764656096946223 -0.05279784706617572 -0.010866624350205339 0.086821883763760738 -0.031832605562242974 0.011988906990907624 0.1263537740996668 0.046645090185880367 -0.0095784984236674999 0.03444118609843707 0.12100302284447158 0.053132167352097373 0.11077410483013819 0.037948048273240456 -0.0081754046312600952 0.074371117426325448 -0.036660173584765199 0.064245425635112485 -0.0035227349616326793 -0.010923071765546544 -0.0056812037666037936 -0.0011523311454720438 0.017947447456818102 0.0038230830830889317 0.0070462315704729137 0.0050145264759654017
leaf_weight=219 167 44 307 1429 352 1437 183 219 1250 688 349 404 223 502 82 42 193 67 850 322 1298 196 186 682 243 198 165 440 67 405
leaf_count=219 167 44 307 1429 352 1437 183 219 1250 688 349 404 223 502 82 42 193 67 850 322 1298 196 186 682 243 198 165 440 67 405
internal_value=1.50145e-10 -0.0164427 0.0591024 0.000106703 0.0405827 -0.0334599 0.0330119 0.0403316 -0.0210047 -0.010532 0.103297 0.0555517 -0.0424582 0.028408 0.0716057 -0.00574542 0.0872028 -0.0177594 0.000844782 0.083836 -0.0326896 0.0428103 -0.0222467 -0.0209178 0.00374834 0.0145285 0.0293839 0.00811973 0.0410121 0.0151282
internal_weight=13209 10334 2875 5239 2026 5095 1280 1097 2137 3959 849 690 2958 1455 571 887 500 2421 1538 404 1521 698 405 2111 310 407 209 482 471 757
internal_count=13209 10334 2875 5239 2026 5095 1280 1097 2137 3959 849 690 2958 1455 571 887 500 2421 1538 404 1521 698 405 2111 310 407 209 482 471 757
is_linear=0
shrinkage=0.05


Tree=2
num_leaves=31
num_cat=0
split_feature=0 0 5 0 5 5 6 1 5 0 7 6 7 6 0 6 5 7 1 1 1 0 7 6 7 7 7 5 5 7
split_gain=4642.37 1294.2 716.998 595.039 238.116 222.07 181.233 178.613 175.074 168.604 134.337 108.804 97.0717 111.761 90.5768 88.9428 85.5007 84.6269 70.2035 55.0996 52.4383 46.4856 43.3353 49.4749 60.9329 54.1173 43.2531 39.7206 39.0823 37.0836
threshold=0.78227989643087936 -0.36143322799869942 -0.05980916136545323 2.0161078893815638 -0.074605101101499913 -0.03820127453665257 -0.55141294425375909 -0.72275827593399655 -0.098405305721905714 0.33858495229636859 0.90112531791547112 1.0726622376276256 -1.0185066170388402 1.4190068009106882 1.2907777238725255 1.1007442292451721 0.029592761117619309 1.170372394506465 1.261035284436983 -0.80211001834883577 -0.64340653351915733 0.082918147287626004 -1.3575584912645364 -0.46716696940112262 0.61193401342884857 -0.52987303359592619 -1.397446947055794 -0.031364830846333305 -0.072050852605102023 0.94599983068063509
decision_type=2 2 2 2 2 2 2 2 2 2 2 2 2 2 2 2 2 2 2 2 2 2 2 2 2 2 2 2 2 2
left_child=1 4 7 5 11 20 10 -3 -9 18 16 17 13 26 -7 21 -6 22 29 -11 -2 -10 -1 24 -24 -25 -8 -21 -22 -4
right_child=3 2 9 -5 6 14 12 8 15 19 -12 -13 -14 -15 -16 -17 -18 -19 -20 27 28 -23 23 25 -26 -27 -28 -29 -30 -31
leaf_value=0.0590779181223276 0.051636863634435953 0.0067593086753688003 -0.013033193782270504 0.11049367106268998 -0.0038853724284552958 0.026855025050282796 0.010040826005158279 0.084054551031879449 0.027565869974358448 -0.0060812165869779137 -0.04322557129791027 -0.036454141778373271 -0.053723460581478324 -0.056245885290085312 0.056148020448218587 -0.013754200648112469 -0.027763743122773833 -0.028738457773383082 0.010471428550154604 0.031495289981513373 0.11081243260601246 0.055171442855898228 0.053237499882908247 0.0037068701031186231 0.0045255789354518806 -0.052485666398344372 -0.025570017284363374 0.008486517772674897 0.076033946189645818 -0.028775888404681756
leaf_weight=43 163 374 2125 549 681 710 106 244 304 431 723 258 1394 310 420 83 834 178 282 275 109 306 95 164 198 58 436 590 312 454
leaf_count=43 163 374 2125 549 681 710 106 244 304 431 723 258 1394 310 420 83 834 178 282 275 109 306 95 164 198 58 436 590 312 454
internal_value=-4.25643e-11 -0.0134778 0.00373054 0.0651914 -0.0306548 0.050681 -0.0355629 0.0359712 0.0476309 -0.00643724 -0.0254928 -0.00851396 -0.045597 -0.032301 0.0377427 0.0348065 -0.0170303 0.00128029 -0.0132146 0.00852411 0.0757157 0.0414139 0.0108562 0.00682987 0.0203195 -0.0109741 -0.0186055 0.0158014 0.0850384 -0.0158045
internal_weight=13209 10946 5468 2263 5478 1714 4484 1311 937 4157 2238 994 2246 852 1130 693 1515 736 2861 1296 584 610 558 515 293 222 542 865 421 2579
internal_count=13209 10946 5468 2263 5478 1714 4484 1311 937 4157 2238 994 2246 852 1130 693 1515 736 2861 1296 584 610 558 515 293 222 542 865 421 2579
is_linear=0
shrinkage=0.05


Tree=3
num_leaves=31
num_cat=0
split_feature=0 0 5 0 5 0 5 6 1 5 7 6 7 6 6 5 7 5 7 6 6 7 7 6 5 0 7 0 7 6
split_gain=4201.61 1289.59 654.608 423.551 214.9 208.232 176.358 163.563 163.117 158.295 121.239 98.196 87.6072 102.701 83.6699 77.8283 76.3758 66.9118 65.6934 61.7071 59.8694 76.1425 63.3834 64.7163 62.9142 55.8293 45.6734 41.6654 39.1101 44.6511
threshold=0.90571521021809309 -0.36143322799869942 -0.060297774020634388 2.0161078893815638 -0.074605101101499913 0.33858495229636859 -0.03820127453665257 -0.55141294425375909 -0.72275827593399655 -0.098405305721905714 0.90112531791547112 1.0726622376276256 -1.0185066170388402 1.0633015737551104 1.0726622376276256 0.0031850129662674043 1.170372394506465 -0.010689641274587275 -1.397446947055794 1.4424084605919749 -0.56077360812627408 0.91109743186328374 -0.20079327331804267 0.98373593083873212 -0.00064654856717251939 1.4053118312411335 -1.3675306052123488 1.0000000180025095e-35 -1.3575584912645364 -0.46716696940112262
decision_type=2 2 2 2 2 2 2 2 2 2 2 2 2 2 2 2 2 2 2 2 2 2 2 2 2 2 2 2 2 2
left_child=1 4 8 6 11 18 -2 10 -3 -10 15 16 13 26 27 -6 28 -7 19 -4 21 24 23 -22 -20 -8 -9 -11 -1 -30
right_child=3 2 5 -5 7 17 25 12 9 14 -12 -13 -14 -15 -16 -17 -18 -19 20 -21 22 -23 -24 -25 -26 -27 -28 -29 29 -31
leaf_value=0.056124023296112241 0.077895704333224347 0.0079965818774557097 0.024360993149516896 0.10496898639713073 -8.0735681936978165e-06 0.020036902699316655 0.031333442708033558 0.023226785719223125 0.080694469858310192 0.026461082405186159 -0.041064293089581663 -0.034631434803857476 -0.051037287657513919 -0.046373325978308476 -0.0056864205790175641 -0.024120892687089626 -0.027301534648796311 -0.00068745479273940374 0.010812286509688169 -0.043784272596240043 -0.0033502804422271952 -0.02509846927053699 -0.048722776221792878 -0.030351385944706863 -0.013396920365511461 0.056985459096519579 -0.020066934045182741 0.053291826049064309 0.019303569163167181 -0.010425359433567203
leaf_weight=43 476 386 196 549 499 821 597 76 250 253 723 258 1394 469 110 1016 178 741 549 40 412 473 205 481 525 329 307 338 293 222
leaf_count=43 476 386 196 549 499 821 597 76 250 253 723 258 1394 469 110 1016 178 741 549 40 412 473 205 481 525 329 307 338 293 222
internal_value=-8.96166e-11 -0.0117393 0.00473527 0.0677399 -0.029122 -0.00449521 0.0531617 -0.0337847 0.0354092 0.0465356 -0.0242182 -0.00808826 -0.0433172 -0.0306859 0.0343535 -0.0161788 0.00121627 0.0102054 -0.0124655 0.0128109 -0.0147208 -0.00838333 -0.0236498 -0.017894 -0.00102182 0.0404474 -0.011476 0.0418059 0.0103133 0.00648838
internal_weight=13209 11258 5780 1951 5478 4443 1402 4484 1337 951 2238 994 2246 852 701 1515 736 1562 2881 236 2645 1547 1098 893 1074 926 383 591 558 515
internal_count=13209 11258 5780 1951 5478 4443 1402 4484 1337 951 2238 994 2246 852 701 1515 736 1562 2881 236 2645 1547 1098 893 1074 926 383 591 558 515
is_linear=0
shrinkage=0.05


Tree=4
num_leaves=31
num_cat=0
split_feature=0 0 0 5 5 8 0 1 6 0 0 10 1 5 5 1 0 2 1 0 7 5 5 6 7 1 0 5 5 6
split_gain=3803.36 873.702 697.294 575.625 237.627 176.982 155.317 133.132 118.645 98.2369 92.6434 89.261 77.9308 75.4327 75.1035 70.6494 66.2754 65.4865 60.0242 56.3382 51.1687 56.5782 46.8813 46.5695 39.9452 37.4176 35.7132 27.9974 26.8705 26.8468
threshold=0.60961224625757227 -0.54665184179470105 1.5671352387864637 -0.072050852605102023 -0.030323777098900141 0.27326385167720507 0.090926607339763876 -0.32599956385980072 1.0164982543925356 2.3773813380942364 -0.82237918280289712 -4623.1499999999987 -0.72275827593399655 -0.027726110016413331 -0.072050852605102023 1.261035284436983 0.97550697027901911 -0.13926042538221978 -0.087944336615283253 -0.243275620672075 1.2102608502977226 1.0000000180025095e-35 -0.069149864737008043 1.0726622376276256 -1.4074190610036099 1.0229800571924654 0.90571521021809309 -0.090675548223230276 -0.0012730564001454993 -0.57949493587130574
decision_type=2 2 2 2 2 2 2 2 2 2 2 2 2 2 2 2 2 2 2 2 2 2 2 2 2 2 2 2 2 2
left_child=1 5 4 7 12 10 15 -3 11 18 -1 -9 -2 25 -14 17 -6 28 -4 -13 21 23 -12 -7 -17 -8 -16 -21 -5 -19
right_child=2 3 9 6 16 20 13 8 -10 -11 22 19 14 -15 26 24 -18 29 -20 27 -22 -23 -24 -25 -26 -27 -28 -29 -30 -31
leaf_value=-0.046187806497799362 0.030445020224045344 0.0082529197164892404 0.060959894277446629 -0.0035992394405639713 0.0086754137606524472 0.005166228996186315 0.0092510602774419429 0.10703487532479423 -1.4197346337927067e-05 0.10926295262694702 -0.008982681151665747 0.027186940231148635 0.096223896830342714 -0.0056485112575326395 0.039809664632130537 0.035615649940838746 0.03263619047684254 -0.01655912497184343 0.096545162605401622 0.076217004311139758 -0.045709703405072376 -0.023166675028621977 -0.032918036182286538 -0.03829725542381196 -0.0041516614913372461 0.037579604057392399 0.06695999605963425 0.044399685668939537 -0.018163729986535395 -0.030416164437396382
leaf_weight=1630 240 405 307 699 606 467 563 70 123 349 250 211 140 1139 221 83 551 540 193 149 127 571 1126 71 264 147 268 129 579 991
leaf_count=1630 240 405 307 699 606 467 563 70 123 349 250 211 140 1139 221 83 551 540 193 149 127 571 1126 71 264 147 268 129 579 991
internal_value=2.23256e-10 -0.0141515 0.0508667 -0.0020198 0.0349266 -0.0315741 -0.00918243 0.0309599 0.0444443 0.0889054 -0.0381229 0.0542268 0.0546851 0.00232498 0.0639341 -0.0159243 0.0200863 -0.0185536 0.0746958 0.0466674 -0.0156471 -0.0122044 -0.0285693 -0.000569658 0.0053604 0.0151163 0.0546896 0.0614529 -0.0101977 -0.0255286
internal_weight=13209 10334 2875 6092 2026 4242 5005 1087 682 849 3006 559 869 1849 629 3156 1157 2809 500 489 1236 1109 1376 538 347 710 489 278 1278 1531
internal_count=13209 10334 2875 6092 2026 4242 5005 1087 682 849 3006 559 869 1849 629 3156 1157 2809 500 489 1236 1109 1376 538 347 710 489 278 1278 1531
is_linear=0
shrinkage=0.05


Tree=5
num_leaves=31
num_cat=0
split_feature=0 0 0 5 5 8 0 1 6 0 0 10 0 5 1 8 1 1 0 10 6 7 5 5 1 1 6 7 7 5
split_gain=3432.53 788.516 629.308 519.502 215.552 159.797 140.707 120.151 107.077 88.6588 85.2427 80.5581 74.6471 72.6083 64.103 59.2238 57.477 54.1718 50.8452 49.0527 49.8931 58.722 43.0951 42.1437 41.931 37.7453 31.2171 55.1461 48.0113 28.811
threshold=0.60961224625757227 -0.54665184179470105 1.5671352387864637 -0.072050852605102023 -0.044902877879624055 0.27468943415343278 0.074620857528689702 -0.32599956385980072 1.0164982543925356 2.3773813380942364 -0.82237918280289712 -4623.1499999999987 0.97550697027901911 -0.022800942457736676 1.4990905116815005 0.21389972352468378 -0.96081350317851411 -0.087944336615283253 -0.243275620672075 -4026.7499999999995 -0.48120796520989589 -1.0384508449344689 -0.068484132758494312 -0.089621288757156234 -0.087944336615283253 0.78492482994794777 -0.57013427199878908 0.89115320396765496 -0.20079327331804267 -0.040979526400626611
decision_type=2 2 2 2 2 2 2 2 2 2 2 2 2 2 2 2 2 2 2 2 2 2 2 2 2 2 2 2 2 2
left_child=1 5 4 7 16 10 14 -3 11 17 -1 -9 -6 25 15 26 -2 -4 -13 20 29 -22 -12 -18 -14 -8 27 -5 -28 -7
right_child=2 3 9 6 12 19 13 8 -10 -11 22 18 24 -15 -16 -17 23 -19 -20 -21 21 -23 -24 -25 -26 -27 28 -29 -30 -31
leaf_value=-0.043779213689644519 0.028132327502372406 0.0078402738224852969 0.057911899401191992 -0.00021668227725004887 0.012088581470481126 0.031986025110554414 0.0070924980941745657 0.10168313094547816 -1.34873934605015e-05 0.10379980534827471 -0.008617254130837795 0.025827592781742695 0.027100097500525264 -0.0067490322022685303 0.010680075093878425 -0.007963949504708712 0.099510070026279929 0.091717903631126474 0.058380209102811255 -0.02500046405555097 -0.0008963181480319927 -0.045098121933580385 -0.031197944306928446 0.060087434599235837 0.054370099752523694 0.03232753870893558 -0.022565379849063736 -0.027969318495419067 -0.04774136039979604 -0.00088808264817272968
leaf_weight=1651 118 405 307 340 757 97 661 70 123 349 260 211 502 1086 219 1051 83 193 278 582 184 127 1128 370 196 191 834 378 245 213
leaf_count=1651 118 405 307 340 757 97 661 70 123 349 260 211 502 1086 219 1051 83 193 278 582 184 127 1128 370 196 191 834 378 245 213
internal_value=5.51313e-11 -0.013444 0.0483234 -0.00191881 0.0331802 -0.0299954 -0.00872331 0.029412 0.0422221 0.0844601 -0.0361011 0.0515155 0.0229635 0.00182314 -0.0153875 -0.017392 0.0592142 0.070961 0.044334 -0.0145712 -0.00479694 -0.0189466 -0.0269681 0.0673106 0.0347576 0.0127496 -0.0229061 -0.0148274 -0.0282819 0.00939833
internal_weight=13209 10334 2875 6092 2026 4242 5005 1087 682 849 3039 559 1455 1938 3067 2848 571 500 489 1203 621 311 1388 453 698 852 1797 718 1079 310
internal_count=13209 10334 2875 6092 2026 4242 5005 1087 682 849 3039 559 1455 1938 3067 2848 571 500 489 1203 621 311 1388 453 698 852 1797 718 1079 310
is_linear=0
shrinkage=0.05


Tree=6
num_leaves=31
num_cat=0
split_feature=0 0 5 0 5 0 5 6 1 5 7 7 6 7 5 6 6 7 7 1 6 6 5 1 6 7 7 0 0 6
split_gain=3107.71 960.361 493.652 314.244 168.46 155.757 140.634 135.211 126.224 122.299 102.138 87.4194 76.1334 83.5226 69.3783 65.5638 61.368 69.1212 55.8138 54.897 52.7446 51.0736 53.6958 45.974 43.4263 44.9254 41.7491 37.7853 36.4523 34.1864
threshold=0.90571521021809309 -0.36143322799869942 -0.060297774020634388 2.0862935081335787 -0.082160271132150769 0.33858495229636859 -0.022267594775966088 -0.55141294425375909 -0.72275827593399655 -0.098405305721905714 0.90112531791547112 -0.15591876055287882 1.0539409098825956 -1.3575584912645364 0.029592761117619309 1.1007442292451721 1.0633015737551104 0.64683641224619637 -1.397446947055794 -0.96081350317851411 1.4424084605919749 1.0773425695638836 -0.015970889093338634 -0.56405479110431822 -0.46716696940112262 -1.1481440983604287 0.96095800160235745 1.3627750926035487 0.074620857528689702 1.0726622376276256
decision_type=2 2 2 2 2 2 2 2 2 2 2 2 2 2 2 2 2 2 2 2 2 2 2 2 2 2 2 2 2 2
left_child=1 4 8 6 16 18 23 10 -3 -10 14 12 13 -9 -6 28 17 24 20 -7 -4 22 -20 -2 -1 -26 29 -8 -11 -21
right_child=3 2 5 -5 7 19 27 11 9 15 -12 -13 -14 -15 -16 -17 -18 -19 21 26 -22 -23 -24 -25 25 -27 -28 -29 -30 -31
leaf_value=0.042182211281033236 0.042891642460334715 0.0066438729124423598 0.023188521239516917 0.092488324681095385 -0.0012824588652270345 -0.0065373463590765587 0.022026831834234348 0.027516455432198134 0.070570454436540614 0.022604675946803685 -0.035089968781072747 -0.054019255578097926 -0.040636181301755669 -0.025535058677174025 -0.022508615727298526 -0.012175019106667252 -0.028938505753931417 -0.0145447972540278 -0.00084174843845542802 0.020938104984984073 -0.03981384310871363 -0.028995950492607891 -0.016535709814531268 0.070747943478495903 0.019742294048954702 -0.032650320519480795 -0.01549775338066476 0.044984754481572548 0.046906277949084745 -0.0071468573088101801
leaf_weight=128 211 386 196 499 715 424 443 83 250 293 760 576 1021 699 834 82 185 275 947 910 40 414 1284 497 145 57 105 301 326 123
leaf_count=128 211 386 196 499 715 424 443 83 250 293 760 576 1021 699 834 82 185 275 947 910 40 414 1284 497 145 57 105 301 326 123
internal_value=6.13375e-11 -0.0100961 0.00412076 0.0582582 -0.0250967 -0.00389498 0.0464946 -0.0286961 0.030758 0.0405456 -0.0200769 -0.0370617 -0.0316443 -0.0199043 -0.0127109 0.0298378 -0.00373741 0.00396871 -0.0107882 0.00881915 0.0125102 -0.012867 -0.00987404 0.0624461 0.0193966 0.00495824 0.0145407 0.0313149 0.0354033 0.017594
internal_weight=13209 11258 5780 1951 5478 4443 1452 4688 1337 951 2309 2379 1803 782 1549 701 790 605 2881 1562 236 2645 2231 708 330 202 1138 744 619 1033
internal_count=13209 11258 5780 1951 5478 4443 1452 4688 1337 951 2309 2379 1803 782 1549 701 790 605 2881 1562 236 2645 2231 708 330 202 1138 744 619 1033
is_linear=0
shrinkage=0.05


Tree=7
num_leaves=31
num_cat=0
split_feature=11 5 11 11 6 7 3 11 1 6 10 7 6 1 11 7 6 1 7 11 7 5 7 7 6 10 7 2 1 3
split_gain=2318.12 598.542 368.76 330.047 294.241 211.58 192.646 165.207 153.533 127.201 135.807 132.885 129.688 86.2908 79.182 76.465 82.5336 69.6453 59.0103 56.4912 53.0962 52.8479 50.6408 49.0066 45.6433 45.0888 44.7139 44.4938 42.018 37.4129
threshold=32.02722808988765 -0.069149864737008043 18.383216897233204 48.06920062134504 1.0726622376276256 0.84129263422858125 1.4784780784540379 18.518052383397166 1.0000000180025095e-35 -0.55141294425375909 -4024.6499999999992 -1.0185066170388402 1.0539409098825956 0.78492482994794777 65.276131730732757 -1.3675306052123488 -0.46716696940112262 -0.087944336615283253 -0.45508217898731396 25.750162961553105 -1.3575584912645364 -0.090675548223230276 0.6019618994810324 1.2102608502977226 -0.92583949915436692 -4045.1499999999992 1.0058325143675251 0.090410424497284245 -0.64340653351915733 1.0013992674966239
decision_type=2 2 2 2 2 2 2 2 2 2 2 2 2 2 2 2 2 2 2 2 2 2 2 2 2 2 2 2 2 2
left_child=1 4 9 8 5 7 14 15 29 10 -3 12 20 19 17 -1 22 -5 -18 27 -11 -9 25 24 28 -17 -12 -4 -7 -2
right_child=3 2 13 6 -6 23 -8 21 -10 11 26 -13 -14 -15 -16 16 18 -19 -20 -21 -22 -23 -24 -25 -26 -27 -28 -29 -30 -31
leaf_value=0.060813127719582277 0.019793603651537813 0.00091074332543148546 -0.0056024010695347112 0.048780562759461236 -0.024771705578257076 -0.0063816008762852556 -0.005375105140930308 0.078518627170393221 0.050627306912495444 0.026836577952215987 -0.018696218099069552 -0.043214787740691686 -0.037977387829735358 0.015600156336355937 0.093941872922857869 0.022343981395916722 0.0070409977757583623 0.086203903290323736 -0.044977782726945248 0.0022747424585028726 -0.010835892865951378 0.04238754618128443 0.016322824700102836 -0.028884952949980898 -0.025617573239340836 0.074259739415219392 -0.034441731206581248 -0.021695957568832389 0.041025826255652577 -0.027868666911367763
leaf_weight=104 969 754 1060 343 408 87 84 186 548 121 1354 1356 487 515 314 76 275 195 68 1103 412 222 283 168 82 93 676 722 101 43
leaf_count=104 969 754 1060 343 408 87 84 186 548 121 1354 1356 487 515 314 76 275 195 68 1103 412 222 283 168 82 93 676 722 101 43
internal_value=-7.50011e-11 -0.0101104 -0.0160376 0.0433947 0.0134551 0.0223929 0.0668672 0.0324717 0.0293112 -0.0244616 -0.0172093 -0.0329593 -0.0193256 -0.00325291 0.0739897 0.0204961 0.0152219 0.0623448 -0.00327176 -0.00661837 -0.00228361 0.0588591 0.0292559 -0.00768243 0.00551025 0.050913 -0.0239396 -0.0121229 0.0190873 0.0177684
internal_weight=13209 10713 8560 2496 2153 1745 936 1307 1560 5160 2784 2376 1020 3400 852 899 795 538 343 2885 533 408 452 438 270 169 2030 1782 188 1012
internal_count=13209 10713 8560 2496 2153 1745 936 1307 1560 5160 2784 2376 1020 3400 852 899 795 538 343 2885 533 408 452 438 270 169 2030 1782 188 1012
is_linear=0
shrinkage=0.05


Tree=8
num_leaves=31
num_cat=0
split_feature=0 0 5 0 5 5 6 10 1 5 0 7 6 7 0 5 5 6 7 6 1 0 6 7 6 7 7 7 0 6
split_gain=2561.19 704.983 419.606 338.03 133.635 130.045 110.793 114.624 109.747 104.997 86.6535 73.7142 61.0706 67.7264 59.6812 55.2704 49.2464 49.1597 58.6665 45.3065 40.8995 40.8626 36.8114 37.9982 34.6731 60.4458 35.2882 34.6449 34.6038 33.2653
threshold=0.76177298724819187 -0.36823385473149833 -0.059240180846750402 1.6286034518423809 -0.082160271132150769 -0.0076707119420109321 -0.45780630552860763 -4026.7499999999995 -0.72275827593399655 -0.090675548223230276 0.12863201269999339 -0.15591876055287882 1.0539409098825956 -1.3575584912645364 2.3773813380942364 -0.014660773778343203 -0.054179748730418233 1.0633015737551104 0.64683641224619637 1.1007442292451721 -0.40535130627463994 0.022815311027483104 -0.46716696940112262 -0.23569567213539391 1.0726622376276256 -1.3575584912645364 0.94599983068063509 -1.3824887761340714 -0.92278689178445528 1.0445802460100804
decision_type=2 2 2 2 2 2 2 2 2 2 2 2 2 2 2 2 2 2 2 2 2 2 2 2 2 2 2 2 2 2
left_child=1 4 8 5 17 16 7 -6 -3 21 24 12 13 -8 20 29 -2 18 22 27 -5 -10 -1 -24 25 -4 -27 -11 -9 -12
right_child=3 2 10 14 6 -7 11 28 9 19 15 -13 -14 -15 -16 -17 -18 -19 -20 -21 -22 -23 23 -25 -26 26 -28 -29 -30 -31
leaf_value=0.038575068528815697 0.062234900626675062 0.0041007088802833104 0.031976619946825151 0.046572683139312926 0.0012789177511253261 0.014601588483077362 0.024744990530491964 -0.033898405957067439 0.043262440235464994 0.060665393601851282 0.016061357213847004 -0.049846204073453991 -0.036952106173337614 -0.023376408378662613 0.08960532587239077 -0.005598110493695397 0.037576852995829781 -0.026450009608094623 -0.013979007373362133 -0.011216392795796748 0.076731022956954456 0.078458015319968891 0.013209985997473375 -0.047798561602830886 -0.025089386552583234 -0.0074473944472267673 -0.025229793928193037 0.023853588346511065 -0.019362426718659675 -0.0076347729321368926
leaf_weight=126 290 381 85 219 560 554 82 646 193 74 727 551 1009 675 349 1047 671 184 274 81 231 144 171 30 424 1303 355 469 1118 186
leaf_count=126 290 381 85 219 560 554 82 646 193 74 727 551 1009 675 349 1047 671 184 274 81 231 144 171 30 424 1303 355 469 1118 186
internal_value=1.13999e-11 -0.0101467 0.00252202 0.0477736 -0.0229158 0.0338954 -0.0261429 -0.0184292 0.0268093 0.0358123 -0.0053756 -0.03388 -0.0288984 -0.0181638 0.0740883 0.00224251 0.0450179 -0.00383648 0.00308679 0.0236667 0.062054 0.0583015 0.0173866 0.00410423 -0.012266 -0.0091466 -0.0112548 0.0288703 -0.0246857 0.0112339
internal_weight=13209 10895 5469 2314 5426 1515 4641 2324 1342 961 4127 2317 1766 757 799 1960 961 785 601 624 450 337 327 201 2167 1743 1658 543 1764 913
internal_count=13209 10895 5469 2314 5426 1515 4641 2324 1342 961 4127 2317 1766 757 799 1960 961 785 601 624 450 337 327 201 2167 1743 1658 543 1764 913
is_linear=0
shrinkage=0.05


Tree=9
num_leaves=31
num_cat=0
split_feature=11 5 11 6 5 11 1 7 3 7 2 6 7 6 7 6 7 11 7 5 1 6 1 6 7 5 7 6 7 5
split_gain=1905.13 467.919 438.056 218.562 169.633 168.335 167.833 162.512 105.806 104.772 104.742 93.3641 96.355 93.1119 128.706 150.807 117.339 89.2844 76.661 67.7158 64.7698 64.3085 60.5825 58.1669 41.132 43.1184 40.6671 44.3452 39.2809 37.852
threshold=27.173215168023727 -0.068484132758494312 40.858462504248095 1.0726622376276256 -0.048455330288594146 13.581919144394162 -0.16729607903012242 1.170372394506465 1.0013992674966239 -1.3675306052123488 -0.45773578379269508 -0.55141294425375909 0.60694795645493882 1.0773425695638836 -0.84898067992599369 -0.55141294425375909 0.89115320396765496 65.276131730732757 -0.26561201397883882 -0.015970889093338634 -0.96081350317851411 1.1007442292451721 1.0000000180025095e-35 -0.69650323427774563 1.2351911351672613 -0.088415747101086031 0.96095800160235745 1.0726622376276256 -1.4223772319253325 -0.012830247612736155
decision_type=2 2 2 2 2 2 2 2 2 2 2 2 2 2 2 2 2 2 2 2 2 2 2 2 2 2 2 2 2 2
left_child=1 3 4 7 21 10 8 9 17 -1 -3 12 23 14 28 16 19 -4 -13 -16 -6 24 -14 -11 25 -2 27 29 -7 -22
right_child=2 5 6 -5 20 13 -8 -9 -10 11 -12 18 22 -15 15 -17 -18 -19 -20 -21 26 -23 -24 -25 -26 -27 -28 -29 -30 -31
leaf_value=0.061466464336192884 0.086583942890559373 -0.017628693608420173 0.036936512251624171 -0.023073994422414045 -0.005815882682903983 0.04078322101029612 0.075360034597145964 -0.019287297341928591 -0.010749022861609676 0.071833495484038612 -0.035417975280234708 0.0099967064920263391 -0.00064355310350803759 -0.025295909717842926 0.015127150445105509 -0.033568507217350878 -0.02243079218622239 0.078336708432797234 -0.046501184454266459 -0.0068929089834663341 0.033835432522046648 -0.0069748297935865568 0.033659791210239737 0.024932745325917362 -0.017644520933655174 0.044991660122275137 -0.012454349001902239 -0.0070037221668555628 0.0074897210829032211 0.013100421203203001
leaf_weight=166 76 1838 618 413 494 105 528 254 93 168 1505 389 253 863 625 613 681 165 71 791 429 58 262 109 22 346 114 141 567 452
leaf_count=166 76 1838 618 413 494 105 528 254 93 168 1505 389 253 863 625 613 681 165 71 791 429 58 262 109 22 346 114 141 567 452
internal_value=-9.6043e-11 -0.0114808 0.0314067 0.00949821 0.0171253 -0.0172454 0.0530931 0.0175439 0.039672 0.0241413 -0.0256373 0.0191924 0.0295982 -0.0106365 -0.00689585 -0.011753 -0.00537587 0.0456607 0.00127638 0.0028264 0.00929842 0.0425394 0.0168079 0.053378 0.0490075 0.0524822 0.015871 0.0190306 0.0126918 0.0231973
internal_weight=13209 9673 3536 2085 2132 7588 1404 1672 876 1418 3343 1252 792 4245 3382 2710 2097 783 460 1416 1630 502 515 277 444 422 1136 1022 672 881
internal_count=13209 9673 3536 2085 2132 7588 1404 1672 876 1418 3343 1252 792 4245 3382 2710 2097 783 460 1416 1630 502 515 277 444 422 1136 1022 672 881
is_linear=0
shrinkage=0.05


Tree=10
num_leaves=31
num_cat=0
split_feature=0 0 5 0 0 8 5 0 8 1 5 5 6 7 7 6 1 6 7 7 6 5 0 6 5 6 0 5 6 7
split_gain=2112.1 652.939 346.644 213.468 117.899 116.951 106.566 100.988 99.4344 99.182 92.6162 53.479 45.3486 42.8781 42.0941 41.4977 40.6457 38.6721 50.5597 49.0926 46.3727 45.2379 34.9532 34.5345 34.2103 27.4735 27.455 24.9938 24.3254 26.8397
threshold=0.90571521021809309 -0.36143322799869942 -0.059240180846750402 2.0862935081335787 -0.87594396479096692 0.2288932589395262 -0.03820127453665257 0.33858495229636859 0.30377184134887275 -0.64340653351915733 -0.098405305721905714 -0.046745095152593945 1.1007442292451721 -1.3076979215254625 -1.397446947055794 1.4424084605919749 -0.087944336615283253 -0.56077360812627408 0.94599983068063509 -0.20079327331804267 0.90417028792235221 -0.00064654856717251939 1.4053118312411335 1.0913835653726556 -0.010689641274587275 1.0820229015001421 0.035970191309847292 -0.072050852605102023 -0.45780630552860763 -0.31547258371790898
decision_type=2 2 2 2 2 2 2 2 2 2 2 2 2 2 2 2 2 2 2 2 2 2 2 2 2 2 2 2 2 2
left_child=1 4 9 6 8 28 25 14 -1 -3 -11 16 26 -9 15 -4 -7 18 21 20 -19 -16 -8 24 -15 27 -12 -2 -6 -30
right_child=3 2 7 -5 5 11 22 13 -10 10 12 -13 -14 23 17 -17 -18 19 -20 -21 -22 -23 -24 -25 -26 -27 -28 -29 29 -31
leaf_value=-0.035134556264165652 0.079305066898927218 0.0051027169173104708 0.021011660513175528 0.07624039219891586 -0.015193981207787003 -0.0069639401818109258 0.021187141395155054 0.032106152023840234 -0.0088510367461369418 0.060995129538333692 0.018014620730650115 -0.01245053938610507 -0.0092031568851705433 0.014989890108946712 0.010033101225586059 -0.035585791054062357 0.018344319864055953 0.0038176167100235554 -0.020227318863609192 -0.040211843940493305 -0.020805543097236874 -0.010302662240350757 0.040878769416279721 -0.019130603448259842 -0.0015800678387926155 0.016952940219571482 0.03884071719788617 0.053292849839038148 -0.023337898172544103 -0.040605198814008842
leaf_weight=1735 129 429 191 499 554 303 597 151 454 239 283 949 85 625 552 39 333 280 433 204 603 542 362 144 621 39 359 325 843 307
leaf_count=1735 129 429 191 499 554 303 597 151 454 239 283 949 85 625 552 39 333 280 433 204 603 542 362 144 621 39 359 325 843 307
internal_value=7.745e-12 -0.00832319 0.00339938 0.0480279 -0.020692 -0.0147078 0.0383323 -0.00350699 -0.0296833 0.0251087 0.0339933 -0.00493185 0.0251165 0.00680122 -0.00909242 0.0114147 0.00628708 -0.0108968 -0.00576568 -0.0181049 -0.0129975 -4.18383e-05 0.0286203 0.00405227 0.00673151 0.0572245 0.0296604 0.060684 -0.0238011 -0.0279475
internal_weight=13209 11258 5780 1951 5478 3289 1452 4385 2189 1395 966 1585 727 1541 2844 230 636 2614 1527 1087 883 1094 959 1390 1246 493 642 454 1704 1150
internal_count=13209 11258 5780 1951 5478 3289 1452 4385 2189 1395 966 1585 727 1541 2844 230 636 2614 1527 1087 883 1094 959 1390 1246 493 642 454 1704 1150
is_linear=0
shrinkage=0.05


Tree=11
num_leaves=31
num_cat=0
split_feature=0 0 0 5 5 6 7 8 0 1 0 7 6 7 0 7 8 7 5 6 1 1 5 5 6 1 6 5 7 6
split_gain=1906.2 453.561 373.211 306.542 110.411 104.232 108.115 100.198 84.0331 67.2505 65.9681 50.8225 79.3642 58.1212 42.2606 40.4282 38.5872 36.7946 39.7248 39.9939 34.5494 30.8249 32.5353 28.6576 32.742 25.5893 24.2221 23.6089 22.2117 22.1335
threshold=0.59669368118986132 -0.57598118565777656 1.2907777238725255 -0.058727660218464532 -0.044902877879624055 1.1007442292451721 -1.4074190610036099 0.25811816160972662 2.3773813380942364 -0.16729607903012242 -0.04639878961984626 0.84627869120249122 -0.69650323427774563 0.6019618994810324 -0.82237918280289712 -1.3376142633689077 0.21389972352468378 1.2102608502977226 0.00042372314270195782 1.0633015737551104 -0.96081350317851411 -0.96081350317851411 -0.088415747101086031 -0.0071210103994203489 0.98841626277498873 0.38816611787375183 -0.91179850334559365 0.0031850129662674043 1.2102608502977226 0.91821128373112548
decision_type=2 2 2 2 2 2 2 2 2 2 2 2 2 2 2 2 2 2 2 2 2 2 2 2 2 2 2 2 2 2
left_child=1 7 4 5 21 6 -3 14 9 -4 16 12 13 -8 -1 -12 -5 18 19 -9 -6 -2 -23 24 -17 -15 28 -22 -13 -14
right_child=2 3 8 10 20 -7 11 17 -10 -11 15 26 29 25 -16 23 -18 -19 -20 -21 27 22 -24 -25 -26 -27 -28 -29 -30 -31
leaf_value=-0.035220904725045743 0.016452713227729395 0.061928070379137404 0.037241845756430539 -0.019210362092558747 -0.0003092238617396464 -0.014981185462840989 0.066193060974465381 0.003872929810796821 0.077696438778437321 0.066037635482038365 0.018833670259361768 0.019477913653636079 0.017579964580971257 0.01123089953645421 -0.022090050329619079 0.0060527441610919277 -0.0062450440895012406 -0.034309261091858959 -0.018555800156768016 -0.027857152899065298 0.023804262992816926 0.076792634736844584 0.0402405966956281 -0.010397278724267989 -0.016996149730464247 0.041195539446951424 -0.022701200613608728 0.0064196645782644271 -0.01766397559590507 -0.0032262176757460927
leaf_weight=1374 101 151 516 1429 356 221 134 554 349 334 211 137 364 142 1106 815 959 185 746 121 598 76 306 956 190 143 91 290 57 197
leaf_count=1374 101 151 516 1429 356 221 134 554 349 334 211 137 364 142 1106 815 959 185 746 121 598 76 306 956 190 143 91 290 57 197
internal_value=8.52547e-12 -0.010132 0.0356075 -0.00160521 0.0207285 0.016955 0.0219393 -0.0230641 0.0570387 0.0485569 -0.00826815 0.017166 0.0225706 0.0390349 -0.029365 -0.00196233 -0.0140036 -0.0133343 -0.0106036 -0.00181498 0.0128509 0.0410178 0.0475127 -0.00419994 0.00169524 0.0262658 -0.00141818 0.0181269 0.00856509 0.0102737
internal_weight=13209 10283 2926 6197 1727 1637 1416 4086 1199 850 4560 1265 980 419 2480 2172 2388 1606 1421 675 1244 483 382 1961 1005 285 285 888 194 561
internal_count=13209 10283 2926 6197 1727 1637 1416 4086 1199 850 4560 1265 980 419 2480 2172 2388 1606 1421 675 1244 483 382 1961 1005 285 285 888 194 561
is_linear=0
shrinkage=0.05


Tree=12
num_leaves=31
num_cat=0
split_feature=0 0 5 0 5 5 0 8 5 1 6 1 6 7 5 8 5 6 7 6 7 7 7 6 6 7 6 1 7 6
split_gain=1730.92 540.125 251.147 174.349 153.778 92.7941 86.3796 74.8132 72.6669 71.2319 64.4381 61.0962 57.2194 58.8271 56.5495 46.9955 40.9807 34.5157 33.3018 40.1678 67.7036 32.3911 29.2599 29.2187 28.0641 26.5145 33.0897 25.6201 24.9632 22.5382
threshold=0.90571521021809309 -0.17353637510329403 -0.063409180517837352 2.0161078893815638 -0.074605101101499913 -0.0083355223924960267 -0.72131504266952451 0.29841514790557494 -0.010689641274587275 -0.72275827593399655 1.0913835653726556 -0.087944336615283253 1.0726622376276256 -1.3076979215254625 -0.098405305721905714 0.2288932589395262 -0.055792866744588103 -0.1582650616081214 1.0457209701587826 -0.46716696940112262 -0.45508217898731396 -1.3824887761340714 0.67675275408964131 1.0071375905200188 1.0539409098825956 -0.94870181940413756 -0.51865062069995582 -0.80211001834883577 0.89115320396765496 1.0633015737551104
decision_type=2 2 2 2 2 2 2 2 2 2 2 2 2 2 2 2 2 2 2 2 2 2 2 2 2 2 2 2 2 2
left_child=1 4 9 5 10 16 7 17 12 -3 11 -1 13 -4 -11 -8 24 -6 19 22 -21 -13 -15 -16 -2 29 28 -5 -27 -10
right_child=3 2 8 27 6 -7 15 -9 25 14 -12 21 -14 18 23 -17 -18 -19 -20 20 -22 -23 -24 -25 -26 26 -28 -29 -30 -31
leaf_value=-0.0077831103333712397 0.066974451130406412 0.00795435404083626 0.043074616971028636 0.050886600894684143 -0.024126085142958872 0.017499790510029666 -0.019116181212443371 -0.0089873122194333126 0.01225710159449022 0.061619840904313605 -0.022816436196557363 0.052289046492364447 -0.0099633605833822757 0.02863165544047265 0.035498194102620499 -0.0056892551437866335 0.037272128066552987 -0.037050778748584708 -0.0097905785566509036 0.0099619531855306299 -0.036975426169684029 0.012819993400784291 0.0090941270121770428 0.0053820147897707879 0.012082869285502687 -0.0014092324526441815 -0.025718541292873261 0.074444622733062724 -0.017483659119868319 -0.01458755399632667
leaf_weight=460 223 284 129 165 958 525 1837 469 259 182 258 59 425 349 357 1010 628 1121 226 321 101 437 425 104 26 714 296 384 365 112
leaf_count=460 223 284 129 165 958 525 1837 469 259 182 258 59 425 349 357 1010 628 1121 226 321 101 437 425 104 26 714 296 384 365 112
internal_value=7.36965e-12 -0.0075348 0.00552313 0.0434786 -0.0167202 0.0341254 -0.0203382 -0.0270258 -0.000276568 0.0288095 -0.000642076 0.00534222 0.00629061 0.0107445 0.0380208 -0.0143529 0.0440779 -0.0310951 0.00781157 0.0111377 -0.00127187 0.0175149 0.0179037 0.0287041 0.0612428 -0.00770884 -0.0109094 0.0673643 -0.00684683 0.00415305
internal_weight=13209 11258 4649 1951 6609 1402 5395 2548 3722 927 1214 956 1976 1551 643 2847 877 2079 1422 1196 422 496 774 461 249 1746 1375 549 1079 371
internal_count=13209 11258 4649 1951 6609 1402 5395 2548 3722 927 1214 956 1976 1551 643 2847 877 2079 1422 1196 422 496 774 461 249 1746 1375 549 1079 371
is_linear=0
shrinkage=0.05


Tree=13
num_leaves=31
num_cat=0
split_feature=0 0 0 5 6 7 8 5 1 0 0 7 6 7 0 7 6 5 10 1 8 5 6 6 7 0 7 6 6 7
split_gain=1566.03 400.168 266.841 265.308 89.6629 90.113 84.7 79.5294 70.0601 63.7748 51.2708 43.9737 74.5129 50.7119 41.7499 40.2607 43.7387 38.5933 33.6096 33.2704 30.6208 30.212 28.0616 27.9492 27.4251 26.4369 25.6893 32.0605 24.7537 22.3502
threshold=0.65661271672749622 -0.57598118565777656 1.2907777238725255 -0.058727660218464532 1.1007442292451721 -1.4074190610036099 0.28633818724606902 -0.031364830846333305 -0.56405479110431822 -0.027493572447586347 -1.0179168943054242 0.84129263422858125 -0.69650323427774563 0.6019618994810324 2.727784286932859 -1.1381719844126164 -0.53269161650872909 0.0039844943417453463 -4023.8499999999999 -0.96081350317851411 0.21389972352468378 -0.088415747101086031 1.0633015737551104 -0.1582650616081214 0.61193401342884857 2.0161078893815638 -1.0833253576996362 1.4096461370381717 -0.91179850334559365 0.98588828647189619
decision_type=2 2 2 2 2 2 2 2 2 2 2 2 2 2 2 2 2 2 2 2 2 2 2 2 2 2 2 2 2 2
left_child=1 6 7 4 5 -3 10 19 14 20 -1 12 13 -7 -4 22 17 29 -8 -2 -5 -21 -11 24 -12 -10 27 -25 -13 -17
right_child=2 3 8 9 -6 11 18 -9 25 15 23 28 -14 -15 -16 16 -18 -19 -20 21 -22 -23 -24 26 -26 -27 -28 -29 -30 -31
leaf_value=-0.034513566573077088 0.010942680565081537 0.056157483933669219 0.03136715677818832 -0.017086821982845668 -0.013348862671045937 0.061521497207296487 0.00039573086825598074 0.010265384842775463 0.052362459741209323 0.020346315794742609 0.0061700602986571136 0.0094006208212515305 0.0096899475334015148 0.024924259659419478 0.072298541940646638 0.01270062226233766 -0.016493790029717598 -0.010018515348633628 -0.018895265474904676 0.072179116104685123 -0.0056831519271484457 0.035012902534574696 -0.0042027337007032031 -0.0072336837036430296 -0.017836209256305649 0.071785656304293607 -0.031903415582621733 -0.035327554964673484 -0.021208835936621907 -0.0072285491724144967
leaf_weight=952 125 159 425 1481 224 143 542 870 357 323 137 207 579 280 73 568 533 512 387 63 977 414 182 302 904 344 709 153 97 187
leaf_count=952 125 159 425 1481 224 143 542 870 357 323 137 207 579 280 73 568 533 512 387 63 977 414 182 302 904 344 709 153 97 187
internal_value=3.8089e-12 -0.00866747 0.0341961 -0.000913686 0.0161127 0.0206174 -0.0209111 0.019933 0.0517068 -0.0069514 -0.0248162 0.0162906 0.0213442 0.0372964 0.0373671 -0.000976786 -0.00447692 0.000578323 -0.00764045 0.0339044 -0.0125541 0.0399216 0.0114989 -0.0206294 -0.0146769 0.061894 -0.0259529 -0.0166806 -0.000366212 0.00776452
internal_weight=13209 10538 2671 6452 1689 1465 4086 1472 1199 4763 3157 1306 1002 423 498 2305 1800 1267 929 602 2458 477 505 2205 1041 701 1164 455 304 755
internal_count=13209 10538 2671 6452 1689 1465 4086 1472 1199 4763 3157 1306 1002 423 498 2305 1800 1267 929 602 2458 477 505 2205 1041 701 1164 455 304 755
is_linear=0
shrinkage=0.05


Tree=14
num_leaves=31
num_cat=0
split_feature=0 0 5 0 5 1 6 10 7 6 5 1 6 5 1 6 7 7 10 6 7 6 7 7 6 7 5 7 7 0
split_gain=1416.79 444.624 208.452 142.896 128.721 80.606 74.3526 97.1583 76.1113 88.2307 61.5418 61.4311 53.8289 53.5789 53.0886 47.5819 50.7774 33.8612 35.095 29.8406 29.832 30.1227 28.3555 28.2438 35.0509 58.152 27.0554 26.4982 26.0704 25.3945
threshold=0.90571521021809309 -0.17353637510329403 -0.063409180517837352 2.0862935081335787 -0.074605101101499913 -0.16729607903012242 -0.55141294425375909 -4024.6499999999992 -1.0185066170388402 1.4190068009106882 -0.010689641274587275 -0.96081350317851411 1.348801821866825 -0.090675548223230276 -0.24664782144496158 1.0726622376276256 -1.3076979215254625 -1.397446947055794 -4606.7499999999991 1.0164982543925356 0.95597194462845125 -0.82287219655669874 -1.397446947055794 1.0457209701587826 -0.46716696940112262 -0.45508217898731396 -0.055792866744588103 -0.15591876055287882 0.67675275408964131 -1.1561612948775746
decision_type=2 2 2 2 2 2 2 2 2 2 2 2 2 2 2 2 2 2 2 2 2 2 2 2 2 2 2 2 2 2
left_child=1 4 11 5 12 -2 7 -6 9 17 15 -3 14 19 -1 16 -4 -8 -19 -13 21 -9 -16 24 28 -26 -7 -10 -18 -24
right_child=3 2 10 -5 6 26 8 20 27 -11 -12 13 -14 -15 22 -17 23 18 -20 -21 -22 -23 29 -25 25 -27 -28 -29 -30 -31
leaf_value=-0.0091713039410957018 0.021946458452368867 0.001705354968085885 0.039888694710567482 0.062418506503336593 0.0032977653143543896 0.062994789258537895 0.016137108458933652 -0.00065085979339474926 -0.026086383165479204 -0.034571590998962613 -0.0070929548603675136 0.05531174237006399 -0.026180880665832643 0.022033903418672379 0.042174772591342363 -0.0090317030371413302 0.02663689878646466 -0.019747208074716454 0.005667193447447357 0.0026145160694917048 -0.025700831898393291 -0.018266072621204416 -0.024399705898016693 -0.0090833770800680669 0.0090091719287570936 -0.034491451704266048 0.039051591431309672 -0.039231350596421494 0.0081949195709517791 0.013088660385722343
leaf_weight=446 883 200 129 499 709 167 160 340 977 355 1746 257 174 440 76 425 349 350 222 30 803 848 50 226 321 101 402 631 425 468
leaf_count=446 883 200 129 499 709 167 160 340 977 355 1746 257 174 440 76 425 349 350 222 30 803 848 50 226 321 101 402 631 425 468
internal_value=-1.28868e-11 -0.00681688 0.00503054 0.0393359 -0.0151508 0.0314033 -0.0184609 -0.0125965 -0.0243361 -0.0141163 -0.000253237 0.0262455 -0.000440761 0.0329965 0.00386576 0.00579036 0.00985185 -0.004196 -0.00988358 0.0498033 -0.0182565 -0.0132247 0.0136545 0.00712699 0.0101902 -0.00140211 0.0460789 -0.0312446 0.0165105 0.00947009
internal_weight=13209 11258 4649 1951 6609 1452 5395 2700 2695 1087 3722 927 1214 727 1040 1976 1551 732 572 287 1991 1188 594 1422 1196 422 569 1608 774 518
internal_count=13209 11258 4649 1951 6609 1452 5395 2700 2695 1087 3722 927 1214 727 1040 1976 1551 732 572 287 1991 1188 594 1422 1196 422 569 1608 774 518
is_linear=0
shrinkage=0.05


Tree=15
num_leaves=31
num_cat=0
split_feature=0 0 0 5 5 2 1 1 1 6 0 0 10 1 2 1 7 0 9 5 7 6 7 10 5 4 5 0 5 5
split_gain=1292.78 321.748 262.9 202.073 114.016 74.648 64.0839 60.287 59.7568 51.5971 47.5028 40.0205 38.4316 36.9151 36.4772 36.0889 32.7533 31.789 28.8858 28.1818 27.934 38.5984 30.2146 26.7266 24.3055 22.4173 21.2029 20.9153 19.3028 18.5675
threshold=0.41759300572877128 1.2907777238725255 -0.66344407232555114 -0.076254262251748181 -0.055792866744588103 -0.74647978521608627 -0.32599956385980072 1.4990905116815005 -0.24664782144496158 1.0164982543925356 2.727784286932859 -0.04639878961984626 -4623.1499999999987 1.4990905116815005 -0.2937578096003734 -0.56405479110431822 -1.3575584912645364 -1.0179168943054242 80.500000000000014 -0.00064654856717251939 -1.3176700354732789 1.0867032334363989 0.90112531791547112 -4026.7499999999995 -0.058727660218464532 -0.91638776689050616 0.022147647637333744 -0.243275620672075 -0.088415747101086031 -0.037697850245748128
decision_type=2 2 2 2 2 2 2 2 2 2 2 2 2 2 2 2 2 2 2 2 2 2 2 2 2 2 2 2 2 2
left_child=2 4 5 6 15 23 -4 11 10 12 29 14 -8 20 26 25 -9 -7 -10 -13 -6 22 -22 -1 -19 -2 -5 -14 -17 -3
right_child=1 8 3 7 13 17 9 16 18 -11 -12 19 27 -15 -16 28 -18 24 -20 -21 21 -23 -24 -25 -26 -27 -28 -29 -30 -31
leaf_value=0.0025253517529927197 -0.031946003916673363 0.04864114266179434 0.0010838855184046191 0.00051161506932435766 0.028920815257503597 -0.031109847933365315 0.068979201880075156 0.0353318377415043 0.0060944017395377159 -0.0037832211549227524 0.067529871345751044 0.0019841451015944283 0.01839596451534832 0.048845159082577146 -0.016384721842884368 0.067845889785122585 0.002527003852042577 -0.010518674471117942 0.061061002084641269 -0.011067850804397844 0.012681233421243313 -0.016340362867702938 -0.0046349174379793114 -0.01672951702877493 -0.023685241145906307 0.024802527319398405 -0.01402726595075264 0.040016617795873365 0.039575272776831073 0.025475568334690935
leaf_weight=400 20 109 385 675 151 1029 67 109 25 112 102 1125 242 58 1931 82 252 485 544 654 1184 167 320 328 1264 134 399 208 229 419
leaf_count=400 20 109 385 675 151 1029 67 109 25 112 102 1125 242 58 1931 82 252 485 544 654 1184 167 320 328 1264 134 399 208 229 419
internal_value=-1.4556e-11 0.0258316 -0.00947202 -0.00325024 0.015059 -0.0204018 0.0171504 -0.00727088 0.0469005 0.0269844 0.0362924 -0.00875766 0.0336497 0.00957587 -0.0122764 0.0372274 0.0124321 -0.0241367 0.0586459 -0.00281406 0.0083258 0.00646473 0.00899695 -0.00614992 -0.0200341 0.0174326 -0.0048897 0.0283895 0.0470293 0.0302579
internal_weight=13209 3544 9665 6159 2345 3506 1014 5145 1199 629 630 4784 517 1880 3005 465 361 2778 569 1779 1822 1671 1504 728 1749 154 1074 450 311 528
internal_count=13209 3544 9665 6159 2345 3506 1014 5145 1199 629 630 4784 517 1880 3005 465 361 2778 569 1779 1822 1671 1504 728 1749 154 1074 450 311 528
is_linear=0
shrinkage=0.05


Tree=16
num_leaves=31
num_cat=0
split_feature=0 0 0 5 6 7 5 8 1 0 0 0 7 6 7 7 6 1 7 2 1 5 6 9 6 7 7 6 7 6
split_gain=1167.2 280.578 226.892 201.02 86.3154 80.4507 76.9405 70.2128 53.1404 45.1172 41.1879 40.0557 39.4999 42.3825 56.5546 55.3103 35.8842 33.2046 32.8488 31.8987 28.7308 29.347 28.6742 27.8605 24.0471 40.4327 25.0647 27.3361 35.5582 21.2268
threshold=0.59669368118986132 -0.61977827210684533 1.3239143684161256 -0.054874736502318687 1.1007442292451721 -1.4074190610036099 -0.030323777098900141 0.30377184134887275 -0.087944336615283253 2.727784286932859 -0.04639878961984626 -0.9982502169970594 1.2102608502977226 -0.55141294425375909 0.63686429829838376 -0.91878547756069617 -0.69650323427774563 0.62622134511826943 -1.3475863773167236 -0.46959316828813874 -0.96081350317851411 -0.088415747101086031 0.91821128373112548 70.500000000000014 1.0726622376276256 -1.3276421494210913 0.94599983068063509 -0.55141294425375909 -0.4102076662221501 -0.87903617979179038
decision_type=2 2 2 2 2 2 2 2 2 2 2 2 2 2 2 2 2 2 2 2 2 2 2 2 2 2 2 2 2 2
left_child=1 7 6 4 5 -3 20 11 9 -4 24 -1 13 14 16 22 -7 -16 -12 -13 -2 -22 -15 -10 25 -5 27 -27 -29 -19
right_child=2 3 8 10 -6 12 -8 -9 23 -11 18 19 -14 15 17 -17 -18 29 -20 -21 21 -23 -24 -25 -26 26 -28 28 -30 -31
leaf_value=-0.029048219570770858 0.009642138449364724 0.050405873534849516 0.030180270252125298 0.025373145733258606 -0.012736823371567488 0.04779843911756667 0.0077146354720147416 -0.0032902222427586693 0.0015810688558433737 0.064590153801052472 0.01728110673569366 -0.0085528159396622491 -0.017712580891592163 0.025915482152609071 0.0025030923195096645 -0.027425417614899375 0.015048689915781189 0.057848958749324088 -0.0041279223470261769 -0.021833950838459692 0.062334727328748278 0.029453736309821173 -0.00089226446137763568 0.060477621629569822 -0.021734775089709668 -0.0024569683295609769 -0.021652498034896647 -0.0069842376524250809 -0.033007019715065637 0.015677105042001083
leaf_weight=1164 156 159 555 81 296 245 1021 622 21 115 198 677 98 199 344 111 127 50 1884 1361 78 522 200 458 476 937 410 365 205 74
leaf_count=1164 156 159 555 81 296 245 1021 622 21 115 198 677 98 199 344 111 127 50 1884 1361 78 522 200 458 476 937 410 365 205 74
internal_value=-2.71828e-11 -0.00792839 0.0278632 -0.00157342 0.0120749 0.0166451 0.0166673 -0.0186624 0.0451783 0.0360864 -0.0072742 -0.0216485 0.0129379 0.0151629 0.022066 0.00379315 0.0366177 0.0104992 -0.00209191 -0.0174221 0.0287581 0.0337283 0.012478 0.0578955 -0.0116354 -0.00922931 -0.0106914 -0.00770927 -0.0163433 0.0326819
internal_weight=13209 10283 2926 6459 1903 1607 1777 3824 1149 670 4556 3202 1448 1350 840 510 372 468 2082 2038 756 600 399 479 2474 1998 1917 1507 570 124
internal_count=13209 10283 2926 6459 1903 1607 1777 3824 1149 670 4556 3202 1448 1350 840 510 372 468 2082 2038 756 600 399 479 2474 1998 1917 1507 570 124
is_linear=0
shrinkage=0.05


Tree=17
num_leaves=31
num_cat=0
split_feature=0 0 0 5 5 8 5 6 7 0 6 7 5 5 6 7 7 6 9 6 7 7 10 10 7 6 7 2 6 10
split_gain=1058.19 261.202 214.362 171.225 94.949 69.2213 59.505 56.5849 72.8732 50.4359 39.5376 42.1562 36.1729 30.9365 29.8157 69.878 52.4388 29.4944 26.5057 25.923 26.2476 25.8428 24.4029 24.1693 22.7612 27.5354 26.934 22.1184 21.8651 20.5649
threshold=0.41759300572877128 1.2907777238725255 -0.67806935838797999 -0.084478539809710332 -0.055792866744588103 0.30377184134887275 -0.025021301930335239 1.0726622376276256 -1.3575584912645364 2.3773813380942364 1.0913835653726556 1.1653863375325588 -0.020237970133868317 0.0039844943417453463 -0.55141294425375909 -0.45508217898731396 0.94599983068063509 -0.1582650616081214 143.50000000000003 1.0773425695638836 0.78145995054169493 0.61193401342884857 -4459.7499999999991 -4026.7499999999995 -1.4074190610036099 0.44081742623285119 0.6019618994810324 -0.0097526973467464469 0.91821128373112548 -4740.1499999999987
decision_type=2 2 2 2 2 2 2 2 2 2 2 2 2 2 2 2 2 2 2 2 2 2 2 2 2 2 2 2 2 2
left_child=2 4 5 10 18 17 7 8 -5 12 11 24 28 19 16 -16 -10 21 -2 20 -6 -1 29 -7 -4 26 -26 -28 -3 -19
right_child=1 9 3 6 13 23 -8 -9 14 -11 -12 -13 -14 -15 15 -17 -18 22 -20 -21 -22 -23 -24 -25 25 -27 27 -29 -30 -31
leaf_value=0.0048304237889183702 -0.010017422228702345 0.052173308986098024 0.050728703840147882 0.039173621089991048 0.021211454706093896 0.005602654424402588 -0.011167428736228328 -0.013139335752704949 0.01307650073946664 0.058357965283464097 -0.015157400001771749 -0.0090596728986762787 0.025072483480028458 -0.00052700903019663734 0.0042494302529756441 -0.031203764964649012 -0.010647800551682317 -0.032434518277391813 0.037139697229020795 -0.0036779489964078728 0.00398107235827737 -0.018753280241345188 -0.036876240772267817 -0.014866087678208252 0.04612546701772282 0.0055922707768509211 0.014334467071823257 0.064942623209208253 0.026519795002096946 -0.017878997279586948
leaf_weight=129 32 330 84 135 758 339 2910 671 775 349 80 96 409 616 411 210 333 364 433 194 312 1167 423 251 156 164 215 24 111 728
leaf_count=129 32 330 84 135 758 339 2910 671 775 349 80 96 409 616 411 210 333 364 433 194 312 1167 423 251 156 164 215 24 111 728
internal_value=-3.54564e-11 0.0233707 -0.00856964 -0.00308283 0.0136645 -0.0186753 -0.00628888 -0.000688663 0.00379331 0.042354 0.0182321 0.0218467 0.035783 0.00866075 0.00103082 -0.00773957 0.00594636 -0.0219433 0.0338945 0.0131383 0.0161873 -0.0164058 -0.0266803 -0.00310523 0.026461 0.0228144 0.0299648 0.0194165 0.0457163 -0.0227308
internal_weight=13209 3544 9665 6264 2345 3401 5445 2535 1864 1199 819 739 850 1880 1729 621 1108 2811 465 1264 1070 1296 1515 590 643 559 395 239 441 1092
internal_count=13209 3544 9665 6264 2345 3401 5445 2535 1864 1199 819 739 850 1880 1729 621 1108 2811 465 1264 1070 1296 1515 590 643 559 395 239 441 1092
is_linear=0
shrinkage=0.05


Tree=18
num_leaves=31
num_cat=0
split_feature=0 0 5 0 6 7 5 8 0 7 6 1 6 7 0 5 7 7 5 6 5 0 7 7 6 7 11 6 7 8
split_gain=961.375 263.614 172.8 141.484 72.2739 68.3679 68.245 54.4653 38.8894 35.4632 38.3834 37.0575 35.3914 45.3588 31.5193 29.6338 29.2402 28.8865 30.615 29.3493 28.082 26.8479 24.7896 22.0231 31.9485 21.9082 19.6783 18.8558 27.381 18.4832
threshold=0.73294253106049556 -0.52598738913557808 -0.050195816089251936 1.780869221817291 1.1007442292451721 -1.4074190610036099 -0.0076707119420109321 0.25811816160972662 0.082918147287626004 1.2102608502977226 0.91821128373112548 -0.24664782144496158 1.0773425695638836 0.86123686212421358 -0.82237918280289712 -0.090675548223230276 -1.3376142633689077 1.2102608502977226 1.0000000180025095e-35 1.0633015737551104 -0.072050852605102023 0.29943539840214711 -1.4074190610036099 0.64185035527228995 -0.69650323427774563 0.79641812146341751 18.073921844574976 1.0773425695638836 -1.3276421494210913 0.18092372952990496
decision_type=2 2 2 2 2 2 2 2 2 2 2 2 2 2 2 2 2 2 2 2 2 2 2 2 2 2 2 2 2 2
left_child=1 7 4 6 5 -3 12 14 27 10 11 23 13 20 29 26 -10 18 19 -9 -2 -17 -14 24 -7 -5 -13 28 -4 -1
right_child=3 2 8 25 -6 9 -8 17 16 -11 -12 15 22 -15 -16 21 -18 -19 -20 -21 -22 -23 -24 -25 -26 -27 -28 -29 -30 -31
leaf_value=0.017007805617526173 0.057739148297784572 0.046576569838437935 0.019529293762422063 0.052609073536169594 -0.010410700234250612 0.047001443354701494 0.0076964800189145742 0.0058752724173573821 0.019207737651836528 -0.016084312271594191 -0.0035259511467655709 0.030600868237445192 0.040252095423638827 0.0094801347316120221 -0.014757898877529568 0.01197405313316267 -0.0022449337611367302 -0.027286749227311127 -0.013290582809977565 -0.021026279680370318 0.032459906630088284 0.038373670760585475 -0.013043972107116135 -0.0019502673729969982 0.0078813182555261992 0.032214961899576754 0.062700325822241706 -0.019148909094534306 -0.0089907464090260847 -0.02638079883588167
leaf_weight=25 132 163 88 523 311 71 630 577 175 101 247 155 30 190 1313 380 1720 187 772 123 655 129 80 272 197 176 69 442 1927 1349
leaf_count=25 132 163 88 523 311 71 630 577 175 101 247 155 30 190 1313 380 1720 187 772 123 655 129 80 272 197 176 69 442 1927 1349
internal_value=-7.85345e-12 -0.00638203 3.37425e-05 0.0285104 0.0118319 0.0157094 0.0207903 -0.0158994 -0.00564576 0.0126056 0.0145119 0.0180118 0.0283791 0.0314064 -0.0202976 0.025334 -0.000263816 -0.00877586 -0.00642427 0.00114829 0.0366999 0.0186647 0.00149132 0.00807268 0.0182452 0.0474741 0.0404886 -0.00979667 -0.00774521 -0.0255913
internal_weight=13209 10793 6447 2416 2095 1784 1717 4346 4352 1621 1520 1273 1087 977 2687 733 1895 1659 1472 700 787 509 110 540 268 699 224 2457 2015 1374
internal_count=13209 10793 6447 2416 2095 1784 1717 4346 4352 1621 1520 1273 1087 977 2687 733 1895 1659 1472 700 787 509 110 540 268 699 224 2457 2015 1374
is_linear=0
shrinkage=0.05


Tree=19
num_leaves=31
num_cat=0
split_feature=0 0 5 5 0 6 10 5 5 10 6 1 1 6 6 6 3 10 9 0 0 5 1 5 5 6 1 6 10 0
split_gain=872.575 275.335 129.487 94.0356 89.8258 60.258 85.2953 56.2736 48.7021 46.8798 61.7945 37.386 37.1712 35.2264 32.5348 31.088 26.5725 26.5351 21.5646 20.2699 19.4913 18.6057 18.0374 17.7182 17.3095 19.9765 16.9705 16.7186 25.1655 15.3511
threshold=0.90571521021809309 -0.11398494101067541 -0.037697850245748128 -0.082160271132150769 2.0862935081335787 -0.55141294425375909 -4024.6499999999992 -0.0083355223924960267 -0.11202623167597341 -4459.7499999999991 1.0539409098825956 -0.087944336615283253 -0.72275827593399655 1.1054245611814288 1.2551951831416719 1.1990311999065819 -0.10726186067440789 -4620.9499999999989 416.50000000000011 -0.92278689178445528 -1.1561612948775746 0.011791385826433413 -0.64340653351915733 -0.068484132758494312 0.0031850129662674043 1.3581624857393384 -0.80211001834883577 -0.14422406579934807 -4214.8499999999995 -0.70548192328775683
decision_type=2 2 2 2 2 2 2 2 2 2 2 2 2 2 2 2 2 2 2 2 2 2 2 2 2 2 2 2 2 2
left_child=1 3 8 11 7 6 21 15 26 10 17 -1 -10 23 20 16 -2 18 -7 -8 -13 -5 -18 -14 25 -4 -3 28 -11 -19
right_child=4 2 24 5 -6 9 19 -9 12 27 -12 14 13 -15 -16 -17 22 29 -20 -21 -22 -23 -24 -25 -26 -27 -28 -29 -30 -31
leaf_value=-0.0069561941337067364 0.028005239606516297 0.01553835617050936 0.0033125619050291006 0.012042191246709258 0.049171120793146193 -0.0063516088080272752 -0.021656404803916122 0.011807528171229329 0.0011163970793532326 0.021471386338170206 -0.02193808608053216 -0.017113314946301472 0.030078878693971529 -0.0078886651868284082 -0.022502891399587194 -0.0069983220232340201 0.030437608104812997 -0.018413367802952593 0.032100231484510008 -0.010893058563594675 0.019861610539444241 -0.0034338408795520081 0.055979298680059381 0.016129921830518073 -0.0068164344448921072 -0.016895877088859885 0.058189820884293766 -0.033006924791157077 -0.024719256340908859 -0.0033711592387262804
leaf_weight=517 567 32 1299 446 499 67 604 541 445 36 1299 39 365 115 60 48 110 262 80 1586 414 344 186 605 1154 135 86 624 163 481
leaf_count=517 567 32 1299 446 499 67 604 541 445 36 1299 39 365 115 60 48 110 262 80 1586 414 344 186 605 1154 135 86 624 163 481
internal_value=-4.94822e-12 -0.00534976 0.00471777 -0.011423 0.0308701 -0.0138219 -0.00878097 0.0245807 0.0156727 -0.0188093 -0.0149844 0.00253278 0.0132856 0.0182767 0.0120957 0.0321661 0.0343444 -0.00483525 0.0145746 -0.0138616 0.0166783 0.00530326 0.0464875 0.0213788 -0.00225815 0.00141009 0.0466233 -0.0289825 -0.0163632 -0.00867541
internal_weight=13209 11258 4236 7022 1951 5992 2980 1452 1648 3012 2189 1030 1530 1085 513 911 863 890 147 2190 453 790 296 970 2588 1434 118 823 199 743
internal_count=13209 11258 4236 7022 1951 5992 2980 1452 1648 3012 2189 1030 1530 1085 513 911 863 890 147 2190 453 790 296 970 2588 1434 118 823 199 743
is_linear=0
shrinkage=0.05


Tree=20
num_leaves=31
num_cat=0
split_feature=11 5 11 6 7 1 3 6 7 7 6 7 7 6 5 1 6 7 7 6 5 1 7 6 7 6 7 5 7 6
split_gain=663.888 183.904 149.682 114.205 81.4761 76.6203 63.758 52.1451 88.0695 56.6729 51.6032 114.961 81.2602 73.8426 54.8005 40.8294 39.0673 39.3268 35.1556 41.4873 34.1268 27.1541 23.1115 22.984 36.9497 22.4096 33.2654 21.4103 21.7722 25.4129
threshold=27.173215168023727 -0.055792866744588103 45.350045868945877 1.0633015737551104 0.73658543777653118 0.30881437545891272 1.4784780784540379 -0.69650323427774563 -1.3575584912645364 0.60694795645493882 -0.55141294425375909 -1.0035484461171176 0.89115320396765496 1.4190068009106882 0.029592761117619309 -0.56405479110431822 -0.91179850334559365 1.170372394506465 -1.397446947055794 0.91821128373112548 -0.030323777098900141 -0.64340653351915733 -0.26561201397883882 1.0773425695638836 0.93602771673282248 0.91821128373112548 -1.4074190610036099 -0.072050852605102023 -1.1980046680995027 -0.51865062069995582
decision_type=2 2 2 2 2 2 2 2 2 2 2 2 2 2 2 2 2 2 2 2 2 2 2 2 2 2 2 2 2 2
left_child=1 3 5 4 7 23 15 9 -9 -1 12 13 14 18 -3 -4 17 21 -12 -20 25 -6 -13 24 27 -7 -27 -2 -29 -30
right_child=2 10 6 -5 16 20 -8 8 -10 -11 11 22 -14 -15 -16 -17 -18 -19 19 -21 -22 -23 -24 -25 -26 26 -28 28 29 -31
leaf_value=0.050236446864437317 0.042532719632921122 0.004133556626429581 0.026311434103081822 -0.014235861456662301 0.0023139799547078478 0.03999085662785723 -0.005902147559833754 0.039157764256233352 0.0021079554857562559 0.015473141085712253 0.015738796849413591 -0.019684113658985623 -0.018873360221158327 -0.027284078540514813 -0.010341144284301072 0.046641077681933318 -0.019390701776053218 -0.0084565302085604904 0.0084861333455121674 -0.01410985335264666 0.012072707202683547 0.041292319085288756 -0.031485905724879588 -0.0066405260589794601 -0.0048264308475507159 0.050294411095480135 -0.0028701841655899498 0.030524341147819552 0.016793144348998774 -0.0014691662032689367
leaf_weight=195 60 1420 445 668 86 335 92 200 810 294 281 954 1070 306 1212 555 276 238 348 488 327 93 734 314 379 45 85 131 418 350
leaf_count=195 60 1420 445 668 86 335 92 200 810 294 281 954 1070 306 1212 555 276 238 348 488 327 93 734 314 379 45 85 131 418 350
internal_value=7.09038e-12 -0.00677732 0.0185399 0.00386341 0.00937906 0.0116635 0.0339298 0.0159334 0.00944455 0.0293358 -0.0112441 -0.015991 -0.00725508 -0.00552267 -0.00253185 0.0375944 -0.00479841 0.00485979 0.000438825 -0.00470387 0.0244495 0.0225653 -0.0248159 0.00553368 0.0083907 0.0331532 0.0155329 0.0136142 0.0116841 0.00847048
internal_weight=13209 9673 3536 2860 2192 2444 1092 1499 1010 489 6813 3111 3702 1423 2632 1000 693 417 1117 836 792 179 1688 1652 1338 465 130 959 899 768
internal_count=13209 9673 3536 2860 2192 2444 1092 1499 1010 489 6813 3111 3702 1423 2632 1000 693 417 1117 836 792 179 1688 1652 1338 465 130 959 899 768
is_linear=0
shrinkage=0.05


Tree=21
num_leaves=31
num_cat=0
split_feature=11 5 11 6 1 7 5 1 6 7 7 6 5 7 6 7 7 3 6 7 6 11 6 1 6 7 7 6 6 7
split_gain=599.159 165.974 136.605 105.001 66.8452 65.1017 65.019 48.7733 46.5719 103.752 73.3373 66.643 49.4574 46.4689 79.1006 48.4941 43.2278 38.3057 37.4914 31.7279 37.4423 31.6703 31.4353 30.3587 26.1476 25.896 22.7283 22.7068 21.8274 21.2599
threshold=27.173215168023727 -0.055792866744588103 40.858462504248095 1.348801821866825 -0.16729607903012242 1.2102608502977226 -0.048455330288594146 -0.72275827593399655 -0.55141294425375909 -1.0035484461171176 0.89115320396765496 1.4190068009106882 0.029592761117619309 -1.397446947055794 -0.55141294425375909 -0.96365999032586014 0.61193401342884857 1.0013992674966239 0.91821128373112548 -1.397446947055794 0.91821128373112548 73.811341813898721 -0.93988049496313864 -0.96081350317851411 1.0820229015001421 0.95597194462845125 0.96095800160235745 -0.69650323427774563 1.0726622376276256 1.2351911351672613
decision_type=2 2 2 2 2 2 2 2 2 2 2 2 2 2 2 2 2 2 2 2 2 2 2 2 2 2 2 2 2 2
left_child=1 3 6 5 17 7 24 -1 10 11 12 19 -3 -9 16 18 27 21 -16 -10 -21 -4 -18 -8 29 -24 28 -15 -25 -2
right_child=2 8 4 -5 -6 -7 23 13 9 -11 -12 -13 -14 14 15 -17 22 -19 -20 20 -22 -23 25 26 -26 -27 -28 -29 -30 -31
leaf_value=-0.0024891504636326933 0.032445906674575843 0.0039268788060769413 0.021075278579776036 -0.020262600519146204 0.043775836080153979 -0.018008464094767317 -0.0055555831045744214 0.034876807981479852 0.014951856890995738 -0.023575139008301049 -0.017929692157649189 -0.025919874774800386 -0.0098240870125574468 0.046256491587234612 0.023856985943391921 -0.025640325438386454 0.033770821744379086 -0.0090849584639472996 -0.0062196208036451525 0.0080618265718578781 -0.013404360693687625 0.051598383713820854 0.0096504710072148753 0.014577210127588371 -0.0034568924347267434 -0.033237020432566981 -0.011883811594044235 0.017416406746598938 -0.0066112517369316618 -0.018001104458446868
leaf_weight=573 412 1420 686 395 528 227 494 238 281 1688 1070 306 1212 195 175 168 130 93 254 348 488 97 361 881 68 39 114 105 141 22
leaf_count=573 412 1420 686 395 528 227 494 238 281 1688 1070 306 1212 195 175 168 130 93 254 348 488 97 361 881 68 39 114 105 141 22
internal_value=-3.59528e-11 -0.00643845 0.0176129 0.00367024 0.0297232 0.00750532 0.00963778 0.0100932 -0.0106819 -0.0151915 -0.00689233 -0.00524654 -0.00240525 0.0144233 0.011012 -0.00286832 0.0209958 0.0212532 0.00604939 0.000416884 -0.00446868 0.0248566 0.0124109 0.0047921 0.0253718 0.00546894 0.00929188 0.0361625 0.0116539 0.0298887
internal_weight=13209 9673 3536 2860 1404 2465 2132 2238 6813 3111 3702 1423 2632 1665 1427 597 830 876 429 1117 836 783 530 1630 502 400 1136 300 1022 434
internal_count=13209 9673 3536 2860 1404 2465 2132 2238 6813 3111 3702 1423 2632 1665 1427 597 830 876 429 1117 836 783 530 1630 502 400 1136 300 1022 434
is_linear=0
shrinkage=0.05


Tree=22
num_leaves=31
num_cat=0
split_feature=0 0 5 0 5 1 5 0 8 9 1 1 8 7 6 7 10 1 6 6 10 5 7 6 6 7 6 6 0 8
split_gain=654.913 232.249 106.071 72.5644 62.1904 54.6769 42.9136 39.838 35.7693 31.736 29.6972 28.9871 28.7557 26.0993 31.1195 35.0977 28.2847 21.8616 23.9284 21.5557 21.1804 19.9057 18.8271 20.6275 18.6186 21.3861 17.5872 16.9477 16.8908 15.0769
threshold=1.0263935131676853 -0.11398494101067541 -0.038629722729320158 -0.87594396479096692 -0.08332499770761452 -0.16729607903012242 -0.090675548223230276 2.727784286932859 0.30377184134887275 70.500000000000014 -0.96081350317851411 -0.72275827593399655 0.2288932589395262 -1.1381719844126164 -0.46716696940112262 -0.26561201397883882 -4023.8499999999999 -0.64340653351915733 1.1054245611814288 0.76376032983462572 -4031.9499999999994 -0.049740672489386205 -1.3675306052123488 0.91821128373112548 -0.81819186462044213 0.64185035527228995 1.0633015737551104 1.0164982543925356 2.0161078893815638 0.18176905244856567
decision_type=2 2 2 2 2 2 2 2 2 2 2 2 2 2 2 2 2 2 2 2 2 2 2 2 2 2 2 2 2 2
left_child=1 3 6 8 11 7 10 21 29 -7 -3 -5 -6 26 16 19 20 -8 22 -16 -15 -2 -19 -24 25 -18 -4 -12 -11 -1
right_child=5 2 13 4 12 9 17 -9 -10 28 27 -13 -14 14 15 -17 24 18 -20 -21 -22 -23 23 -25 -26 -27 -28 -29 -30 -31
leaf_value=0.022382581173442304 0.036884433056554221 0.0047670203737568027 0.014782692442947968 -0.0096382194787592579 -0.012135264088547487 -0.013752272311184142 0.00065971364440520121 0.049633204898034987 -0.0050144330079160589 0.035527132339541134 0.042858411684835285 0.013345311640398561 -0.0035378872541487008 0.0058541790139421471 0.011464166645637612 -0.035604530641053254 0.035242905615027562 0.038655907734698881 -0.007664696842423319 -0.013134220067910207 0.035506912540287192 0.014716332954368345 0.01856404250949021 -0.0035575179991818324 -0.011621443819280507 -0.0011261041520257723 -0.0036438740884875928 -0.00045250516012310983 0.05170050534533175 -0.021281909127512665
leaf_weight=20 117 86 364 187 2564 27 400 110 454 437 234 515 1567 344 119 138 43 93 107 354 73 753 619 127 486 674 201 25 256 1715
leaf_count=20 117 86 364 187 2564 27 400 110 454 437 234 515 1567 344 119 138 43 93 107 354 73 753 619 127 486 674 201 25 256 1715
internal_value=1.92477e-11 -0.0042789 0.00460657 -0.00995665 -0.00653594 0.0289682 0.0144918 0.0212822 -0.0175091 0.0394297 0.0302247 0.00722292 -0.00887405 -0.00137194 -0.00380297 -0.0134185 -0.000176376 0.0104592 0.0146028 -0.00694562 0.0110452 0.0176976 0.0174426 0.014798 -0.00406614 0.00105502 0.0082274 0.0386778 0.0415017 -0.0207786
internal_weight=13209 11509 4487 7022 4833 1700 1691 980 2189 720 345 702 4131 2796 2231 611 1620 1346 946 473 417 870 839 746 1203 717 565 259 693 1735
internal_count=13209 11509 4487 7022 4833 1700 1691 980 2189 720 345 702 4131 2796 2231 611 1620 1346 946 473 417 870 839 746 1203 717 565 259 693 1735
is_linear=0
shrinkage=0.05


Tree=23
num_leaves=31
num_cat=0
split_feature=0 0 0 5 5 7 10 8 10 7 7 10 7 1 1 7 7 10 7 10 10 7 1 5 1 4 7 0 10 10
split_gain=592.623 148.89 130.038 100.919 59.0869 45.5807 52.2164 43.325 35.3982 69.8823 57.9587 40.0517 38.3065 34.1215 34.0552 26.7412 26.3651 23.3081 25.1075 23.2218 23.0342 25.2729 21.0002 18.8915 17.3819 17.035 16.4974 16.4477 15.9901 15.3044
threshold=0.41759300572877128 1.2907777238725255 -0.72131504266952451 -0.091892299417514409 -0.055792866744588103 -1.397446947055794 -4727.9499999999989 0.31024458120713444 -4161.9999999999991 0.64683641224619637 -0.23569567213539391 -4599.0499999999993 -0.84898067992599369 -0.80211001834883577 -0.16729607903012242 0.94599983068063509 -1.3176700354732789 -3970.7999999999997 1.5193963826799741 -3968.3999999999996 -4575.5499999999993 0.84129263422858125 -0.56405479110431822 0.0039844943417453463 1.4990905116815005 -0.91638776689050616 -1.2777815796820213 0.022815311027483104 -4026.7499999999995 -4125.2499999999991
decision_type=2 2 2 2 2 2 2 2 2 2 2 2 2 2 2 2 2 2 2 2 2 2 2 2 2 2 2 2 2 2
left_child=2 4 7 14 22 6 -5 29 10 -10 11 -7 26 -3 -4 19 -6 -17 -19 -11 -18 24 25 -15 -22 -2 -13 -16 -9 -1
right_child=1 13 3 5 16 8 -8 28 9 15 -12 12 -14 23 27 17 20 18 -20 -21 21 -23 -24 -25 -26 -27 -28 -29 -30 -31
leaf_value=-0.02100606003038126 -0.032024347931146627 0.020228576717325992 0.0031903589769397807 -0.017335748490586413 0.024754623078638099 -0.013484509054810133 0.019845786185263326 0.0060368844869317711 0.010897731898513546 -0.0035796254130047896 -0.028774299484211951 0.039135004964985211 -0.011919672504007378 0.041110788641882286 0.020265335257155695 -0.023784334863272048 -0.008030223747727409 -0.0032873029158178796 -0.034650476991313781 0.031777452822037353 0.010157671516354185 -0.0034878592228742853 0.033597184388547946 0.018847372892130742 0.048196304508394773 0.01744468225054999 0.0070726419160920349 0.045451246631185875 -0.012195840563505816 -0.013269477828436897
leaf_weight=1412 20 415 298 128 174 1076 360 295 750 1428 368 44 337 673 296 336 309 507 73 48 962 404 311 111 31 134 455 83 203 1168
leaf_count=1412 20 415 298 128 174 1076 360 295 750 1428 368 44 337 673 296 336 309 507 73 48 962 404 311 111 31 134 455 83 203 1168
internal_value=4.29213e-11 0.0174895 -0.00641313 -0.00244857 0.0101614 -0.00454323 0.0100933 -0.0148974 -0.00586057 -0.00241909 -0.0106032 -0.00710579 0.00110414 0.0318219 0.0158371 -0.00659451 0.00621417 -0.0133053 -0.00723474 -0.0024298 0.00432317 0.0070556 0.0261201 0.0379587 0.0113452 0.0110201 0.00989978 0.025781 -0.00139533 -0.0175036
internal_weight=13209 3544 9665 6587 2345 5910 488 3078 5422 3142 2280 1912 836 1199 677 2392 1880 916 580 1476 1706 1397 465 784 993 154 499 379 498 2580
internal_count=13209 3544 9665 6587 2345 5910 488 3078 5422 3142 2280 1912 836 1199 677 2392 1880 916 580 1476 1706 1397 465 784 993 154 499 379 498 2580
is_linear=0
shrinkage=0.05


Tree=24
num_leaves=31
num_cat=0
split_feature=0 0 5 0 0 5 8 5 2 1 1 7 10 7 1 7 10 7 10 7 10 0 7 10 4 8 5 7 9 0
split_gain=537.745 192.671 108.628 47.6004 47.4463 46.8765 40.6267 38.5391 29.8019 27.3842 24.2955 23.8533 24.5642 23.7785 22.9105 22.1023 18.3726 28.866 18.8339 20.5823 19.6551 17.5537 15.493 15.3972 14.9321 13.6106 13.3651 12.891 12.7711 13.7231
threshold=1.0263935131676853 -0.26850883414782739 -0.025021301930335239 2.0862935081335787 -0.87594396479096692 -0.090675548223230276 0.23771930875557634 -0.063409180517837352 -0.8161581366430567 -0.087944336615283253 -0.72275827593399655 0.64683641224619637 -4036.3499999999999 0.58700372855931005 -0.16729607903012242 -1.397446947055794 -4629.9499999999989 -1.3276421494210913 -4581.5499999999993 0.88118109001984235 -3978.1999999999994 0.37736690474557383 -1.397446947055794 -4727.9499999999989 -0.80821043556343064 0.18176905244856567 -0.053099951172105357 -1.3276421494210913 50.500000000000007 2.727784286932859
decision_type=2 2 2 2 2 2 2 2 2 2 2 2 2 2 2 2 2 2 2 2 2 2 2 2 2 2 2 2 2 2
left_child=1 4 5 7 8 9 26 -2 -1 24 -7 12 15 -14 27 -8 22 -18 -19 -20 -21 -4 23 -12 -3 -10 -6 -9 -5 -30
right_child=3 2 21 28 6 10 11 14 25 -11 16 -13 13 -15 -16 -17 17 18 19 20 -22 -23 -24 -25 -26 -27 -28 -29 29 -31
leaf_value=-0.0042057636050281009 0.044747214265973181 -0.021763216309981154 -0.0074572482373332612 8.3210635930299764e-05 -0.0048217986224023297 -0.0010529889895685763 0.024730908243757926 0.038829592154139565 0.0221977054188028 0.036957688524905184 -0.023075486500747505 -0.0066354391333843929 0.052373153680658091 0.011483346243797203 0.027394732488651343 -0.003370555383175225 0.032848982477433106 -0.0072560106140306798 0.015273604029507918 -0.034007103850201864 0.0060501288322439379 0.00079883757811015582 -0.009371536341798976 0.026591496581775727 0.01717538392142481 -0.019286729705381461 -0.013108547384753087 0.010227665112617516 0.03272990437456403 0.049669408007403437
leaf_weight=436 148 28 1635 20 682 666 82 42 20 225 20 728 47 146 376 477 157 139 899 41 121 1062 192 71 204 1733 1698 635 249 230
leaf_count=436 148 28 1635 20 682 666 82 42 20 225 20 728 47 146 376 477 157 139 899 41 121 1062 192 71 204 1733 1698 635 249 230
internal_value=-3.4845e-11 -0.0038773 0.00293204 0.0262493 -0.0100236 0.00989982 -0.00668888 0.0208563 -0.0159039 0.0245293 0.00700057 -0.000183996 0.00606155 0.021441 0.0174984 0.000751663 0.0102711 0.0126879 0.0100501 0.0123174 -0.00408781 -0.00420624 -0.00131749 0.0156757 0.0124759 -0.0188134 -0.0107339 0.0120021 0.0392292 0.0408637
internal_weight=13209 11509 5460 1700 6049 2763 3860 1201 2189 457 2306 1480 752 193 1053 559 1640 1357 1200 1061 162 2697 283 91 232 1753 2380 677 499 479
internal_count=13209 11509 5460 1700 6049 2763 3860 1201 2189 457 2306 1480 752 193 1053 559 1640 1357 1200 1061 162 2697 283 91 232 1753 2380 677 499 479
is_linear=0
shrinkage=0.05


Tree=25
num_leaves=31
num_cat=0
split_feature=0 0 0 5 5 5 8 1 6 10 1 1 3 3 6 10 4 10 10 6 6 6 10 10 6 10 6 6 6 1
split_gain=487.709 128.16 102.237 78.7925 58.0391 38.6345 36.4224 30.6446 30.6013 27.8245 24.7792 20.4061 26.0405 19.8024 18.9522 19.3537 17.6361 16.8407 16.3781 15.7785 15.3131 15.2911 34.3556 28.2681 16.995 19.4754 16.2868 15.3794 15.1209 14.9789
threshold=0.37736690474557383 1.4053118312411335 -0.66344407232555114 -0.090675548223230276 -0.031364830846333305 -0.025021301930335239 0.30377184134887275 -0.72275827593399655 1.0726622376276256 -4620.9499999999989 -0.88146176076367488 -0.56405479110431822 -0.11500970895300276 0.26497885784681957 -0.1582650616081214 -4025.3499999999999 -0.88120814694674177 -4459.7499999999991 -4023.1499999999992 1.0118179224562771 1.1147852250539454 -0.55141294425375909 -4435.3999999999987 -4022.4499999999994 -0.72926555783154723 -4030.5499999999997 0.91821128373112548 -0.79947053687541214 1.0164982543925356 1.8164974813408572
decision_type=2 2 2 2 2 2 2 2 2 2 2 2 2 2 2 2 2 2 2 2 2 2 2 2 2 2 2 2 2 2
left_child=2 4 6 7 11 8 14 -4 9 19 -3 -2 -13 16 15 -1 -9 -16 -8 -5 -12 23 26 24 25 -11 -23 -25 -18 -6
right_child=1 10 3 5 29 -7 18 13 -10 21 20 12 -14 -15 17 -17 28 -19 -20 -21 -22 22 -24 27 -26 -27 -28 -29 -30 -31
leaf_value=0.00090522931522115128 0.0082334906079460559 0.018448034151501602 -0.0023758246713667793 0.039456109694538666 0.0028093101227674522 -0.0081075021944345422 0.0047070803808720897 -0.020938085112720731 -0.0087883390776671462 0.071452041944632158 0.036421510059284103 0.015859639087262147 0.035142049207054785 0.063121521362551933 -0.015625863320720784 -0.013823028810216806 0.025204285459459894 -0.02723114793964972 -0.012604738120700149 0.0047546182004523209 -0.007937917597591878 0.013358507574607223 -0.020566320922780591 0.0034565601142561978 0.010393850186219659 0.020573291782228113 -0.0062370551412000682 -0.013994482713073894 -0.0044517452467461019 0.045322998546041729
leaf_weight=282 340 315 189 81 1547 2779 381 26 671 26 714 473 278 27 1131 1067 350 432 213 55 20 222 214 560 312 68 203 163 49 21
leaf_count=282 340 315 189 81 1547 2779 381 26 671 26 714 473 278 27 1131 1067 350 432 213 55 20 222 214 560 312 68 203 163 49 21
internal_value=1.82989e-11 0.0153791 -0.00600206 -0.00203563 0.00954053 -0.00401902 -0.0127844 0.0145308 0.000393374 0.00362916 0.0301786 0.0183964 0.0229975 0.0216001 -0.0150861 -0.0107442 0.0189623 -0.0188335 -0.00150069 0.0254224 0.0352128 0.00195275 -0.00422805 0.00545101 0.0160089 0.0346461 0.00399874 -0.000477769 0.0215623 0.00337869
internal_weight=13209 3708 9501 5995 2659 5354 3506 641 2575 1904 1049 1091 751 452 2912 1349 425 1563 594 136 734 1768 639 1129 406 94 425 723 399 1568
internal_count=13209 3708 9501 5995 2659 5354 3506 641 2575 1904 1049 1091 751 452 2912 1349 425 1563 594 136 734 1768 639 1129 406 94 425 723 399 1568
is_linear=0
shrinkage=0.05


Tree=26
num_leaves=31
num_cat=0
split_feature=0 0 5 0 6 10 5 6 7 7 6 7 6 7 7 6 7 6 7 6 6 6 7 7 6 3 6 7 10 7
split_gain=442.766 129.399 88.7455 69.8119 46.2269 56.5624 40.1669 32.5648 56.3897 36.8594 39.8617 29.1029 37.1568 35.5341 26.486 28.3426 22.9469 26.0682 28.9454 55.7253 22.386 22.1135 30.0238 21.9968 20.0331 19.6829 19.4899 19.1037 18.5887 17.2448
threshold=0.73294253106049556 -0.52598738913557808 -0.041671020968390475 1.780869221817291 1.0164982543925356 -4624.1499999999987 -0.0076707119420109321 -0.1582650616081214 0.63686429829838376 -1.0633811298040039 1.4096461370381717 0.84627869120249122 -0.68714257040522886 0.60694795645493882 -0.93872970545632139 -0.1582650616081214 0.89115320396765496 1.0726622376276256 -0.84898067992599369 -0.1582650616081214 -0.91179850334559365 1.0773425695638836 0.86123686212421358 1.574243009392954 -0.93988049496313864 0.013318755151958945 -0.91647883528185192 -1.4074190610036099 -3833.2499999999995 -1.397446947055794
decision_type=2 2 2 2 2 2 2 2 2 2 2 2 2 2 2 2 2 2 2 2 2 2 2 2 2 2 2 2 2 2
left_child=1 7 4 6 5 -3 21 8 -1 10 29 12 13 -7 -14 -16 17 18 -4 -20 -13 22 25 -10 -15 -2 28 -23 -18 -9
right_child=3 2 16 -5 -6 11 -8 9 23 -11 -12 20 14 24 15 -17 26 -19 19 -21 -22 27 -24 -25 -26 -27 -28 -29 -30 -31
leaf_value=0.0091915291604982071 0.023361507098462863 0.049843230487571825 0.0090524982616395737 0.032669268781027806 -0.0050319837966373753 0.036739116390859729 0.0038800781986517703 0.016089209748897701 -0.0094266785547666588 -0.021057252683883448 -0.02248884678743027 0.0063779326838110844 0.012536576859328531 0.061793013685382904 0.0048440712579452486 -0.027426449663691083 0.0044136331187682185 -0.011827407719508288 0.00039719421130807083 -0.022035100671440409 -0.017544825196424439 0.032520190862317881 0.0043015412677165216 -0.034024063133013746 0.010621864347892482 0.046710864958899596 -0.020802920785412668 -0.014266225651372226 -0.018651227590063931 -0.0046113192641864314
leaf_weight=442 683 90 608 699 572 236 630 130 1708 1228 297 271 451 20 190 106 227 630 1618 334 153 30 190 96 438 104 361 80 142 445
leaf_count=442 683 90 608 699 572 236 630 130 1708 1228 297 271 451 20 190 106 227 630 1618 334 153 30 190 96 438 104 361 80 142 445
internal_value=-1.61628e-11 -0.00433111 0.000163897 0.0193484 0.00747032 0.0111283 0.0139254 -0.0109992 -0.00681408 -0.0154752 -0.00761425 0.00926 0.012648 0.0209779 0.00490919 -0.00671226 -0.00454613 -0.00271612 -0.000473885 -0.00344112 -0.00225457 0.0197474 0.0221404 -0.0107356 0.0128564 0.0264471 -0.0125431 -0.00150629 -0.00446228 6.88003e-05
internal_weight=13209 10793 6447 2416 2527 1955 1717 4346 2246 2100 872 1865 1441 694 747 296 3920 3190 2560 1952 424 1087 977 1804 458 787 730 110 369 575
internal_count=13209 10793 6447 2416 2527 1955 1717 4346 2246 2100 872 1865 1441 694 747 296 3920 3190 2560 1952 424 1087 977 1804 458 787 730 110 369 575
is_linear=0
shrinkage=0.05


Tree=27
num_leaves=31
num_cat=0
split_feature=0 0 5 5 6 0 7 5 7 7 6 7 7 1 6 10 6 7 7 6 6 5 6 6 6 1 6 7 10 5
split_gain=402.699 143.816 71.3304 50.7118 46.621 39.2904 33.8633 31.4595 30.7663 27.6414 28.6596 44.6117 29.2857 26.8134 25.8224 37.133 23.9858 28.463 23.655 22.6906 21.1345 21.1327 20.3721 19.1828 18.0206 17.8763 16.9106 15.6688 15.6202 15.301
threshold=0.99546247729418225 -0.11398494101067541 -0.068484132758494312 -0.042530550379026942 1.0539409098825956 2.3773813380942364 -1.3575584912645364 -0.055792866744588103 -1.3076979215254625 1.2252190212194451 -0.48120796520989589 -0.49995669175248136 0.63686429829838376 -0.96081350317851411 -0.56545394006253236 -4023.1499999999992 0.93225227953989886 0.89115320396765496 -0.23569567213539391 -0.91179850334559365 1.0164982543925356 -0.015970889093338634 0.90417028792235221 1.4424084605919749 1.0539409098825956 0.30881437545891272 1.0118179224562771 -1.3276421494210913 -3858.9499999999994 -0.1359320700947268
decision_type=2 2 2 2 2 2 2 2 2 2 2 2 2 2 2 2 2 2 2 2 2 2 2 2 2 2 2 2 2 2
left_child=1 3 13 4 6 7 -1 26 23 10 12 22 -8 -3 15 -5 17 21 24 28 -15 -10 -12 -4 27 -9 -2 -16 -19 -14
right_child=5 2 8 14 -6 -7 9 25 16 -11 11 -13 29 20 18 -17 -18 19 -20 -21 -22 -23 -24 -25 -26 -27 -28 -29 -30 -31
leaf_value=0.028503049543983902 0.040903129955304082 0.00056963671529449008 0.01653772718970398 0.0023338270801052984 -0.012607456007690851 0.037350499954169357 0.019451905554720483 0.011683000949130865 0.0095463685163559783 -0.015854990272403401 0.01678993155729476 -0.023271853065837109 -0.033665283955633639 0.027560054238779719 0.0098109386377206939 -0.011582504530534396 -0.010056495840503596 0.01297021917655204 -0.024273130299549653 -0.01882293813429867 0.0020154389020587719 -0.00062013091637554878 -0.0058935061078368416 -0.024957436999926967 -0.017693639408500876 0.026384486159594319 0.0070248944229549838 -0.0098099111885838232 -0.0081742319229126045 0.0030548243932947837
leaf_weight=112 203 172 389 665 794 349 356 883 941 234 182 228 30 466 123 1717 579 144 547 277 98 1119 217 30 706 270 45 589 222 522
leaf_count=112 203 172 389 665 794 349 356 883 941 234 182 228 30 466 123 1717 579 144 547 277 98 1119 217 30 706 270 45 589 222 522
internal_value=1.09354e-11 -0.0034117 0.003635 -0.00786431 -0.00244771 0.0223398 0.00184089 0.0186005 0.000807897 0.000152835 0.00259312 -0.00562856 0.00827042 0.0178512 -0.0111975 -0.00769738 -0.000820971 0.00115734 -0.0154404 -0.00802632 0.0231215 0.00402389 0.00445333 0.0135667 -0.0120331 0.0151257 0.0347559 -0.00642035 0.000144896 0.00105917
internal_weight=13209 11459 4437 7022 2675 1750 1881 1401 3701 1769 1535 627 908 736 4347 2382 3282 2703 1965 643 564 2060 399 419 1418 1153 248 712 366 552
internal_count=13209 11459 4437 7022 2675 1750 1881 1401 3701 1769 1535 627 908 736 4347 2382 3282 2703 1965 643 564 2060 399 419 1418 1153 248 712 366 552
is_linear=0
shrinkage=0.05


Tree=28
num_leaves=31
num_cat=0
split_feature=0 0 5 6 7 5 6 7 7 6 7 6 6 10 7 6 0 7 1 7 9 3 7 6 7 6 1 6 10 7
split_gain=366.547 94.3312 80.7815 75.8697 61.1653 52.1758 41.7908 70.9498 56.272 35.766 26.9532 25.7154 23.9424 38.0436 22.6837 22.8472 22.5656 21.8269 20.9265 19.8098 19.1078 22.0851 18.8655 21.1512 18.0436 25.7975 17.8551 15.9754 16.2222 15.2495
threshold=0.3919659335619301 1.5671352387864637 -0.025021301930335239 1.348801821866825 -1.4074190610036099 -0.044902877879624055 -0.56077360812627408 0.63686429829838376 -0.96365999032586014 0.91821128373112548 1.2102608502977226 -0.91179850334559365 -0.69650323427774563 -4029.2499999999995 -1.3675306052123488 1.0867032334363989 -0.85349401939890823 0.91109743186328374 1.4197387692666614 0.90112531791547112 197.50000000000006 -0.13438677949910482 0.8014041784373237 1.1990311999065819 0.58201767158540363 -0.82287219655669874 -0.56405479110431822 -0.14422406579934807 -4023.1499999999992 0.89115320396765496
decision_type=2 2 2 2 2 2 2 2 2 2 2 2 2 2 2 2 2 2 2 2 2 2 2 2 2 2 2 2 2 2
left_child=2 5 3 4 18 20 7 12 9 -8 11 -9 13 -6 -7 19 27 -13 -1 -16 -2 -22 23 -3 -15 -26 -23 28 -4 -18
right_child=1 22 16 -5 6 14 8 10 -10 -11 -12 17 -14 24 15 -17 29 -19 -20 -21 21 26 -24 -25 25 -27 -28 -29 -30 -31
leaf_value=0.011161416682940073 -0.0029725984911675805 0.034245771446904126 -0.00049612898664381925 -0.014419500758163551 0.042671479399311041 0.025980639186132106 0.016733875370505531 0.015344825053718378 -0.016193003142697296 -0.0049535705735238023 -0.012229311302164857 0.0021745888872481286 0.0068705409487603971 0.040923277537027999 0.0080429112711311521 -0.013067806554225056 -0.005928572925615056 -0.019818261551138548 0.035601558938985638 -0.0052544118659683357 0.013130961411507228 0.018129374777833353 0.015597167908268325 -0.016797374521515199 0.038711180624256776 -0.0069491984986049665 0.040203756326916334 -0.021812637067539664 -0.01553581780866756 -0.014428911794688885
leaf_weight=195 81 605 262 818 187 119 301 299 712 516 405 581 265 42 1356 188 2748 140 159 353 325 158 223 21 41 126 218 544 568 653
leaf_count=195 81 605 262 818 187 119 301 299 712 516 405 581 265 42 1356 188 2748 140 159 353 325 158 223 21 41 126 218 544 568 653
internal_value=-3.28282e-12 0.0134867 -0.00514391 -0.000553976 0.00230367 0.00905717 0.000361312 0.00496391 -0.00591796 0.00303654 -0.00131641 0.00301665 0.0185032 0.0262876 0.00480473 0.00347635 -0.00974538 -0.00209587 0.0221388 0.0052963 0.02002 0.0226768 0.0280849 0.0325335 0.0116284 0.00426083 0.0309278 -0.0151531 -0.0107883 -0.00756066
internal_weight=13209 3647 9562 4787 3969 2798 3615 2086 1529 817 1425 1020 661 396 2016 1897 4775 721 354 1709 782 701 849 626 209 167 376 1374 830 3401
internal_count=13209 3647 9562 4787 3969 2798 3615 2086 1529 817 1425 1020 661 396 2016 1897 4775 721 354 1709 782 701 849 626 209 167 376 1374 830 3401
is_linear=0
shrinkage=0.05


Tree=29
num_leaves=31
num_cat=0
split_feature=0 0 5 5 10 5 7 6 10 7 6 7 7 7 1 6 6 5 6 6 7 7 6 6 7 6 7 6 6 7
split_gain=332.815 120.404 57.5138 41.4628 47.9754 34.0308 29.7554 28.933 45.9975 32.3794 26.2888 35.8644 28.2476 25.6583 23.4059 21.6575 21.0853 24.4818 20.2253 19.2152 29.0192 23.3206 17.7647 17.238 15.8236 30.128 16.2536 36.7421 15.4376 15.3738
threshold=1.0263935131676853 -0.11398494101067541 -0.068484132758494312 -0.025562273595209583 -4755.0999999999995 0.0039844943417453463 -1.397446947055794 -0.48120796520989589 -4027.3499999999999 -0.98360421822148891 0.91821128373112548 0.87120897607202619 -1.4074190610036099 -1.3276421494210913 -0.96081350317851411 -0.72926555783154723 0.93225227953989886 0.0031850129662674043 0.91821128373112548 -0.1582650616081214 1.0058325143675251 -1.0035484461171176 1.0164982543925356 -0.9632821546444269 0.67675275408964131 -0.68246223846897225 -0.80410616716082639 -0.1582650616081214 1.0539409098825956 1.5443266675495126
decision_type=2 2 2 2 2 2 2 2 2 2 2 2 2 2 2 2 2 2 2 2 2 2 2 2 2 2 2 2 2 2
left_child=1 3 14 4 -1 10 -6 8 15 18 11 -2 -12 28 -3 -8 17 24 -9 20 -5 -21 -16 -13 25 -15 -27 -28 -4 -10
right_child=5 2 13 19 6 -7 7 9 29 -11 12 23 -14 16 22 -17 -18 -19 -20 21 -22 -23 -24 -25 -26 26 27 -29 -30 -31
leaf_value=-0.019774253040307565 0.03342578201340967 -4.0211513735397015e-05 0.02248920218381352 -0.0046928856842827372 0.016582018628727054 0.0084358212213627385 0.033725257030856173 0.016448287227623433 -0.0018960325057064493 -0.013533217868950901 0.036228310092119499 0.023151303151124077 0.0010232316748700057 0.024470575611731847 0.025016273305952016 0.0090498720749255506 -0.0090361871246863994 -0.0048129370422225473 -0.0044713045071064798 -0.0073098011504925762 -0.01796873316117575 -0.020701350070683276 0.0017118235161607952 -0.0057707323649392878 0.00023235273147917268 0.013367891901917756 0.0072107589610747097 -0.02888470380357467 0.0027385854377613979 -0.027057962047939116
leaf_weight=389 787 173 203 1645 220 427 122 168 919 873 80 114 198 248 470 328 606 1032 370 528 549 846 99 94 874 250 239 100 193 65
leaf_count=389 787 173 203 1645 220 427 122 168 919 873 80 114 198 248 470 328 606 1032 370 528 549 846 99 94 874 250 239 100 193 65
internal_value=-3.9918e-12 -0.0030503 0.0033474 -0.00713837 -0.00323338 0.0206505 -0.00113406 -0.00250403 0.00249764 -0.00758722 0.0247476 0.0285456 0.0111542 0.000827671 0.0160649 0.0157396 -0.00059547 0.0012693 0.00206121 -0.0109186 -0.00801487 -0.0155553 0.0209615 0.0100808 0.00493785 0.00985135 0.00369588 -0.00343687 0.0128633 -0.00355815
internal_weight=13209 11509 4487 7022 3454 1700 3065 2845 1434 1411 1273 995 278 3745 742 450 3349 2743 538 3568 2194 1374 569 208 1711 837 589 339 396 984
internal_count=13209 11509 4487 7022 3454 1700 3065 2845 1434 1411 1273 995 278 3745 742 450 3349 2743 538 3568 2194 1374 569 208 1711 837 589 339 396 984
is_linear=0
shrinkage=0.05


Tree=30
num_leaves=31
num_cat=0
split_feature=11 5 6 11 7 5 6 7 7 6 6 7 7 10 7 3 6 10 7 6 7 6 1 7 6 7 7 6 7 5
split_gain=261.153 80.0539 75.1861 61.9022 47.9331 40.1407 35.6956 64.5915 53.983 44.4465 34.8387 38.966 38.4069 30.934 39.4518 24.4819 23.615 34.714 21.251 26.0447 20.5467 22.7099 19.679 18.2984 32.5064 36.6051 18.0305 17.8834 26.6892 17.4059
threshold=27.173215168023727 -0.022267594775966088 1.348801821866825 52.368985814592833 -1.397446947055794 -0.0053462867193195774 -0.56077360812627408 0.63686429829838376 -0.26561201397883882 0.91821128373112548 0.93225227953989886 -1.4074190610036099 0.7216272668548086 -4046.6499999999992 -1.2229349529690412 0.86376975985759752 -0.69650323427774563 -4029.2499999999995 0.6019618994810324 -0.82287219655669874 1.2102608502977226 -0.91179850334559365 1.4197387692666614 0.90112531791547112 -0.36887999873971272 -1.0035484461171176 0.97093011555017361 -0.93988049496313864 1.2002887363499066 0.07598787005377626
decision_type=2 2 2 2 2 2 2 2 2 2 2 2 2 2 2 2 2 2 2 2 2 2 2 2 2 2 2 2 2 2
left_child=1 2 4 5 22 10 7 16 9 -8 12 -12 13 14 -2 -5 17 -6 -19 -20 21 -9 -1 24 29 -26 -23 28 -14 -3
right_child=3 23 -4 15 6 -7 8 20 -10 -11 11 -13 27 -15 -16 -17 -18 18 19 -21 -22 26 -24 -25 25 -27 -28 -29 -30 -31
leaf_value=0.0089239844743643285 0.038757837810647372 2.643244158780569e-05 -0.014100826878632001 0.027819797770247203 0.039509561752521564 -3.4711598921906746e-05 0.011907782793496602 0.013508573590906854 -0.022274059255175706 -0.0074810303682247758 0.024278470676601528 -0.0067637261676185686 0.030983597070123815 0.037999886794893356 0.0084129200588295774 -0.001659839013237742 0.0058006347847587778 0.030660691980125485 0.033201508215732048 -0.011558246080321858 -0.010922816828528754 0.0009476794656962487 0.031191175889075936 -0.015788772931040609 -0.0043282213267915306 -0.018799254649550307 -0.020845054139975797 -0.00085900348866193839 -0.0053142747672973202 -0.009701208027609395
leaf_weight=214 149 1363 784 649 204 960 487 332 343 752 138 378 138 260 381 79 285 95 45 117 380 692 185 814 775 1002 110 324 80 694
leaf_count=214 149 1363 784 649 204 960 487 332 343 752 138 378 138 260 381 79 285 95 45 117 380 692 185 814 775 1002 110 324 80 694
internal_value=-1.35196e-11 -0.00425068 0.000123994 0.0116281 0.00275362 0.00825958 0.00104061 0.00507286 -0.00471975 0.000139916 0.0125683 0.00153826 0.0168412 0.0238737 0.0169438 0.0246208 0.0171148 0.0241095 0.0118853 0.000875019 -0.000860625 0.00251119 0.0192484 -0.00898018 -0.00753465 -0.012488 -0.00204135 0.00659092 0.0176633 -0.00325552
internal_weight=13209 9673 5025 3536 4241 2808 3842 2260 1582 1239 1848 516 1332 790 530 728 746 461 257 162 1514 1134 399 4648 3834 1777 802 542 218 2057
internal_count=13209 9673 5025 3536 4241 2808 3842 2260 1582 1239 1848 516 1332 790 530 728 746 461 257 162 1514 1134 399 4648 3834 1777 802 542 218 2057
is_linear=0
shrinkage=0.05


Tree=31
num_leaves=31
num_cat=0
split_feature=0 0 5 0 5 5 6 7 8 6 7 7 6 8 1 7 6 7 7 6 2 7 6 7 11 6 3 8 6 7
split_gain=273.43 100.191 55.3418 30.937 29.0814 23.0632 22.5118 22.9976 22.2743 17.9618 18.0936 17.5157 20.331 17.4746 16.7387 16.6246 23.9442 26.597 18.9002 17.0728 16.6272 15.5307 15.3083 14.7793 14.67 14.1027 13.9171 13.6772 13.6546 30.8316
threshold=1.0263935131676853 -0.22371397234800053 -0.039035797919530463 -0.87594396479096692 0.0039844943417453463 -0.11202623167597341 1.1990311999065819 0.87120897607202619 0.23771930875557634 0.91821128373112548 -1.4074190610036099 1.2102608502977226 1.0445802460100804 0.32825505058941373 -0.16729607903012242 -1.1381719844126164 -0.53269161650872909 -0.15591876055287882 0.91109743186328374 0.76376032983462572 0.13922086348060678 -1.3575584912645364 -0.79010987300289548 0.64683641224619637 6.8698840934166485 1.4424084605919749 -0.10572900970534149 0.14287149747358754 -0.48120796520989589 -0.49995669175248136
decision_type=2 2 2 2 2 2 2 2 2 2 2 2 2 2 2 2 2 2 2 2 2 2 2 2 2 2 2 2 2 2
left_child=1 3 5 13 6 14 7 9 -5 26 -11 12 21 -1 -3 25 18 19 20 -18 -17 -7 -9 24 -10 -4 -2 -12 -23 -30
right_child=4 2 15 8 -6 11 -8 22 23 10 27 -13 -14 -15 -16 16 17 -19 -20 -21 -22 28 -24 -25 -26 -27 -28 -29 29 -31
leaf_value=-0.013651950213576314 0.025867939078302052 0.010032919426759084 0.0073847405766080398 -0.0073158246420769041 0.0074261607879508879 0.029530762060312556 -0.0093956688762464532 0.013987797360162339 0.047306508198380476 0.035214259142715795 0.020674829235172689 -0.014160322862185746 -0.0017068680304916596 -0.00099059661217530182 0.042531129450903149 -0.00074717557922441712 0.0089398976918559948 -0.027557964520631258 -0.0078567164882722539 -0.010670724332067666 0.011721445085662502 0.013463806842495155 -0.026371581924872267 -0.0047305382802983117 0.0039365341548869047 -0.025721404274158616 0.03997711326468395 -0.0092757975228452746 0.0076877549366862058 -0.032513518237762828
leaf_weight=1870 525 75 597 2560 427 108 53 181 20 72 72 90 383 319 84 865 149 182 573 435 387 830 27 757 777 34 262 81 359 55
leaf_count=1870 525 75 597 2560 427 108 53 181 20 72 72 90 383 319 84 865 149 182 573 435 387 830 27 757 777 34 262 81 359 55
internal_value=-1.18094e-11 -0.0027648 0.00236837 -0.00700458 0.0187177 0.00893794 0.0225052 0.0238911 -0.00444937 0.0270033 0.0145452 0.00734673 0.00846237 -0.0118068 0.0272018 -0.00167694 -0.00344935 -0.0108685 -0.000335346 -0.00566733 0.00310694 0.0113432 0.00874884 0.000272715 0.00502486 0.00560089 0.030565 0.00481862 0.00976416 0.00234701
internal_weight=13209 11509 5206 6303 1700 1984 1273 1220 4114 1012 225 1825 1735 2189 159 3222 2591 766 1825 584 1252 1352 208 1554 797 631 787 153 1244 414
internal_count=13209 11509 5206 6303 1700 1984 1273 1220 4114 1012 225 1825 1735 2189 159 3222 2591 766 1825 584 1252 1352 208 1554 797 631 787 153 1244 414
is_linear=0
shrinkage=0.05


Tree=32
num_leaves=31
num_cat=0
split_feature=0 0 0 5 5 7 6 6 7 6 10 7 6 7 6 8 7 7 6 10 7 6 7 7 6 7 7 10 6 7
split_gain=248.436 66.846 57.8349 44.3425 38.3503 24.6734 29.65 24.6002 37.4952 33.2075 32.9311 24.4516 21.9972 23.7652 21.2766 21.2459 19.8081 16.0026 17.2361 15.4717 14.6983 16.753 14.3501 14.1987 12.8091 56.8411 22.1645 12.8885 37.6853 16.606
threshold=0.3919659335619301 1.5671352387864637 -0.72131504266952451 -0.091892299417514409 -0.063409180517837352 -1.4074190610036099 1.3066788344405051 -0.56077360812627408 -0.23569567213539391 0.91821128373112548 -4024.6499999999992 -1.3076979215254625 -0.82287219655669874 1.5193963826799741 1.0867032334363989 0.31024458120713444 0.64185035527228995 0.90112531791547112 -0.80415086881166875 -4603.1499999999987 0.8014041784373237 1.1990311999065819 -1.1381719844126164 1.0457209701587826 -0.46716696940112262 -0.15591876055287882 0.14823071485546624 -4023.1499999999992 -0.69182290234148724 0.62190612737666118
decision_type=2 2 2 2 2 2 2 2 2 2 2 2 2 2 2 2 2 2 2 2 2 2 2 2 2 2 2 2 2 2
left_child=2 4 15 -4 -2 6 -5 10 9 22 -7 19 13 16 17 -1 -12 24 -19 -6 21 -3 -9 -14 26 -26 -13 28 -28 -29
right_child=1 20 3 5 11 7 -8 8 -10 -11 12 14 23 -15 -16 -17 -18 18 -20 -21 -22 -23 -24 -25 25 -27 27 29 -30 -31
leaf_value=-0.01170377436192691 0.021361992445404335 0.028842532800889116 0.010614558665259517 0.017724954498599108 0.012971201771870257 0.0079433294274088278 -0.0087746245834524877 0.013859132309941902 -0.020269376325439417 -0.0091234291784824569 0.030047204429436414 0.04912539000312488 -0.0063769216134224628 -0.028101303672198864 -0.01279737335727082 -0.00042356670641837188 0.00074432159329820943 0.0025768125890853594 -0.020194197758110793 0.042764873988926415 0.012369437146913093 -0.01658474843328198 -0.0015861774604634328 -0.020913149059767631 0.0067300230833018358 -0.042831595242023471 0.040428421292165541 0.02480058981593521 0.0057619449314188394 0.00066827591397402111
leaf_weight=2580 417 605 671 293 185 780 165 262 475 1291 61 36 795 68 189 498 1057 281 118 57 223 21 353 213 526 65 113 84 256 471
leaf_count=2580 417 605 671 293 185 780 165 262 475 1291 61 36 795 68 189 498 1057 281 118 57 223 21 353 213 526 65 113 84 256 471
internal_value=-6.87377e-12 0.0111032 -0.00423483 -0.00155564 0.00737442 -0.00296046 0.00817816 -0.00391312 -0.0077006 -0.0045683 -0.00088084 0.00492468 -0.00401796 0.000597587 0.00322038 -0.00987871 0.00234314 0.00477287 -0.00415747 0.0199887 0.023392 0.0273186 0.00499378 -0.00944856 0.00707023 0.00127908 0.0106354 0.0091358 0.016378 0.00432073
internal_weight=13209 3647 9562 6484 2798 5813 458 5355 2381 1906 2974 2381 2194 1186 2139 3078 1118 1950 399 242 849 626 615 1008 1551 591 960 924 369 555
internal_count=13209 3647 9562 6484 2798 5813 458 5355 2381 1906 2974 2381 2194 1186 2139 3078 1118 1950 399 242 849 626 615 1008 1551 591 960 924 369 555
is_linear=0
shrinkage=0.05


Tree=33
num_leaves=31
num_cat=0
split_feature=11 5 6 11 7 5 6 7 7 6 6 6 7 5 1 7 7 6 7 7 6 10 1 3 1 9 7 6 7 5
split_gain=197.373 64.5555 60.1548 48.0802 38.3695 32.5886 28.2078 55.7152 44.2401 40.5081 31.8701 27.8515 22.0825 24.6796 20.8601 19.5617 18.4494 18.662 44.99 19.6937 18.3245 21.4325 19.4005 21.3921 16.4935 15.3166 14.9504 27.2739 28.8558 14.9767
threshold=27.173215168023727 -0.022267594775966088 1.348801821866825 52.368985814592833 -1.397446947055794 0.0039844943417453463 -0.48120796520989589 0.61193401342884857 -0.45508217898731396 0.91821128373112548 -0.69650323427774563 1.0820229015001421 1.2102608502977226 -0.072050852605102023 0.070759148214395107 1.2102608502977226 -1.3276421494210913 -0.46716696940112262 -0.15591876055287882 0.71664120988089886 -0.91179850334559365 -4027.3499999999999 -0.64340653351915733 0.21112737195974085 1.4197387692666614 208.50000000000003 0.90112531791547112 -0.36887999873971272 -1.0035484461171176 0.07598787005377626
decision_type=2 2 2 2 2 2 2 2 2 2 2 2 2 2 2 2 2 2 2 2 2 2 2 2 2 2 2 2 2 2
left_child=1 2 4 5 24 11 7 10 9 -8 -6 12 13 25 -5 20 -15 19 -19 -18 22 -22 -9 -24 -1 -2 27 29 -29 -3
right_child=3 26 -4 14 6 -7 8 15 -10 -11 -12 -13 -14 16 -16 -17 17 18 -20 -21 21 -23 23 -25 -26 -27 -28 28 -30 -31
leaf_value=0.0078911095750180873 -0.00075097690569236875 0.00032815330407777991 -0.012490589927026067 0.015550077812479662 0.030379067521832726 -0.0019645868581742087 0.012746492299001006 0.00039733378159158105 -0.018446293379803566 -0.0065168533718825434 0.0060476491957496582 -0.003142656610393322 -0.0072691086773195961 0.029824379951644105 0.033479909467335305 -0.0097489311519970007 0.023457384233874314 0.008230398017587251 -0.038069304035355654 0.0078741116759035272 0.011016926382369297 -0.0048796509595487886 0.017502977900827926 0.067390372004359961 0.028276561415011722 0.037028453414011411 -0.014096711544925375 -0.0039282460424724238 -0.016776540264719166 -0.0086951873456981767
leaf_weight=214 32 1363 784 484 279 728 441 157 401 716 260 324 127 133 244 382 367 418 60 453 299 729 153 25 185 166 814 775 1002 694
leaf_count=214 32 1363 784 484 279 728 441 157 401 716 260 324 127 133 244 382 367 418 60 453 299 729 153 25 185 166 814 775 1002 694
internal_value=-2.12492e-11 -0.00369534 0.000233106 0.0101089 0.00258524 0.00714021 0.00105261 0.00459105 -0.00413468 0.000825528 0.0186422 0.0103269 0.0128122 0.0143777 0.0215595 0.000250888 0.0120885 0.0102712 0.00241872 0.0148486 0.00305348 -0.000256036 0.0132092 0.0245096 0.017343 0.0309227 -0.00794243 -0.0066358 -0.011173 -0.00271618
internal_weight=13209 9673 5025 3536 4241 2808 3842 2284 1558 1157 539 2080 1756 1629 728 1745 1431 1298 478 820 1363 1028 335 178 399 198 4648 3834 1777 2057
internal_count=13209 9673 5025 3536 4241 2808 3842 2284 1558 1157 539 2080 1756 1629 728 1745 1431 1298 478 820 1363 1028 335 178 399 198 4648 3834 1777 2057
is_linear=0
shrinkage=0.05


Tree=34
num_leaves=31
num_cat=0
split_feature=0 0 5 10 7 5 0 5 5 1 6 7 7 6 6 10 7 6 10 7 6 6 7 7 7 4 7 6 6 5
split_gain=205.286 75.5441 42.1455 25.1054 34.4486 25.5629 25.0438 23.7576 21.7934 18.7505 15.2855 25.7418 21.378 15.6617 14.3434 19.6664 13.9763 20.0438 13.2371 13.0436 22.0038 16.3286 41.3371 24.7368 12.9019 12.591 12.1779 18.0106 10.888 10.4601
